%YAML:1.0
---
opencv_ml_svm:
   format: 3
   svmType: C_SVC
   kernel:
      type: LINEAR
   C: 1.0000000000000000e-02
   term_criteria: { epsilon:1.1920928955078125e-07, iterations:1000 }
   var_count: 256
   class_count: 30
   class_labels: !!opencv-matrix
      rows: 30
      cols: 1
      dt: i
      data: [ 45, 48, 49, 50, 51, 52, 53, 54, 55, 56, 57, 65, 66, 67, 68,
          69, 71, 72, 74, 75, 76, 77, 78, 79, 80, 82, 83, 84, 87, 88 ]
   sv_total: 435
   support_vectors:
      - [ -2.28698896e-20, -1.60919062e-05, -4.22412522e-05,
          -4.66299534e-05, -2.78271364e-05, 1.98249381e-06,
          8.47382944e-06, 3.44527289e-05, 3.81401369e-05, 8.26249743e-06,
          -3.52336901e-05, -5.25786709e-05, -4.65466946e-05,
          -4.22412522e-05, -1.60919062e-05, -2.28698896e-20,
          -2.28698896e-20, -1.60919062e-05, -2.79527139e-05,
          1.59238934e-05, 4.68117978e-05, 4.93430671e-05, 4.93430671e-05,
          4.93430671e-05, 4.93430671e-05, 4.77950489e-05, 1.39321601e-05,
          1.99307287e-05, 2.93782305e-05, -2.38123266e-05,
          -1.60613417e-05, -2.28698896e-20, -1.19568385e-05,
          -8.36136678e-06, 2.85549559e-05, 4.31509943e-05,
          4.31509943e-05, 2.82744659e-05, -7.46740113e-07,
          -3.42262611e-05, -3.88355184e-05, -3.89865318e-06,
          -5.16708170e-08, 1.76087015e-05, 4.31509943e-05,
          3.26443551e-05, -8.12928960e-08, -1.11914851e-05,
          -3.07360824e-05, 2.17696197e-05, 3.35097902e-05,
          3.07668524e-05, 2.13294134e-05, -4.51791930e-05,
          -6.52061644e-05, -6.52061644e-05, -6.52061644e-05,
          -6.61736776e-05, -8.60120199e-05, 2.92516432e-07,
          3.07668524e-05, 3.35097902e-05, 2.74943523e-05,
          -3.00351367e-05, -3.98892626e-05, 3.00965548e-05,
          2.02219762e-05, 1.85762128e-05, -3.99576566e-05,
          -7.73968059e-05, -7.73968059e-05, -7.73968059e-05,
          -7.73968059e-05, -7.79773109e-05, -9.07484573e-05,
          -4.50546067e-05, 1.85762128e-05, 2.02219762e-05,
          3.00965548e-05, -2.20270140e-05, -2.00675131e-05,
          1.00321849e-05, 6.74065859e-06, 2.61508876e-06,
          -7.68785612e-05, -8.97809514e-05, -8.97809514e-05,
          -8.97809514e-05, -8.97809514e-05, -8.99744482e-05,
          -9.42315019e-05, -8.39905842e-05, -1.15973444e-05,
          6.74065859e-06, 1.00321849e-05, -2.29552224e-05,
          -4.49845038e-06, 0., 0., -2.58778036e-05, -8.84434776e-05,
          -9.59730169e-05, -9.59730169e-05, -9.59730169e-05,
          -9.59730169e-05, -9.59730169e-05, -9.59730169e-05,
          -8.68189090e-05, -1.90406045e-05, 0., 0., -6.92895446e-06, 0.,
          0., 0., -2.58995933e-05, -8.84486726e-05, -9.59730169e-05,
          -9.59730169e-05, -9.59730169e-05, -9.59730169e-05,
          -9.59730169e-05, -9.59730169e-05, -8.97695209e-05,
          -3.14141544e-05, 0., 0., -2.35420998e-06, 0., 0., 0.,
          -2.58995933e-05, -8.84486726e-05, -9.59730169e-05,
          -9.59730169e-05, -9.59730169e-05, -9.59730169e-05,
          -9.59730169e-05, -9.59730169e-05, -8.97695209e-05,
          -3.14141544e-05, 0., 0., 0., -4.96611119e-06, 0., 0.,
          -2.58778036e-05, -8.84434776e-05, -9.59730169e-05,
          -9.59730169e-05, -9.59730169e-05, -9.59730169e-05,
          -9.59730169e-05, -9.59730169e-05, -8.69103314e-05,
          -1.94299901e-05, 0., 0., -7.39661527e-06, -1.57435443e-05,
          6.74264720e-06, 5.48587707e-07, -3.57698218e-06,
          -8.30706340e-05, -9.59730169e-05, -9.59730169e-05,
          -9.59730169e-05, -9.59730169e-05, -9.59730169e-05,
          -9.59730169e-05, -8.64702815e-05, -1.76408121e-05,
          5.48587707e-07, 6.74264720e-06, -2.29270827e-05,
          -1.49879643e-05, 2.02279407e-05, 1.64576306e-06, 0.,
          -5.74866790e-05, -9.59730169e-05, -9.59730169e-05,
          -9.59730169e-05, -9.59730169e-05, -9.59730169e-05,
          -9.59730169e-05, -7.48485618e-05, 0., 1.64576306e-06,
          2.02279407e-05, -7.13818599e-06, -2.96071194e-05,
          1.48578820e-05, 2.74293848e-06, 0., -1.27280400e-05,
          -9.34120180e-05, -9.59730169e-05, -9.59730169e-05,
          -9.59730169e-05, -9.59730169e-05, -9.34120180e-05,
          -2.90133430e-05, 0., 2.74293848e-06, 1.07589140e-05,
          -3.01350174e-05, -1.08562290e-05, -1.32577807e-05,
          2.34333265e-06, 0., 0., -1.55773960e-05, -6.73307368e-05,
          -9.53999697e-05, -9.55053620e-05, -7.33879060e-05,
          -1.98023263e-05, 0., 0., 1.75048717e-06, -1.14000104e-05,
          -1.05489607e-05, -2.28698896e-20, -3.80364254e-05,
          -5.45115581e-05, -1.34648744e-05, 0., 0., -3.52797741e-07,
          -1.66022471e-06, -1.66022471e-06, -3.52797741e-07, 0., 0.,
          -1.10755627e-05, -5.36022962e-05, -3.92750990e-05,
          -2.28698896e-20, -2.28698896e-20, -4.24082064e-05,
          -9.15843193e-05, -8.35781393e-05, -5.48283606e-05,
          -2.81357115e-05, -3.14866975e-06, -4.62896310e-07,
          -3.78582484e-07, -3.11810618e-06, -2.21164864e-05,
          -5.55405859e-05, -7.99482295e-05, -9.15843193e-05,
          -4.24082064e-05, -2.28698896e-20 ]
      - [ -1.35525272e-20, -1.69475752e-05, -3.23749664e-05,
          -1.53410074e-05, -2.23072288e-06, 5.32434615e-06,
          2.85579335e-05, 4.13668313e-05, 4.13668313e-05, 4.00690478e-05,
          -2.82339970e-05, -5.62127607e-05, -3.63770596e-05,
          -3.51502968e-05, -2.78408461e-05, -2.33427218e-05,
          1.23348059e-06, 2.59862481e-05, 4.25935941e-05, 4.13668313e-05,
          4.13668313e-05, 4.13668313e-05, 4.13668313e-05, 4.13668313e-05,
          4.13668313e-05, 4.00690478e-05, -1.40688608e-05,
          -5.01850445e-05, -3.63770596e-05, -3.51502968e-05,
          -2.78408461e-05, -2.33427218e-05, -8.67680046e-06,
          1.02857912e-05, 2.26149714e-05, 2.15415566e-05, 2.37001477e-05,
          2.89424388e-05, 3.19562969e-05, 3.61757011e-05, 3.61757011e-05,
          3.50401388e-05, -1.55288672e-05, -5.21317197e-05,
          -4.15681898e-05, -4.04947750e-05, -3.41053928e-05,
          -3.01695345e-05, -2.92682889e-05, -3.97178701e-05,
          -5.11837279e-05, -5.19504538e-05, -5.19504538e-05,
          -3.83821680e-05, 3.03880392e-06, 2.57934371e-05,
          2.57934371e-05, 2.49823224e-05, -1.84488781e-05,
          -5.63495123e-05, -5.19504538e-05, -5.11837279e-05,
          -4.65833764e-05, -4.38231618e-05, -4.84756019e-05,
          -5.48309436e-05, -6.17104597e-05, -6.21704967e-05,
          -6.21704967e-05, -4.86022109e-05, -7.18123692e-06,
          1.55733960e-05, 1.55733960e-05, 1.50867272e-05,
          -2.13688909e-05, -6.05673085e-05, -6.21704967e-05,
          -6.17104597e-05, -5.89502488e-05, -5.72634526e-05,
          -6.79877921e-05, -7.01062454e-05, -7.23994162e-05,
          -7.25527570e-05, -7.25527570e-05, -5.89844749e-05,
          -1.75635014e-05, 5.19113200e-06, 5.19113200e-06,
          5.02890907e-06, -2.42889018e-05, -6.47851048e-05,
          -7.25527570e-05, -7.23994162e-05, -7.14793423e-05,
          -7.09170781e-05, -7.48146122e-05, -7.63707940e-05,
          -7.77438909e-05, -7.77438909e-05, -7.77438909e-05,
          -6.41756051e-05, -2.27546334e-05, 0., 0., 0., -2.57489082e-05,
          -6.68939974e-05, -7.77438909e-05, -7.77438909e-05,
          -7.77438909e-05, -7.77438909e-05, -6.89560402e-05,
          -7.36245856e-05, -7.77438909e-05, -7.77438909e-05,
          -7.77438909e-05, -6.41756051e-05, -2.27546334e-05, 0., 0., 0.,
          -2.57489082e-05, -6.68939974e-05, -7.77438909e-05,
          -7.77438909e-05, -7.77438909e-05, -7.77438909e-05,
          -6.31890216e-05, -7.08783846e-05, -7.77438909e-05,
          -7.77438909e-05, -7.77438909e-05, -6.41756051e-05,
          -2.27546334e-05, 0., 0., 0., -2.57489082e-05, -6.68939974e-05,
          -7.77438909e-05, -7.77438909e-05, -7.77438909e-05,
          -7.77438909e-05, -5.73304533e-05, -6.81321835e-05,
          -7.77438909e-05, -7.77438909e-05, -7.77438909e-05,
          -6.41756051e-05, -2.27546334e-05, 0., 0., 0., -2.57489082e-05,
          -6.68939974e-05, -7.77438909e-05, -7.77438909e-05,
          -7.77438909e-05, -7.77438909e-05, -4.75743582e-05,
          -6.33438613e-05, -7.75905501e-05, -7.77438909e-05,
          -7.77438909e-05, -6.41756051e-05, -2.27546334e-05, 0., 0., 0.,
          -2.57489082e-05, -6.68939974e-05, -7.77438909e-05,
          -7.75905501e-05, -7.42371340e-05, -7.09170781e-05,
          -3.39207290e-05, -5.63303438e-05, -7.72838539e-05,
          -7.77438909e-05, -7.77438909e-05, -6.41756051e-05,
          -2.27546334e-05, 0., 0., 0., -2.57489082e-05, -6.68939974e-05,
          -7.77438909e-05, -7.72838539e-05, -6.72236129e-05,
          -5.72634526e-05, -2.04804401e-05, -4.93168263e-05,
          -7.69771650e-05, -7.77438909e-05, -7.77438909e-05,
          -6.41756051e-05, -2.27546334e-05, 0., 0., 0., -2.57489082e-05,
          -6.68939974e-05, -7.77438909e-05, -7.69771650e-05,
          -6.02100954e-05, -4.38231618e-05, -6.82681366e-06,
          -3.94249073e-05, -4.47541643e-05, -4.58275827e-05,
          -4.58275827e-05, -3.25072360e-05, -4.21940194e-06, 0., 0., 0.,
          -4.77973754e-06, -3.54980184e-05, -4.59847288e-05,
          -4.47541643e-05, -5.03181764e-05, -3.01695345e-05,
          6.61405356e-05, 3.87340042e-05, 1.22676124e-06, 0., 0., 0., 0.,
          0., 0., 0., 0., 0., 0., 1.22676124e-06, 2.78407351e-05,
          5.44011709e-05, 5.67975731e-05, 3.87340042e-05, 1.22676124e-06,
          0., 0., 0., 0., 0., 0., 0., 0., 0., 0., 1.22676124e-06,
          2.78407351e-05, 3.29694449e-05 ]
      - [ 2.03287907e-20, -1.73419940e-05, -3.32291056e-05,
          -7.26283042e-06, 3.68475321e-06, 3.68475321e-06,
          1.63769837e-05, 4.28027197e-05, 1.43119278e-05, 2.53712824e-06,
          -2.31271042e-05, -4.19994540e-05, -3.96125906e-05,
          -3.37890378e-05, -3.16845581e-05, -3.07340706e-05,
          2.42344163e-06, 1.30158778e-05, 2.73406622e-05, 4.55044719e-05,
          4.55044719e-05, 4.55044719e-05, 4.55044719e-05, 4.55044719e-05,
          4.55044719e-05, 4.43568497e-05, 1.86926172e-05, 1.63613931e-05,
          9.05296838e-06, -2.43211925e-05, -3.16845581e-05,
          -3.07340706e-05, 1.19446186e-05, 5.40262627e-05,
          4.00209283e-05, 3.63082399e-05, 1.50852475e-05, 1.13221249e-05,
          -3.49505099e-05, -1.28068559e-05, 1.25338456e-05,
          1.79018971e-05, 1.58049370e-05, 1.55039397e-05, 3.44397558e-05,
          2.77085546e-05, -2.29977231e-05, -3.67900684e-05,
          -2.87167477e-05, -1.53179590e-05, 1.12294208e-06,
          -3.75871932e-05, -5.06194265e-05, -5.06194265e-05,
          -5.06194265e-05, -5.06194265e-05, -5.06194265e-05,
          -5.13366940e-05, -9.24975393e-06, 1.10742430e-05,
          2.45588380e-05, 2.81854354e-05, 7.78735375e-06,
          -4.45282312e-05, -4.92543368e-05, -5.57575841e-05,
          -6.17644982e-05, -6.18617050e-05, -6.18617050e-05,
          -6.18617050e-05, -6.18617050e-05, -6.18617050e-05,
          -6.18617050e-05, -6.22920707e-05, -6.11809010e-05,
          6.64454546e-06, 1.48213749e-05, 1.70183303e-05,
          -3.90857122e-06, -5.64509792e-05, -6.90799789e-05,
          -7.12477340e-05, -7.32500339e-05, -7.32824410e-05,
          -7.32824410e-05, -7.32824410e-05, -7.32824410e-05,
          -7.32824410e-05, -7.32824410e-05, -7.34258938e-05,
          -6.58628051e-05, 2.21484856e-06, 4.94045798e-06,
          5.67277675e-06, -1.57829454e-05, -6.85629784e-05,
          -7.51359767e-05, -7.71849154e-05, -7.89928017e-05,
          -7.89928017e-05, -7.89928017e-05, -7.89928017e-05,
          -7.89928017e-05, -7.89928017e-05, -7.89928017e-05,
          -7.89928017e-05, -4.91671781e-05, 0., 0., -6.06883930e-07,
          -2.54251463e-05, -7.49834580e-05, -6.74223338e-05,
          -7.35691428e-05, -7.89928017e-05, -7.89928017e-05,
          -7.89928017e-05, -7.89928017e-05, -7.89928017e-05,
          -7.89928017e-05, -7.89928017e-05, -5.94657831e-05,
          -1.45794388e-06, 0., 0., -1.52486282e-05, -6.62357925e-05,
          -7.89928017e-05, -5.98292063e-05, -6.99533703e-05,
          -7.89928017e-05, -7.89928017e-05, -7.89928017e-05,
          -7.89928017e-05, -7.89928017e-05, -7.89928017e-05,
          -6.80675512e-05, -1.06629668e-05, 0., 0., -7.19897798e-06,
          -5.65460832e-05, -7.89928017e-05, -7.89928017e-05,
          -5.21155598e-05, -6.63375977e-05, -7.89928017e-05,
          -7.89928017e-05, -7.89928017e-05, -7.89928017e-05,
          -7.89928017e-05, -4.21000514e-05, -1.93221354e-06, 0., 0.,
          -2.16364242e-06, -4.74143635e-05, -7.89928017e-05,
          -7.89928017e-05, -7.89928017e-05, -4.33226014e-05,
          -6.22716179e-05, -7.89604019e-05, -7.89928017e-05,
          -7.89928017e-05, -7.72963976e-05, -1.56044553e-05,
          -3.37157729e-07, 0., 0., -1.92533698e-05, -7.24593847e-05,
          -7.89928017e-05, -7.89604019e-05, -7.66141893e-05,
          -7.40566684e-05, -3.34503347e-05, -5.75143822e-05,
          -7.88955949e-05, -7.89928017e-05, -6.72100214e-05,
          -1.22012252e-05, 0., 0., 0., -4.42116871e-05, -7.85081138e-05,
          -7.89928017e-05, -7.89928017e-05, -7.88955949e-05,
          -7.18569499e-05, -6.41844017e-05, -2.37323220e-05,
          -5.27571465e-05, -7.36620859e-05, -3.24438952e-05,
          -2.00467275e-06, 0., 0., -4.44748730e-06, -4.63942088e-05,
          -7.60769180e-05, -7.89928017e-05, -7.89928017e-05,
          -7.89928017e-05, -7.88307880e-05, -6.70997106e-05,
          -5.44663926e-05, -1.28984375e-05, -2.36576761e-05,
          -1.05638392e-05, 0., 0., 0., -3.36566586e-06, -2.29918969e-05,
          -2.72602610e-05, -2.72602610e-05, -2.72602610e-05,
          -2.72602610e-05, -2.72602610e-05, -2.70334403e-05,
          -1.76336143e-05, -4.07166190e-05, 4.68017715e-05,
          3.32172604e-05, 2.59224635e-07, 0., 0., 0., 0., 0., 0., 0., 0.,
          0., 0., 2.59224635e-07, 1.88746944e-05, 3.93348128e-05,
          3.96286414e-05, 3.32172604e-05, 2.59224635e-07, 0., 0., 0., 0.,
          0., 0., 0., 0., 0., 0., 2.59224635e-07, 1.88746944e-05,
          2.39180135e-05 ]
      - [ 1.35525272e-20, -1.66132104e-05, -2.63349521e-05,
          5.19672813e-06, 2.00294580e-05, 2.14793963e-05, 2.39327801e-05,
          3.70975067e-05, 3.64345469e-05, 2.25985950e-05,
          -4.06570189e-06, -2.29844372e-05, -2.27391884e-05,
          -3.32286763e-05, -2.97164806e-05, -2.60469951e-05,
          2.42596730e-06, 3.41381310e-05, 3.67045432e-05, 4.32025045e-05,
          4.32025045e-05, 4.07196312e-05, 3.95910538e-05, 3.95910538e-05,
          3.98167685e-05, 4.21086443e-05, 1.76574067e-05, 1.66658883e-05,
          3.30500807e-05, 1.87540318e-05, -1.99364076e-05,
          -2.58212785e-05, -6.97840278e-06, 2.49311543e-05,
          3.79795383e-05, 2.82277397e-05, -9.69043754e-07,
          -7.82601001e-06, -3.21047228e-05, -4.21016557e-05,
          -3.36417106e-05, -1.18578619e-05, -4.67650534e-06,
          1.47308965e-05, 3.27796079e-05, 3.81990430e-05, 3.62174274e-06,
          -3.02490553e-05, -3.00734755e-05, -3.65062187e-05,
          -3.74655392e-05, -4.81369534e-05, -5.29446370e-05,
          -5.29446370e-05, -5.29446370e-05, -5.29446370e-05,
          -5.29446370e-05, -5.36283005e-05, -3.92197435e-05,
          -1.98219436e-06, 2.33749379e-05, 2.72366233e-05,
          -6.27018792e-09, -4.29541360e-05, -4.98091940e-05,
          -5.63946487e-05, -6.32429073e-05, -6.36181940e-05,
          -6.36181940e-05, -6.36181940e-05, -6.36181940e-05,
          -6.36181940e-05, -6.36181940e-05, -6.40283979e-05,
          -5.86682800e-05, -1.79431408e-05, 1.41070022e-05,
          1.64436278e-05, -4.64802588e-06, -5.52395213e-05,
          -6.98581789e-05, -7.20533280e-05, -7.43360797e-05,
          -7.44611752e-05, -7.44611752e-05, -7.44611752e-05,
          -7.44611752e-05, -7.44611752e-05, -7.44611752e-05,
          -6.75220290e-05, -3.10785654e-05, 2.10441385e-06,
          4.70233408e-06, 5.48120897e-06, -3.39501203e-05,
          -7.05730272e-05, -7.66140292e-05, -7.83504947e-05,
          -7.98826659e-05, -7.98826659e-05, -7.93466170e-05,
          -7.05982820e-05, -6.64053659e-05, -5.43978131e-05,
          -2.91919787e-05, -6.82623977e-06, 0., 0., -1.96331939e-06,
          -2.06058667e-05, -7.17793737e-05, -7.98826659e-05,
          -7.00767414e-05, -7.52861379e-05, -7.98826659e-05,
          -7.98826659e-05, -4.75191737e-05, 0., 0., 0., 0., 0., 0.,
          -8.51632285e-06, -6.15162717e-05, -7.98826659e-05,
          -7.98826659e-05, -7.98826659e-05, -6.36416007e-05,
          -7.22217883e-05, -7.98826659e-05, -7.98826659e-05,
          -5.80371925e-05, -2.59620429e-05, -1.00949164e-05,
          -5.05603157e-06, -4.74002991e-06, 0., 0., -1.60911924e-07,
          -8.47824867e-06, -5.25165888e-05, -7.80769842e-05,
          -7.98826659e-05, -5.71043165e-05, -6.91574387e-05,
          -7.98826659e-05, -7.98826659e-05, -7.98826659e-05,
          -7.98826659e-05, -7.91321945e-05, -7.73213105e-05,
          -7.50685431e-05, -7.43054188e-05, -3.60402482e-05,
          -2.03144145e-06, 0., 0., -1.82799558e-05, -7.32380868e-05,
          -4.81258721e-05, -6.48007408e-05, -7.97575703e-05,
          -7.98826659e-05, -7.98826659e-05, -7.98826659e-05,
          -7.98826659e-05, -7.98826659e-05, -7.98826659e-05,
          -7.98826659e-05, -7.98826659e-05, -3.15297984e-05,
          -9.48005948e-07, 1.25096122e-07, 2.92666255e-06,
          -2.54113838e-05, -3.67062639e-05, -5.89474184e-05,
          -7.95073793e-05, -7.98826659e-05, -7.98826659e-05,
          -7.98826659e-05, -7.98826659e-05, -7.98826659e-05,
          -7.98826659e-05, -7.98826659e-05, -7.98826659e-05,
          -5.68792057e-05, -1.77550701e-05, 3.75288380e-07,
          8.77998809e-06, 1.28148376e-05, -2.33497522e-05,
          -2.92009463e-05, -7.17785661e-05, -7.98826659e-05,
          -7.98826659e-05, -7.98826659e-05, -7.98826659e-05,
          -7.98826659e-05, -7.98826659e-05, -7.98826659e-05,
          -7.98826659e-05, -3.68977962e-05, -3.90268769e-06,
          6.25480652e-07, 1.46333132e-05, 1.43270763e-05, 5.98085026e-05,
          3.26002046e-05, -3.27005182e-06, -1.73612661e-05,
          -4.88233200e-05, -6.78751167e-05, -6.78751167e-05,
          -6.78751167e-05, -6.78751167e-05, -5.50320037e-05,
          -2.19619869e-05, -1.21886478e-06, 0., 8.75672868e-07,
          9.61669775e-06, -6.55485974e-06, 3.21414700e-05,
          2.53567105e-05, -3.92965063e-07, 0., 0., 0., 0., 0., 0., 0.,
          0., 0., -1.28652380e-06, -7.48255252e-06, -3.54857839e-05,
          -3.33938333e-05, -8.33567901e-06, -4.06681502e-05,
          -5.80067026e-05, -3.54216390e-05, -1.31462002e-05, 0., 0., 0.,
          0., 0., -2.03144145e-06, -3.29874565e-05, -5.71632081e-05,
          -7.30283937e-05, -5.66478011e-05, -3.43826723e-05 ]
      - [ 2.71050543e-20, -8.92229491e-06, -2.34210238e-05,
          -2.58543769e-05, -2.64528371e-05, -3.72251197e-05,
          -4.49302970e-05, -4.31452572e-05, 8.97646805e-06,
          5.88211078e-05, 1.71700594e-05, 2.45627234e-05, 5.81542845e-05,
          1.24573362e-05, -2.79982141e-05, -1.90759201e-05,
          2.71050543e-20, -8.92229491e-06, -2.34210238e-05,
          -2.58543769e-05, -2.64528371e-05, -3.72251197e-05,
          -4.45997175e-05, 4.49969266e-05, 6.08106275e-05,
          5.89028423e-05, 1.71700594e-05, 2.45627234e-05, 6.08106275e-05,
          1.28029606e-05, -2.79982141e-05, -1.90759201e-05,
          -1.32694495e-05, -2.10764574e-05, -3.37501697e-05,
          -3.58793550e-05, -3.64030093e-05, -4.57539500e-05,
          1.62380566e-05, 5.31794904e-05, 5.31794904e-05, 5.12145889e-05,
          1.50238020e-05, 2.17010474e-05, 5.31794904e-05, 4.86765430e-06,
          -3.77585347e-05, -2.99515286e-05, -3.98083466e-05,
          -4.52833920e-05, -5.44084651e-05, -5.59293112e-05,
          -5.63033500e-05, -2.68472559e-05, 3.27328489e-05,
          3.79172125e-05, 2.30546211e-05, -1.62985616e-05,
          1.07312871e-05, 1.55007474e-05, 3.79172125e-05,
          -1.10029587e-05, -5.71777891e-05, -5.17027438e-05,
          -6.59325742e-05, -6.92784379e-05, -7.47534796e-05,
          -7.56659865e-05, -5.78743384e-05, 2.56825169e-05,
          2.28934114e-05, 2.07503890e-05, -5.23014169e-05,
          -3.36351550e-05, 6.43877229e-06, 9.30044826e-06,
          2.28934114e-05, -2.69807242e-05, -7.64599608e-05,
          -7.31140972e-05, -9.24714768e-05, -9.35867574e-05,
          -9.54117786e-05, -5.38799941e-05, 9.37803543e-06,
          8.60363525e-06, 7.41335998e-06, -3.91716421e-05,
          -9.81097837e-05, -4.81139832e-05, 2.14625743e-06,
          3.10014957e-06, 7.63113712e-06, -4.28513376e-05,
          -9.59805984e-05, -9.48653178e-05, -1.05740924e-04,
          -1.05740924e-04, -8.65207548e-05, -7.94936113e-06, 0., 0.,
          -7.00894961e-05, -1.05740924e-04, -1.05740924e-04,
          -5.55066472e-05, 0., 0., 0., -5.04410200e-05, -1.05740924e-04,
          -1.05740924e-04, -1.05740924e-04, -6.73456670e-05,
          -1.42420220e-06, 0., -1.40635984e-06, -4.92780491e-05,
          -1.05740924e-04, -1.05740924e-04, -1.05740924e-04,
          -5.55066472e-05, 0., 0., 0., -5.04410200e-05, -1.05740924e-04,
          -1.05740924e-04, -9.35533099e-05, -7.21763718e-06, 0.,
          -1.16638198e-07, -1.89736165e-05, -1.05740924e-04,
          -1.05740924e-04, -1.05740924e-04, -1.05740924e-04,
          -5.55066472e-05, 0., 0., 0., -5.04410200e-05, -1.05740924e-04,
          -1.05740924e-04, -2.70523487e-05, 0., 0., -7.72196188e-07,
          -3.31622759e-05, -3.31622759e-05, -3.31622759e-05,
          -3.31622759e-05, -3.31622759e-05, -1.57874820e-05, 0., 0., 0.,
          -1.76091762e-05, -3.67462962e-05, -9.73743008e-05,
          1.32694495e-05, 7.27723773e-06, 5.28591727e-07, 0., 0., 0., 0.,
          0., 0., 0., 0., 0., 0., 3.04169134e-07, 5.70627981e-06,
          1.08756085e-05, 5.62836203e-06, -1.23482723e-05,
          -3.25942092e-05, -3.41799860e-05, -3.41799860e-05,
          -3.41799860e-05, -3.41799860e-05, -3.41799860e-05,
          -3.41799860e-05, -1.91201889e-05, 0., 0., 0., -1.42581357e-05,
          -1.70611456e-05, -3.89758816e-06, -3.98083466e-05,
          -6.93547336e-05, -1.03097962e-04, -1.05740924e-04,
          -1.05740924e-04, -1.05740924e-04, -1.05740924e-04,
          -1.05740924e-04, -1.05740924e-04, -5.55066472e-05, 0., 0., 0.,
          -4.89201739e-05, -7.72095227e-05, -5.17027438e-05,
          -1.32694495e-05, -5.49764554e-05, -1.02040780e-04,
          -1.05740924e-04, -1.05740924e-04, -1.05740924e-04,
          -1.05740924e-04, -1.05740924e-04, -1.05740924e-04,
          -5.55066472e-05, 0., 0., 0., -4.83118347e-05, -6.58983554e-05,
          -2.99515286e-05, 2.71050543e-20, -4.79376904e-05,
          -1.01512189e-04, -1.05740924e-04, -1.05740924e-04,
          -1.05740924e-04, -1.05740924e-04, -1.05740924e-04,
          -1.05740924e-04, -5.55066472e-05, 0., 0., 0., -4.80076669e-05,
          -6.04305496e-05, -1.90759201e-05, 2.71050543e-20,
          -4.79376904e-05, -1.01512189e-04, -1.05740924e-04,
          -1.05740924e-04, -1.05740924e-04, -1.05740924e-04,
          -1.05740924e-04, -1.05740924e-04, -5.71279161e-05, 0., 0.,
          -1.51629649e-06, -4.83532895e-05, -6.04305496e-05,
          -1.90759201e-05 ]
      - [ 6.77626358e-21, -2.00797767e-05, -1.20035729e-05,
          1.51020304e-05, 2.76929550e-05, 2.76929550e-05, 2.76929550e-05,
          2.76929550e-05, 2.76929550e-05, 2.64592454e-05,
          -5.28152555e-07, 4.63933566e-06, 3.81769096e-05,
          3.08975432e-05, 2.94029760e-05, -1.83562606e-05,
          6.77626358e-21, -1.88136783e-05, 5.13839996e-06,
          3.93244918e-05, 3.93244918e-05, 3.93244918e-05, 3.67771754e-05,
          2.73486548e-05, 2.73486548e-05, 2.61149453e-05,
          -8.72451665e-07, 3.90817286e-06, 2.73486548e-05,
          2.93750709e-05, 3.13121236e-05, -1.75924743e-05,
          -1.06130983e-05, -2.49683108e-05, 3.26361965e-06,
          3.43896536e-05, 3.43896536e-05, 3.19680548e-05,
          -2.37086642e-05, -3.46080342e-05, -3.46080342e-05,
          -3.56875316e-05, -5.92822289e-05, -5.49642427e-05,
          -3.46080342e-05, -3.28349233e-05, -3.19803512e-05,
          -3.13546989e-05, -3.18392958e-05, -3.34031356e-05,
          7.55938845e-06, 2.45199790e-05, 2.45199790e-05, 1.27227504e-05,
          -5.10996069e-05, -6.00531530e-05, -6.00531530e-05,
          -6.08242190e-05, -7.76335146e-05, -7.45492362e-05,
          -6.00531530e-05, -5.87866416e-05, -5.11875842e-05,
          -4.66281526e-05, -5.27338343e-05, -4.83027652e-05,
          -5.04971126e-07, 1.48045146e-05, 1.48045146e-05,
          -5.85299267e-06, -6.97686119e-05, -6.97686119e-05,
          -6.97686119e-05, -7.02312536e-05, -8.04093579e-05,
          -7.85587981e-05, -6.97686119e-05, -6.90087109e-05,
          -6.44492757e-05, -6.16629550e-05, -7.39600291e-05,
          -6.38960337e-05, -9.72884027e-06, 4.93483822e-06,
          4.93483822e-06, -1.97183199e-05, -4.78355250e-05,
          -4.55306981e-05, -4.55306981e-05, -4.56849120e-05,
          -4.90776147e-05, -5.31677288e-05, -7.96382883e-05,
          -7.93849904e-05, -7.78651811e-05, -7.69364051e-05,
          -8.15967578e-05, -6.63961691e-05, -1.07729220e-05, 0., 0.,
          -3.26666373e-06, -1.91264212e-06, 0., 0., 0., 0.,
          -5.86960732e-06, -8.90108549e-06, -3.68005312e-05,
          -7.67491583e-05, -8.45731265e-05, -7.56440131e-05,
          -6.71661910e-05, -1.99876904e-05, -2.89421308e-07,
          -1.66203154e-05, -2.02870124e-05, -3.11093936e-05,
          -5.24263851e-05, -2.97083316e-05, -2.02870124e-05,
          -1.39840142e-06, 0., 0., -2.67769906e-06, -1.60327018e-05,
          -7.78193207e-05, -6.97842770e-05, -7.75972585e-05,
          -8.33949525e-05, -7.29802487e-05, -8.34353268e-05,
          -8.45731265e-05, -8.45731265e-05, -8.45731265e-05,
          -8.45731265e-05, -8.45731265e-05, -7.59246032e-05,
          -2.10233320e-05, 0., 0., 0., -1.94716613e-05, -6.38315250e-05,
          -7.48069069e-05, -8.45731265e-05, -8.45731265e-05,
          -8.45731265e-05, -8.45731265e-05, -8.45731265e-05,
          -8.45731265e-05, -8.45731265e-05, -8.45731265e-05,
          -8.45731265e-05, -6.77693606e-05, 0., 0., 0., -1.42173067e-05,
          -5.32184313e-05, -6.94184200e-05, -8.43198286e-05,
          -8.45731265e-05, -8.45731265e-05, -8.45731265e-05,
          -8.45731265e-05, -8.45731265e-05, -8.45731265e-05,
          -8.45731265e-05, -8.45731265e-05, -7.85683660e-05,
          -4.09473978e-06, 2.53301891e-07, 4.08631877e-06,
          -3.90288187e-06, -3.79449775e-05, -6.12457879e-05,
          -8.38132255e-05, -8.45731265e-05, -8.45731265e-05,
          -8.45731265e-05, -8.45731265e-05, -8.45731265e-05,
          -8.45731265e-05, -8.45731265e-05, -8.45731265e-05,
          -7.82250936e-05, -2.69713382e-06, 7.59905731e-07,
          1.22589563e-05, 8.69286941e-06, -1.97638074e-05,
          -1.39812901e-05, -4.88921469e-05, -8.24280069e-05,
          -8.45731265e-05, -8.45731265e-05, -8.45731265e-05,
          -8.45731265e-05, -8.45731265e-05, -8.45731265e-05,
          -8.45731265e-05, -2.16659191e-05, 0., 1.26650957e-06,
          2.04315947e-05, 4.98921645e-06, 4.91174869e-05, 3.95881871e-05,
          -6.24469692e-07, -1.45726754e-05, -4.15630711e-05,
          -4.23582751e-05, -7.86973687e-05, -8.45731265e-05,
          -6.63128085e-05, -4.15630711e-05, -1.24970229e-05,
          -3.82528413e-07, 0., 1.77311335e-06, -9.24512915e-06,
          -2.81014381e-05, 1.50742508e-05, 1.27377753e-05,
          -3.28975284e-06, 0., 0., -1.99685019e-06, -7.88024136e-06,
          -7.88024136e-06, -1.12665646e-06, 0., 0., 0., -9.72411999e-06,
          -4.47308521e-05, -4.41597913e-05, -2.35953776e-05,
          6.77626358e-21, -3.71013666e-05, -7.08866792e-05,
          -5.11883627e-05, -3.15433426e-05, -3.15433426e-05,
          -3.15433426e-05, -1.28509473e-05, -1.28509473e-05,
          -3.15433426e-05, -3.15433426e-05, -4.29373868e-05,
          -7.44914651e-05, -8.13452643e-05, -5.21212278e-05,
          -2.37179756e-05 ]
      - [ 3.38813179e-20, -1.60850614e-05, -4.22232879e-05,
          -4.66101228e-05, -4.31534208e-05, -1.26639634e-05,
          6.90079514e-06, 3.01435266e-05, 4.79246046e-05, 4.77795620e-05,
          1.09195537e-06, -1.27296853e-05, 4.67671816e-06,
          -2.57294651e-05, -1.04585733e-05, 2.92581859e-07,
          3.38813179e-20, -1.60850614e-05, -4.06807994e-05,
          -1.24277676e-05, 4.84289631e-05, 5.37723863e-05,
          5.37723863e-05, 5.37723863e-05, 5.30375146e-05, 4.91854662e-05,
          1.30236522e-05, 2.17198267e-05, 5.37723863e-05, 5.81592212e-05,
          5.73559519e-05, 1.20906816e-05, -1.25970209e-05,
          -2.10987837e-05, 1.34639431e-05, 4.70244777e-05,
          4.70244777e-05, 4.69232255e-05, 3.69956178e-05,
          -6.57547048e-07, -1.90279952e-05, -2.77340841e-05,
          -4.27731429e-05, -3.26951595e-05, 3.06167167e-05,
          4.15472241e-05, 2.05985034e-05, -1.01634478e-05,
          -3.55088378e-05, 1.26452005e-06, 3.62704377e-05,
          3.35286641e-05, 3.23286185e-05, -9.76071806e-06,
          -6.68538487e-05, -6.68538487e-05, -6.68538487e-05,
          -6.79082077e-05, -9.08932634e-05, -8.66758201e-05,
          -6.68538487e-05, -6.41120714e-05, -4.76614405e-05,
          -3.77910619e-05, -4.54825386e-05, 3.14665813e-05,
          2.18887853e-05, 2.02437222e-05, -1.69949471e-05,
          -8.01387869e-05, -8.01387869e-05, -8.01387869e-05,
          -8.01387869e-05, -8.07714023e-05, -9.46889631e-05,
          -9.21584942e-05, -8.01387869e-05, -7.84937220e-05,
          -6.86233470e-05, -6.25914472e-05, -4.51808774e-05,
          1.05863883e-05, 7.29626163e-06, 2.40638337e-06,
          -8.44801907e-05, -9.36346041e-05, -9.36346041e-05,
          -9.36346041e-05, -9.36346041e-05, -9.38454759e-05,
          -9.84846629e-05, -9.76411757e-05, -9.36346041e-05,
          -9.30862443e-05, -8.97961218e-05, -8.77854909e-05,
          -1.95421817e-05, 0., 0., -2.28394510e-05, -9.52660048e-05,
          -9.15349301e-05, -5.00751630e-05, -1.25012252e-06, 0., 0., 0.,
          -1.48638428e-05, -7.71642735e-05, -9.62137201e-05,
          -9.99404510e-05, -1.00382509e-04, -6.14421924e-06, 0., 0., 0.,
          0., 0., -2.83685239e-07, -6.62591560e-07, -6.62591560e-07,
          -5.44554212e-07, 0., 0., 0., -1.82512231e-05, -7.00633100e-05,
          -9.84712606e-05, -2.68643362e-06, 0., 0., 0., 0.,
          -1.11141317e-05, -8.04386509e-05, -9.82337151e-05,
          -9.82337151e-05, -9.81156772e-05, -5.07491422e-05,
          -1.71054071e-05, 0., 0., -1.45113029e-06, -6.97974683e-05,
          -6.14421924e-06, 0., 0., -9.16469980e-06, -8.77204802e-05,
          -1.00382509e-04, -1.00382509e-04, -1.00382509e-04,
          -1.00382509e-04, -1.00382509e-04, -1.00382509e-04,
          -6.00110761e-05, -1.40408856e-05, 0., 0., -4.63772085e-05,
          -3.42728490e-05, 7.00156215e-06, 5.48354421e-07,
          -1.17773661e-05, -9.30034366e-05, -1.00382509e-04,
          -1.00382509e-04, -1.00382509e-04, -1.00382509e-04,
          -1.00382509e-04, -1.00382509e-04, -9.48423258e-05,
          -1.93547894e-05, 5.48354421e-07, 7.00156215e-06,
          -1.91150339e-05, -2.29263187e-05, 2.10046874e-05,
          1.64506321e-06, 0., -4.96781067e-05, -1.00382509e-04,
          -1.00382509e-04, -1.00382509e-04, -1.00382509e-04,
          -1.00382509e-04, -1.00382509e-04, -9.47172375e-05,
          -1.88700869e-05, 1.64506321e-06, 2.10046874e-05,
          1.00389398e-05, -3.02843346e-05, -1.80627467e-07,
          2.74177205e-06, 0., -9.14030534e-06, -7.31530963e-05,
          -1.00382509e-04, -1.00382509e-04, -1.00382509e-04,
          -1.00382509e-04, -1.00382509e-04, -5.92760989e-05,
          -3.23408312e-06, 2.74177205e-06, 3.50078117e-05,
          6.75313504e-06, -1.17464342e-05, -2.75382135e-05,
          -1.55355283e-05, 0., 0., -1.73373974e-05, -7.11461616e-05,
          -9.40674072e-05, -1.00382509e-04, -9.78053577e-05,
          -5.19013302e-05, -4.98408872e-06, 0., 3.83848055e-06,
          2.69946449e-05, -2.94126448e-06, 3.38813179e-20,
          -4.47636667e-05, -7.61832416e-05, -2.33778646e-05,
          -1.51562540e-06, 0., 0., 0., 0., 0., 0., 0., -1.02299043e-06,
          -2.26025804e-05, -2.72577599e-05, 4.45238072e-07,
          3.38813179e-20, -4.47636667e-05, -9.59956742e-05,
          -1.00382509e-04, -6.91426831e-05, -4.59492039e-05,
          -1.41602486e-05, -1.00992238e-05, -5.04713944e-06,
          -2.65584049e-06, -1.09286284e-05, -4.57625029e-05,
          -6.54859905e-05, -9.33108313e-05, -4.47636667e-05,
          3.38813179e-20 ]
      - [ 3.99524506e-05, 4.08713931e-05, 2.19702779e-05, 2.02526935e-05,
          2.02526935e-05, 2.02526935e-05, 2.02526935e-05, 2.02526935e-05,
          2.02526935e-05, 1.96173150e-05, 5.71840792e-06, 8.18050012e-06,
          2.02526935e-05, 2.19702779e-05, 3.22042179e-05, 3.34896031e-05,
          5.19974928e-05, 3.57943391e-05, 1.68932238e-05, 1.51756394e-05,
          1.51756394e-05, 1.51756394e-05, 1.51756394e-05, 1.51756394e-05,
          1.51756394e-05, 1.45402601e-05, 5.53708423e-06, 8.18050012e-06,
          2.02526935e-05, 2.19702779e-05, 3.22042179e-05, 1.75591776e-05,
          -5.23652898e-06, 5.41973077e-06, -1.11735280e-05,
          -1.26764153e-05, -1.26764153e-05, -1.26764153e-05,
          -1.26764153e-05, -1.26764153e-05, -1.26764153e-05,
          -1.32323712e-05, -2.46586933e-05, 7.22743198e-06,
          1.77111797e-05, 1.88514186e-05, 1.07167143e-05, 2.32824092e-07,
          -2.61469049e-05, -3.61294733e-05, -4.80329218e-05,
          -4.91064129e-05, -4.91064129e-05, -4.91064129e-05,
          -4.91064129e-05, -4.91064129e-05, -4.91064129e-05,
          -3.42723579e-05, -2.81527809e-05, 5.16245154e-06,
          1.26281502e-05, 1.30450223e-06, -3.07873161e-05,
          -3.77274155e-05, -4.02476762e-05, -4.63238575e-05,
          -5.34659230e-05, -5.41100198e-05, -5.41100198e-05,
          -5.41100198e-05, -5.41100198e-05, -5.41100198e-05,
          -4.50438492e-05, -8.15523526e-06, 1.99375540e-06,
          3.09747088e-06, -1.97123404e-06, -3.64494372e-05,
          -4.89428166e-05, -4.72396823e-05, -5.45722651e-05,
          -5.65976588e-05, -5.89783485e-05, -5.91930475e-05,
          -5.91930475e-05, -5.91930475e-05, -5.91930475e-05,
          -5.47506243e-05, -2.18621899e-05, 1.14500790e-06,
          7.14800990e-07, -3.22521601e-06, -3.64347943e-05,
          -5.89783485e-05, -5.76901621e-05, -5.69029362e-05,
          -5.94038938e-05, -6.06420617e-05, -6.17345650e-05,
          -6.17345650e-05, -6.17345650e-05, -6.17345650e-05,
          -6.02839755e-05, -3.70951311e-05, -4.21466984e-06, 0., 0.,
          -3.20955951e-05, -6.17345650e-05, -6.17345650e-05,
          -6.17345650e-05, -6.17345650e-05, -5.47425552e-05,
          -5.84570589e-05, -6.17345650e-05, -6.17345650e-05,
          -6.17345650e-05, -6.17345650e-05, -5.55528386e-05,
          -1.98879734e-05, 0., 0., -2.23934385e-05, -4.93539701e-05,
          -6.17345650e-05, -6.17345650e-05, -6.17345650e-05,
          -6.17345650e-05, -5.01540526e-05, -5.62720561e-05,
          -6.17345650e-05, -6.17345650e-05, -6.17345650e-05,
          -6.10210263e-05, -3.01418841e-05, 0., 0., 0., -2.72658108e-05,
          -6.17345650e-05, -6.17345650e-05, -6.17345650e-05,
          -6.14969904e-05, -6.12959702e-05, -4.54927140e-05,
          -5.40870569e-05, -6.17345650e-05, -6.17345650e-05,
          -6.17345650e-05, -6.05128262e-05, -1.92115731e-05, 0., 0.,
          -1.29646223e-05, -6.03417611e-05, -6.17345650e-05,
          -6.17345650e-05, -6.17345650e-05, -6.10035786e-05,
          -6.04187917e-05, -3.83304177e-05, -5.03731681e-05,
          -6.15198660e-05, -6.17345650e-05, -6.17345650e-05,
          -4.70137056e-05, 0., 0., 0., -2.19671911e-05, -6.06808935e-05,
          -6.17345650e-05, -6.17345650e-05, -6.15198660e-05,
          -5.78159452e-05, -5.47099880e-05, -2.86671639e-05,
          -4.49847248e-05, -6.10904681e-05, -6.17345650e-05,
          -6.17345650e-05, -3.25319816e-05, 0., 0., 0., -2.19671911e-05,
          -6.06808935e-05, -6.17345650e-05, -6.17345650e-05,
          -6.10904681e-05, -5.19340865e-05, -4.41878256e-05,
          -1.91548988e-05, -3.95962816e-05, -6.06610738e-05,
          -6.17345650e-05, -6.17345650e-05, -6.34440312e-06, 0., 0., 0.,
          -4.65966659e-05, -6.16028556e-05, -6.17345650e-05,
          -6.17345650e-05, -6.06610738e-05, -4.60522315e-05,
          -3.37983802e-05, -9.49164405e-06, -3.42794046e-05,
          -6.02316759e-05, -6.17345650e-05, -6.17345650e-05, 0., 0., 0.,
          0., -4.81771676e-05, -6.17345650e-05, -6.17345650e-05,
          -6.17345650e-05, -6.02316759e-05, -4.03333142e-05,
          -2.34041436e-05, -4.66001666e-06, -3.16646037e-05,
          -6.00169769e-05, -6.17345650e-05, -4.22422963e-05, 0., 0., 0.,
          -1.36899162e-05, -5.32542217e-05, -6.17345650e-05,
          -6.17345650e-05, -6.17345650e-05, -6.00169769e-05,
          -3.77185170e-05, -1.85725166e-05, -4.66001666e-06,
          -3.16646037e-05, -6.00169769e-05, -6.17345650e-05,
          -3.80011661e-05, 0., 0., 0., -1.53666424e-05, -5.38657368e-05,
          -6.17345650e-05, -6.17345650e-05, -6.17345650e-05,
          -6.00169769e-05, -3.77185170e-05, -1.85725166e-05 ]
      - [ -7.45388994e-20, -2.21072351e-05, -4.81875250e-05,
          -2.70439959e-05, 1.81280302e-05, 4.12701775e-05,
          4.12701775e-05, 4.50836560e-05, 4.50836560e-05, 4.05488208e-05,
          2.30350761e-05, -2.19492977e-05, -4.38850766e-05,
          -4.70873347e-05, -3.03358411e-05, -1.76327267e-05,
          -7.45388994e-20, -1.37963234e-05, 1.14942277e-05,
          4.83168478e-05, 5.06305296e-05, 5.01844443e-05, 3.03732104e-05,
          2.32131970e-05, 2.32131970e-05, 3.68884866e-05, 3.21790758e-05,
          1.78496011e-05, 3.02635563e-05, 1.97349345e-05,
          -1.72952805e-05, -1.76327267e-05, -7.63390108e-06,
          3.98653683e-05, 4.73083201e-05, 4.42768942e-05, 4.20610886e-05,
          7.94035896e-06, -5.49678189e-05, -6.07965194e-05,
          -6.07965194e-05, -5.81733948e-05, -1.69464256e-05,
          1.13960969e-05, 2.76944884e-05, 4.57909737e-05, 1.85808840e-05,
          -2.48066262e-05, -3.25399415e-05, 3.02885928e-05,
          3.37349265e-05, 3.15696234e-05, -1.82680051e-05,
          -7.35037902e-05, -7.35037902e-05, -7.35037902e-05,
          -7.35037902e-05, -7.39546376e-05, -8.48669151e-05,
          -2.41249963e-05, 1.97560148e-05, 3.26511108e-05,
          4.48987776e-05, -4.09382337e-05, -5.84992558e-05,
          9.64258561e-06, 2.03600866e-05, 1.90609062e-05,
          -3.46024026e-05, -8.60125074e-05, -8.60125074e-05,
          -8.60125074e-05, -8.60125074e-05, -8.62830202e-05,
          -9.28844893e-05, -6.66760461e-05, 1.19077104e-05,
          1.97097979e-05, 1.70958592e-05, -6.37219782e-05,
          -8.70575896e-05, -2.80617005e-05, 6.78669585e-06,
          6.35363494e-06, 6.35363494e-06, -2.26248776e-05,
          -9.87197782e-05, -9.87197782e-05, -9.87197782e-05,
          -9.88099491e-05, -1.01010439e-04, -2.94676902e-05,
          3.96923679e-06, 6.56993234e-06, -3.33376265e-05,
          -8.97674909e-05, -1.02860678e-04, -9.75145012e-05,
          -5.30119469e-05, -6.74351122e-06, 0., -3.38745878e-07,
          -1.79983690e-05, -3.81265017e-05, -6.78426004e-05,
          -6.90667875e-05, -3.36935482e-05, 0., -2.52926611e-07,
          -3.93465416e-05, -9.60752295e-05, -1.05073414e-04,
          -9.84352082e-05, -1.01961756e-04, -1.05073414e-04,
          -5.64436596e-05, -4.37155040e-06, 0., 0., 0., 0., 0., 0.,
          -1.20559628e-06, -3.13542332e-05, -9.06408459e-05,
          -1.05073414e-04, -1.05073414e-04, -9.40788887e-05,
          -9.27499204e-05, -5.06757024e-05, -5.93806135e-06,
          -4.44938877e-08, -6.81850133e-06, -1.94144959e-05,
          -1.69456471e-05, -4.86793851e-06, 0., 0., -2.48420573e-08,
          -5.28059445e-06, -5.66281524e-05, -1.01611768e-04,
          -1.05073414e-04, -7.79303227e-05, -8.81303640e-06, 0., 0.,
          -3.61403581e-05, -1.04050057e-04, -1.05073414e-04,
          -1.04380058e-04, -8.57945633e-05, -5.31769583e-05,
          -2.31970716e-05, 0., 0., -3.22946761e-07, -3.48445137e-05,
          -9.18102960e-05, -3.12073535e-05, 1.26125715e-05,
          4.33060677e-07, -4.07510088e-05, -9.88175525e-05,
          -1.05073414e-04, -1.05073414e-04, -1.05073414e-04,
          -1.05073414e-04, -1.05073414e-04, -1.04104576e-04,
          -3.52188072e-05, -3.35346863e-06, 4.33060677e-07,
          4.38396501e-06, -1.47972369e-05, 4.01469260e-05,
          2.13805015e-05, 1.29918203e-06, -4.88273836e-05,
          -1.00746358e-04, -1.05073414e-04, -1.05073414e-04,
          -1.05073414e-04, -1.05073414e-04, -1.05073414e-04,
          -1.05073414e-04, -9.47575463e-05, -2.38941593e-05,
          1.29918203e-06, 1.31518955e-05, 2.01113980e-05, 5.49218712e-05,
          3.01484324e-05, 2.16530339e-06, -4.34881149e-05,
          -9.94560323e-05, -1.05073414e-04, -1.05073414e-04,
          -1.05073414e-04, -1.05073414e-04, -1.05073414e-04,
          -1.05073414e-04, -9.38676676e-05, -2.01566727e-05,
          2.16530339e-06, 2.19198246e-05, 3.48863396e-05, 3.77364722e-06,
          3.87720065e-05, 3.03142474e-06, -5.25056112e-06,
          -4.51168307e-05, -8.18353874e-05, -1.05073414e-04,
          -1.05073414e-04, -1.05073414e-04, -1.05073414e-04,
          -8.87666320e-05, -1.63018140e-05, 0., 3.03142474e-06,
          3.05434005e-05, 2.48353481e-05, -2.24496689e-05,
          9.53832227e-07, -7.35470030e-06, 0., 0., -3.38745878e-07,
          -1.35498358e-05, -2.16410517e-05, -2.76382852e-05,
          -1.53888341e-05, -1.35498358e-05, 0., 0., -4.27302894e-06,
          -2.56901694e-05, -4.26047372e-05, -2.76373430e-05,
          -5.65876762e-05, -7.84571312e-05, -4.86518620e-05,
          -2.46269174e-05, 0., 0., 0., 0., 0., 0., -2.08637157e-05,
          -4.57204114e-05, -8.46847033e-05, -7.02362158e-05,
          -4.52700697e-05 ]
      - [ -1.35525272e-20, -1.91312301e-05, -4.40894328e-05,
          -2.68312979e-05, -3.45301760e-06, 1.27207995e-05,
          2.07399225e-05, 4.25844300e-05, 2.04627104e-05, 8.11907739e-06,
          -3.74689444e-05, -7.17967632e-05, -4.70779305e-05,
          -4.40894328e-05, -2.62829544e-05, -1.53251203e-05,
          -1.35525272e-20, -9.97371717e-06, 1.39294571e-05,
          4.61630298e-05, 5.00511997e-05, 5.00511997e-05, 5.00511997e-05,
          5.00511997e-05, 5.00511997e-05, 4.84809643e-05, 1.41321034e-05,
          1.69585310e-05, 1.35190103e-05, -3.16657934e-05,
          -2.62829544e-05, -1.53251203e-05, -6.92589947e-06,
          3.84324230e-05, 4.63852011e-05, 4.37702656e-05, 4.31164153e-05,
          7.41488429e-06, -3.49190414e-05, -5.33588645e-05,
          -3.31839656e-05, -7.50076242e-06, 7.14792395e-06,
          1.78614082e-05, 4.37702656e-05, 2.46847594e-05,
          -1.80267034e-05, -2.53660419e-05, 9.32969397e-06,
          4.87904690e-05, 3.30762086e-05, 2.48277011e-05,
          -3.34708348e-05, -6.59207362e-05, -6.59207362e-05,
          -6.59207362e-05, -6.59207362e-05, -6.69021319e-05,
          -6.41313818e-05, 5.71074906e-06, 3.12083939e-05,
          3.30762086e-05, 1.26033920e-05, -4.11301990e-05,
          3.65662600e-05, 2.93920493e-05, 1.99634924e-05,
          -3.82902454e-06, -7.08583975e-05, -7.82863281e-05,
          -7.82863281e-05, -7.82863281e-05, -7.82863281e-05,
          -7.88751640e-05, -9.18295918e-05, -4.34656249e-05,
          1.88428039e-05, 1.99634924e-05, 2.66876159e-05,
          -2.63921793e-05, 1.01083206e-05, 9.79734978e-06,
          6.65449716e-06, -1.63908935e-05, -8.34202729e-05,
          -9.08481961e-05, -9.08481961e-05, -9.08481961e-05,
          -9.08481961e-05, -9.10444724e-05, -9.53626150e-05,
          -8.61480512e-05, -1.23173786e-05, 6.65449716e-06,
          8.89587227e-06, -3.43501633e-05, -2.01220173e-05,
          9.01477733e-07, 0., -2.06354380e-05, -8.79099098e-05,
          -9.71291302e-05, -9.71291302e-05, -9.71291302e-05,
          -9.71291302e-05, -9.71291302e-05, -9.71291302e-05,
          -8.35384199e-05, -1.37020925e-05, 0., 0., 0., -5.13919040e-05,
          2.40722852e-06, 0., 0., -2.82379660e-05, -8.52875237e-05,
          -9.66536027e-05, -9.66536027e-05, -9.66536027e-05,
          -8.94664627e-05, -4.10668872e-05, -4.22399580e-06, 0., 0., 0.,
          0., -8.41744768e-05, -4.37506824e-05, -5.52800793e-06, 0., 0.,
          0., -2.21217192e-06, -2.21217192e-06, -2.21217192e-06,
          -5.53042980e-07, 0., 0., 0., 0., 0., 0., -8.37271582e-05,
          -8.98684666e-05, -9.23225234e-05, -4.20454344e-05,
          -1.56019614e-05, 0., 0., 0., -1.72378748e-06, -4.10893590e-05,
          -8.11084901e-05, -8.75637197e-05, -1.99913338e-05, 0., 0.,
          -4.46157646e-05, -7.15384085e-05, -8.44182796e-05,
          -9.67555679e-05, -9.71291302e-05, -9.71291302e-05,
          -9.71291302e-05, -9.64561768e-05, -9.53345880e-05,
          -9.71291302e-05, -9.71291302e-05, -9.71291302e-05,
          -7.35445647e-05, -1.94408381e-06, 3.73562472e-07,
          5.55912538e-06, -3.43501633e-05, -5.10072059e-05,
          -7.33000270e-05, -9.60084435e-05, -9.71291302e-05,
          -9.71291302e-05, -9.71291302e-05, -9.71291302e-05,
          -9.71291302e-05, -9.71291302e-05, -9.71291302e-05,
          -9.71291302e-05, -4.18272139e-05, 0., 1.12068744e-06,
          9.24725828e-06, -5.44626346e-05, -3.07968039e-05,
          -6.21817817e-05, -9.52613191e-05, -9.71291302e-05,
          -9.71291302e-05, -9.71291302e-05, -9.71291302e-05,
          -9.71291302e-05, -9.71291302e-05, -9.71291302e-05,
          -6.34533935e-05, -5.84169641e-07, 0., 1.86781233e-06,
          -1.52100856e-05, -4.27869927e-05, -8.09344965e-06,
          -1.01937931e-05, -1.17239497e-05, -2.83792760e-05,
          -8.00129346e-05, -9.08878283e-05, -9.71291302e-05,
          -8.83913090e-05, -6.70275913e-05, -2.51066085e-05,
          -4.67222208e-07, 0., -1.24825988e-06, -3.34738506e-05,
          -4.80710150e-05, -2.55907216e-05, 8.17316231e-06,
          4.30956788e-05, 2.98849977e-06, 0., 0., -8.98722519e-08,
          -3.59489013e-06, -2.11199790e-06, 0., 0., 0., -3.25822703e-06,
          -4.51511260e-05, -8.55806575e-05, -5.29769277e-05,
          -1.53251203e-05, -1.35525272e-20, -3.75277814e-05,
          -6.07106449e-05, -3.06944967e-05, -9.59474892e-06,
          -5.05248045e-06, 0., -7.07347272e-06, -8.02452723e-06,
          -2.24150299e-05, -4.92499494e-05, -8.53531164e-05,
          -9.71291302e-05, -9.41406324e-05, -5.29769277e-05,
          -1.53251203e-05 ]
      - [ -1.69406589e-20, -9.98198811e-06, -1.87162277e-05,
          -1.87162277e-05, -1.88736594e-05, -1.80733750e-05,
          4.58966315e-05, 5.73925390e-05, 5.73925390e-05, 5.26540862e-05,
          -5.59771543e-05, -5.83643123e-05, -2.69262146e-05,
          -2.40261834e-05, -2.37343575e-05, -2.37343575e-05,
          -1.69406589e-20, -9.98198811e-06, -1.87162277e-05,
          -1.87162277e-05, -1.88736594e-05, -4.79992332e-06,
          5.73925390e-05, 5.73925390e-05, 5.73925390e-05, 5.57379026e-05,
          -1.81261271e-06, -5.83825531e-05, -2.69444536e-05,
          -2.40261834e-05, -2.37343575e-05, -2.37343575e-05,
          -1.01806299e-05, -1.88414724e-05, -2.65481558e-05,
          -2.65481558e-05, -2.62327230e-05, 5.00173192e-05,
          5.01903378e-05, 4.50676016e-05, 4.64271579e-05, 4.87425314e-05,
          1.44252690e-05, -6.01443608e-05, -3.37271522e-05,
          -3.11919066e-05, -3.09365569e-05, -3.09365569e-05,
          -3.05418907e-05, -3.67072353e-05, -4.22120102e-05,
          -4.22120102e-05, -3.31327465e-05, 3.70650669e-05,
          3.57859353e-05, 2.90840876e-06, -1.75091136e-05,
          3.47517889e-05, 1.20249706e-05, -3.42878084e-05,
          -4.73290311e-05, -4.55233530e-05, -4.53409593e-05,
          -4.53409593e-05, -5.05850076e-05, -5.43282513e-05,
          -5.76311140e-05, -5.76311140e-05, -1.03815746e-05,
          2.23740808e-05, 1.93406777e-05, -4.41150478e-05,
          -5.71033052e-05, 2.09861137e-05, 7.22592631e-06,
          -1.47209366e-05, -6.07240800e-05, -5.96297286e-05,
          -5.95202946e-05, -5.95202946e-05, -7.09462693e-05,
          -7.21940160e-05, -7.32949702e-05, -7.32949702e-05,
          -6.33656146e-06, 7.45802708e-06, 1.59492373e-07,
          -7.39246971e-05, -7.34715068e-05, -1.22122919e-05,
          2.40864210e-06, -9.24287747e-07, -7.43259588e-05,
          -7.39611714e-05, -7.39246971e-05, -7.39246971e-05,
          -7.87781901e-05, -8.00259440e-05, -8.11268983e-05,
          -6.97624127e-05, 0., 0., -5.41875961e-05, -8.11268983e-05,
          -8.11268983e-05, -4.92403269e-05, 0., 0., -2.15362998e-05,
          -8.11268983e-05, -8.11268983e-05, -8.11268983e-05,
          -7.40807882e-05, -7.78240355e-05, -7.87099125e-05,
          -2.24303426e-06, 0., -1.42329907e-06, -6.16722828e-05,
          -8.11268983e-05, -8.11268983e-05, -7.32102708e-05,
          -5.42441194e-06, 0., -4.43894533e-06, -7.89161422e-05,
          -8.11268983e-05, -8.11268983e-05, -6.94567789e-05,
          -7.56221198e-05, -7.31353211e-05, -1.82790529e-06, 0.,
          -9.45924694e-06, -7.93582949e-05, -8.11268983e-05,
          -8.11268983e-05, -8.11268983e-05, -6.72910255e-06, 0.,
          -4.74433051e-07, -5.57180938e-05, -8.11268983e-05,
          -8.11268983e-05, -6.47593697e-05, -7.34202113e-05,
          -4.23372694e-05, 0., 0., -1.96265501e-06, -2.01873081e-05,
          -2.01873081e-05, -2.01873081e-05, -2.01873081e-05,
          -1.96265501e-06, 0., 0., -1.84611545e-05, -8.11268983e-05,
          -8.11268983e-05, -5.51623962e-05, -6.75174015e-05,
          -1.56372989e-05, 0., 0., 0., 0., 0., 0., 0., 0., 0., 0.,
          -4.21059303e-06, -7.66648955e-05, -7.45083526e-05,
          -4.06658510e-05, -5.02438525e-05, 1.77110437e-07, 0.,
          -5.65746541e-06, -3.43035572e-05, -3.43035572e-05,
          -3.43035572e-05, -3.43035572e-05, -3.43035572e-05,
          -3.20376312e-05, -1.33288877e-05, 0., 0., -1.70752137e-05,
          -6.12712538e-05, -2.41298876e-05, 1.49465150e-05,
          2.95184037e-07, 0., -4.86081626e-05, -8.11268983e-05,
          -8.11268983e-05, -8.11268983e-05, -8.11268983e-05,
          -8.11268983e-05, -8.11268983e-05, -4.44686157e-05, 0., 0.,
          3.20651270e-06, -4.58091636e-05, -5.33099092e-06,
          2.44221610e-05, 4.13257681e-07, -5.85363932e-06,
          -5.45978801e-05, -8.11268983e-05, -8.11268983e-05,
          -8.11268983e-05, -8.11268983e-05, -8.11268983e-05,
          -8.11268983e-05, -8.08896802e-05, 0., 0., 1.93449414e-05,
          -1.66695008e-05, 2.51664951e-05, 3.66333443e-05,
          4.72294488e-07, -7.21319384e-06, -8.11268983e-05,
          -8.11268983e-05, -8.11268983e-05, -8.11268983e-05,
          -8.11268983e-05, -8.11268983e-05, -8.11268983e-05,
          -8.11268983e-05, -4.94726919e-06, 0., 2.46127220e-05,
          3.30458824e-05, 6.01163410e-05, 3.66333443e-05,
          -8.87260398e-07, -5.57189160e-05, -8.11268983e-05,
          -8.11268983e-05, -8.11268983e-05, -8.11268983e-05,
          -8.11268983e-05, -8.11268983e-05, -8.11268983e-05,
          -8.11268983e-05, -7.18960146e-05, -1.35955486e-06,
          2.46127220e-05, 4.83530384e-05 ]
      - [ -9.12834821e-06, 4.13495618e-05, 4.13495618e-05,
          4.13495618e-05, 4.13495618e-05, 4.13495618e-05, 4.13495618e-05,
          4.13495618e-05, 4.13495618e-05, 4.09025779e-05, 1.27373487e-05,
          -4.57279348e-05, -3.74586889e-05, -6.76642157e-05,
          -3.51806411e-05, 2.71050543e-20, 4.13495618e-05,
          4.13495618e-05, 4.13495618e-05, 4.13312446e-05, 4.11444053e-05,
          4.11444053e-05, 4.11444053e-05, 4.11444053e-05, 4.11444053e-05,
          4.08952510e-05, 2.94242618e-05, 1.41512128e-05, 2.26439352e-05,
          2.36352898e-05, -1.96499968e-05, 2.71050543e-20,
          3.61605998e-05, 3.61605998e-05, 3.61605998e-05, 2.60605266e-05,
          -7.11526664e-05, -7.11526664e-05, -7.11526664e-05,
          -7.11526664e-05, -7.11526664e-05, -7.15437855e-05,
          1.08713157e-05, 1.25132065e-05, 1.98994549e-05, 3.46726520e-05,
          1.74331126e-05, -9.98283940e-06, 2.57826687e-05,
          2.57826687e-05, 2.57826687e-05, 1.56825972e-05,
          -8.15305975e-05, -8.15305975e-05, -8.15305975e-05,
          -8.15305975e-05, -8.15305975e-05, -8.18099652e-05,
          -8.89629591e-05, -3.44002874e-05, 1.41979335e-05,
          2.47198495e-05, 4.51837586e-05, -2.35668358e-05,
          1.55668949e-05, 1.55668949e-05, 1.55668949e-05, 5.46682213e-06,
          -9.17463767e-05, -9.17463767e-05, -9.17463767e-05,
          -9.17463767e-05, -9.17463767e-05, -9.19139929e-05,
          -9.62393169e-05, -3.79786288e-05, 8.55228336e-06,
          1.49292027e-05, 2.72075486e-05, -5.00795250e-05,
          5.18896468e-06, 5.18896468e-06, 5.18896468e-06,
          -4.91110768e-06, -1.02124301e-04, -1.02124301e-04,
          -1.02124301e-04, -1.02124301e-04, -1.02124301e-04,
          -1.02180180e-04, -7.93013678e-05, -6.33860645e-06,
          2.85076135e-06, 4.97640076e-06, -3.73144030e-05,
          -9.05091219e-05, 0., 0., 0., -2.98248960e-06, -3.40442493e-05,
          -3.40442493e-05, -3.40442493e-05, -3.40442493e-05,
          -3.40442493e-05, -3.33958087e-05, 0., 0., 0., -1.62628821e-05,
          -9.18778751e-05, -1.07313266e-04, 0., 0., 0., 0., 0., 0., 0.,
          0., 0., 0., 0., 0., -7.65676020e-07, -6.05203059e-05,
          -1.07313266e-04, -1.07313266e-04, 0., 0., 0., -4.17172805e-06,
          -4.70677260e-05, -4.75696288e-05, -4.75696288e-05,
          -4.75696288e-05, -4.70127743e-05, -4.67233549e-05, 0., 0., 0.,
          -1.83176088e-08, -3.17930608e-05, -9.96722738e-05, 0., 0., 0.,
          -1.01000724e-05, -1.07313266e-04, -1.07313266e-04,
          -1.07313266e-04, -1.07313266e-04, -1.07313266e-04,
          -1.07313266e-04, -1.07313266e-04, -6.37697594e-05,
          -2.98248960e-06, 0., 0., -2.23474814e-07, 1.78794141e-06,
          8.38097549e-07, 0., -1.01000724e-05, -1.07313266e-04,
          -1.07313266e-04, -1.07313266e-04, -1.07313266e-04,
          -1.07313266e-04, -1.07313266e-04, -1.07313266e-04,
          -1.07313266e-04, -1.07313266e-04, 0., 4.71831527e-06,
          1.00657398e-05, 5.36382458e-06, 2.51429265e-06, 0.,
          -1.01000724e-05, -1.07313266e-04, -1.07313266e-04,
          -1.07313266e-04, -1.07313266e-04, -1.07313266e-04,
          -1.07313266e-04, -1.07313266e-04, -1.07313266e-04,
          -1.01055673e-04, 0., 1.41549463e-05, 3.01972195e-05,
          8.88383420e-06, 4.19048774e-06, 0., -1.01000724e-05,
          -1.07313266e-04, -1.07313266e-04, -1.07313266e-04,
          -1.07313266e-04, -1.07313266e-04, -1.07313266e-04,
          -1.07313266e-04, -1.07313266e-04, -1.01000724e-05, 0.,
          2.35915777e-05, 5.00141432e-05, 1.24597173e-05, 5.86668284e-06,
          0., -1.75661580e-06, -5.60010121e-05, -1.07313266e-04,
          -1.07313266e-04, -1.07313266e-04, -1.07313266e-04,
          -2.34615309e-05, -2.07020476e-05, -7.95559208e-06,
          -3.66352171e-09, 0., 3.30282091e-05, -3.62163314e-06,
          1.42476583e-05, 6.64890740e-06, 0., 0., 0., 0., 0., 0., 0., 0.,
          0., 0., 0., -1.58525672e-05, -5.39000393e-05, -2.70689325e-05,
          -3.62302526e-05, 6.64890740e-06, 0., 0., 0., 0., 0., 0., 0.,
          -5.79870211e-05, -5.96557147e-05, -5.99854320e-05,
          -1.02343358e-04, -1.07313266e-04, -6.98813019e-05,
          -2.71019053e-05 ]
      - [ -2.03287907e-20, -1.11788349e-05, -2.93444409e-05,
          -3.23932145e-05, -3.23980639e-05, -1.95551784e-05,
          5.16076807e-06, 1.24862036e-05, 1.54599529e-05, 3.13582022e-05,
          -5.93720915e-06, -1.27582434e-05, -8.03095872e-07,
          -1.87289334e-05, -1.13333799e-05, -1.54544779e-07,
          -2.03287907e-20, -1.11788349e-05, -2.93444409e-05,
          -1.22135507e-05, 2.76363789e-05, 3.55607262e-05,
          3.54983022e-05, 3.54983022e-05, 3.54983022e-05, 3.43972933e-05,
          1.02873992e-05, 1.43005400e-05, 3.52197058e-05, 3.78355653e-05,
          3.26201189e-05, 5.18240131e-06, -8.53911388e-06,
          -1.35976161e-05, 3.39298958e-06, 3.11787662e-05,
          3.11745207e-05, 3.10987634e-05, 2.73808964e-05, 1.04588707e-05,
          -8.53562960e-06, -9.49901187e-06, -3.05779649e-05,
          -8.71298289e-06, 2.56551048e-05, 3.36891280e-05,
          4.30303735e-05, 1.37232382e-06, -2.33731498e-05,
          1.50187930e-06, 2.30996939e-05, 2.22305989e-05, 2.22275685e-05,
          7.46845990e-06, -3.62074570e-05, -4.59118273e-05,
          -4.59118273e-05, -4.65999583e-05, -6.16170291e-05,
          -5.90212185e-05, -4.60843657e-05, -1.28279935e-05,
          -1.50160649e-05, -2.57137035e-05, -2.87686562e-05,
          1.32283840e-05, 1.45655385e-05, 1.34222482e-05,
          -2.03700947e-05, -5.46583578e-05, -5.46819938e-05,
          -5.46819938e-05, -5.46819938e-05, -5.50948716e-05,
          -6.41876904e-05, -6.26311594e-05, -5.47864693e-05,
          -5.35482031e-05, -4.66789643e-05, -4.24869031e-05,
          -1.09638404e-05, 7.14175940e-06, 4.85517967e-06,
          -9.16369754e-06, -5.60352128e-05, -6.35834949e-05,
          -6.35913748e-05, -6.35913748e-05, -6.35913748e-05,
          -6.37289995e-05, -6.67599379e-05, -6.62410966e-05,
          -6.36261975e-05, -6.32134397e-05, -6.09236959e-05,
          -5.95263409e-05, -9.68388122e-06, 0., 0., -2.10809376e-05,
          -6.80460653e-05, -6.80460653e-05, -6.80460653e-05,
          -6.80460653e-05, -6.80460653e-05, -6.80460653e-05,
          -6.80460653e-05, -6.80460653e-05, -6.80460653e-05,
          -6.80460653e-05, -6.80460653e-05, -6.80460653e-05, 0., 0., 0.,
          -2.10809376e-05, -6.80460653e-05, -6.80460653e-05,
          -6.80460653e-05, -6.80460653e-05, -6.80460653e-05,
          -6.80460653e-05, -6.80460653e-05, -6.80460653e-05,
          -6.80460653e-05, -6.80460653e-05, -6.80460653e-05,
          -6.80460653e-05, 0., 0., 0., -2.10809376e-05, -6.80460653e-05,
          -6.80460653e-05, -6.80460653e-05, -6.80460653e-05,
          -6.80460653e-05, -6.80460653e-05, -6.80460653e-05,
          -6.80460653e-05, -6.80460653e-05, -6.80460653e-05,
          -6.80460653e-05, -6.80460653e-05, 0., 0., 0., -2.10809376e-05,
          -6.80460653e-05, -6.80460653e-05, -6.80460653e-05,
          -6.80460653e-05, -6.80460653e-05, -6.80460653e-05,
          -6.80460653e-05, -6.80460653e-05, -6.80460653e-05,
          -6.80460653e-05, -6.80460653e-05, -6.80460653e-05,
          -9.64786523e-06, 4.74479521e-06, 3.82914806e-07,
          -1.42559002e-05, -6.11783180e-05, -6.80460653e-05,
          -6.80460653e-05, -6.80460653e-05, -6.80460653e-05,
          -6.80460653e-05, -6.80460653e-05, -6.80460653e-05,
          -6.80460653e-05, -6.76649652e-05, -6.33139935e-05,
          -5.95769961e-05, -2.63410857e-05, 1.42343852e-05,
          1.14874445e-06, 0., -3.37905258e-05, -6.80460653e-05,
          -6.80460653e-05, -6.80460653e-05, -6.80460653e-05,
          -6.80460653e-05, -6.80460653e-05, -6.80460653e-05,
          -6.80460653e-05, -6.69027722e-05, -5.38498571e-05,
          -4.26388651e-05, -2.09563368e-05, 5.55488532e-06,
          1.91457411e-06, 0., 0., -3.52620918e-05, -6.80460653e-05,
          -6.80460653e-05, -6.80460653e-05, -6.80460653e-05,
          -6.80460653e-05, -6.80460653e-05, -6.80460653e-05,
          -4.64561817e-05, -1.65209156e-06, -1.92942334e-05,
          -8.89210696e-06, -3.12242373e-05, -9.21876654e-06, 0., 0., 0.,
          -1.01401974e-05, -2.34825620e-05, -5.19493806e-05,
          -5.19493806e-05, -5.19493806e-05, -3.43175379e-05,
          -1.29521250e-05, 2.66767643e-06, 3.29974428e-05,
          4.31048538e-05, -4.03647363e-07, -3.03529650e-05,
          -6.49827416e-05, -3.22823216e-05, -4.53020357e-06, 0., 0., 0.,
          0., 0., 0., 0., 0., 3.04877312e-06, 2.61982968e-05,
          1.53310775e-05, -4.03647363e-07, -3.03529650e-05,
          -6.49827416e-05, -6.80460653e-05, -6.17941478e-05,
          -4.62098214e-05, -2.01727926e-05, -1.30122871e-05,
          -1.06026037e-05, -7.32543549e-06, -1.30122871e-05,
          -1.30122871e-05, -2.88650663e-05, -4.59057701e-05,
          -3.04541772e-05, -5.58192141e-07 ]
      - [ -1.59186475e-05, 2.36210453e-05, 3.86095890e-05,
          3.86095890e-05, 3.86095890e-05, 3.86095890e-05, 3.86095890e-05,
          1.77618858e-05, 1.47641776e-05, -1.23362743e-05,
          -5.75328049e-05, -7.07972067e-05, -5.71867749e-05,
          -5.58494685e-05, -2.97146125e-05, 0., 1.67657563e-05,
          3.86095890e-05, 3.86095890e-05, 3.86095890e-05, 3.86095890e-05,
          3.86095890e-05, 3.86095890e-05, 3.86095890e-05, 3.86095890e-05,
          3.66480344e-05, 1.01259684e-05, 8.21707090e-06,
          -1.59892224e-05, -4.22690173e-05, -2.97146125e-05, 0.,
          1.19206306e-05, 3.37644633e-05, 3.37644633e-05, 1.93533542e-05,
          -3.94421913e-05, -4.41065786e-05, -2.37731565e-05,
          -6.74071907e-06, 1.80211103e-07, 1.66144273e-05,
          1.04502269e-05, 1.36016988e-05, 3.05699905e-05, 6.85364876e-06,
          -2.03201744e-05, -1.18367980e-05, 2.23038091e-06,
          2.40742138e-05, 2.40742138e-05, 9.90655053e-07,
          -7.02502730e-05, -7.02502730e-05, -7.02502730e-05,
          -7.02502730e-05, -7.02502730e-05, -6.03370281e-05,
          -2.68541826e-05, 8.55471535e-06, 2.31574468e-05,
          2.39901074e-05, 1.87956903e-05, -2.41854450e-05,
          -7.30845841e-06, 1.45353742e-05, 1.45353742e-05,
          -8.54818427e-06, -7.97891116e-05, -7.97891116e-05,
          -7.97891116e-05, -7.97891116e-05, -7.97891116e-05,
          -8.02181094e-05, -8.56187544e-05, -2.85701535e-05,
          1.39802669e-05, 1.44849100e-05, 2.70215628e-06,
          -2.47829894e-06, -1.69987088e-05, 4.84512475e-06,
          4.84512475e-06, -1.82384338e-05, -8.94793629e-05,
          -8.94793629e-05, -8.94793629e-05, -8.94793629e-05,
          -8.94793629e-05, -8.96223646e-05, -9.27851725e-05,
          -8.26520336e-05, -2.19908543e-06, 4.82830319e-06,
          8.12247163e-06, -1.85490680e-05, -2.18438327e-05, 0., 0.,
          -2.32646307e-05, -9.43244886e-05, -9.43244886e-05,
          -9.43244886e-05, -9.43244886e-05, -9.43244886e-05,
          -9.43244886e-05, -9.43244886e-05, -9.22217732e-05,
          -1.44858159e-05, 0., 0., -2.84782345e-05, -2.18438327e-05, 0.,
          0., -2.32646307e-05, -9.43244886e-05, -9.43244886e-05,
          -9.43244886e-05, -9.43244886e-05, -9.43244886e-05,
          -9.43244886e-05, -9.43244886e-05, -9.36411088e-05,
          -2.05311080e-05, 0., 0., 0., -2.18438327e-05, 0., 0.,
          -2.32646307e-05, -9.43244886e-05, -9.43244886e-05,
          -9.43244886e-05, -9.43244886e-05, -9.43244886e-05,
          -9.43244886e-05, -9.43244886e-05, -9.43244886e-05,
          -2.32646307e-05, 0., 0., 0., -2.18438327e-05, 0., 0.,
          -2.32646307e-05, -9.43244886e-05, -9.43244886e-05,
          -9.43244886e-05, -9.43244886e-05, -9.43244886e-05,
          -9.43244886e-05, -9.43244886e-05, -9.23269108e-05,
          -1.50114938e-05, 0., 0., 0., 4.60477196e-07, 2.14499164e-06,
          0., -2.30835594e-05, -9.43244886e-05, -9.43244886e-05,
          -9.43244886e-05, -9.43244886e-05, -9.43244886e-05,
          -9.43244886e-05, -9.43244886e-05, -7.77359601e-05, 0., 0.,
          5.42233875e-06, -1.88182112e-05, -6.74405237e-06,
          6.43497469e-06, 0., -2.30835594e-05, -9.43244886e-05,
          -9.43244886e-05, -9.43244886e-05, -9.43244886e-05,
          -9.43244886e-05, -9.43244886e-05, -9.43244886e-05,
          -3.48872418e-05, 0., 0., -5.39824350e-06, -4.65756239e-06,
          2.27369110e-05, 1.07249580e-05, 0., -2.30835594e-05,
          -9.43244886e-05, -9.43244886e-05, -9.43244886e-05,
          -9.43244886e-05, -9.43244886e-05, -8.36962499e-05,
          -3.19148821e-05, -1.64857329e-06, 0., 0., -5.63377171e-06,
          -3.16432415e-05, 1.41605460e-05, 1.50149408e-05, 0.,
          -7.65745972e-06, -6.16825128e-05, -6.65930638e-05,
          -6.65930638e-05, -5.01907052e-05, -2.58601849e-05,
          -3.80252663e-06, 0., 0., 0., -1.51734912e-05, -4.41211414e-05,
          -1.37123880e-05, 1.46210232e-05, 1.70169333e-05, 0., 0., 0.,
          0., 0., 0., 0., 0., 0., -8.41084159e-07, -6.18076083e-05,
          -8.86584676e-05, -5.13072664e-05, -2.14473221e-06,
          6.26274959e-06, 1.70169333e-05, 0., 0., 0., 0., 0.,
          -1.23465143e-05, -1.50901842e-05, -3.79332159e-05,
          -7.00771270e-05, -7.76066154e-05, -9.43244886e-05,
          -9.43244886e-05, -5.13072664e-05, -2.14473221e-06 ]
      - [ 3.52525858e-05, 3.56661585e-05, 3.75272284e-05, 3.75272284e-05,
          3.75272284e-05, 3.59524747e-05, 3.52525858e-05, 3.52525858e-05,
          3.52525858e-05, 3.52537754e-05, 2.65640720e-05, 1.29588498e-05,
          2.07941357e-05, 3.44225955e-05, 4.03462909e-05,
          -9.09400296e-06, 3.75272284e-05, 3.75272284e-05,
          3.75272284e-05, 3.75272284e-05, 3.75272284e-05, 3.75272284e-05,
          3.75272284e-05, 3.75272284e-05, 3.75272284e-05, 3.71148453e-05,
          2.65640720e-05, 1.28632328e-05, 2.06985187e-05, 3.59973455e-05,
          4.26209335e-05, 2.69474331e-05, 3.28179267e-05, 3.28179267e-05,
          3.28179267e-05, 3.28179267e-05, -1.54111422e-05,
          -5.54413564e-05, -5.64752809e-05, -5.64752809e-05,
          -5.64752809e-05, -5.68361174e-05, -6.60615988e-05,
          -7.79091133e-05, -7.11047833e-05, -5.78139297e-05,
          -5.19871210e-05, -4.85319506e-05, 2.33993305e-05,
          2.33993305e-05, 2.33993305e-05, 2.33993305e-05,
          -2.66749012e-05, -6.58938807e-05, -6.58938807e-05,
          -6.58938807e-05, -6.58938807e-05, -6.61516169e-05,
          -7.27265215e-05, -8.11617138e-05, -7.63162025e-05,
          -6.68500579e-05, -6.26880501e-05, -6.02302498e-05,
          1.41278970e-05, 1.41278970e-05, 1.41278970e-05, 1.41278970e-05,
          -3.59463338e-05, -7.51653133e-05, -7.51653133e-05,
          -7.51653133e-05, -7.51653133e-05, -7.53199565e-05,
          -7.92958235e-05, -8.44143142e-05, -8.14760788e-05,
          -7.57390226e-05, -7.32418193e-05, -7.17457660e-05,
          4.70929899e-06, 4.70929899e-06, 4.70929899e-06, 4.70929899e-06,
          -4.53649336e-05, -8.45839095e-05, -8.45839095e-05,
          -8.45839095e-05, -8.45839095e-05, -8.46354596e-05,
          -8.59607462e-05, -8.76669073e-05, -8.66874980e-05,
          -8.47751435e-05, -8.39427448e-05, -8.34440580e-05, 0., 0., 0.,
          0., -1.57576251e-05, -2.99223448e-05, -3.07972077e-05,
          -3.07972077e-05, -3.07972077e-05, -3.07972077e-05,
          -3.07972077e-05, -3.07972077e-05, -3.07972077e-05,
          -7.09087544e-05, -8.92932076e-05, -8.92932076e-05, 0., 0., 0.,
          0., 0., 0., 0., 0., 0., 0., 0., 0., 0., -1.43975767e-05,
          -7.64341239e-05, -8.92932076e-05, 0., 0., 0., 0.,
          -5.18312754e-06, -2.86177565e-05, -3.74374431e-05,
          -3.74374431e-05, -3.74374431e-05, -3.74374431e-05,
          -3.74374431e-05, -3.74374431e-05, -3.74374431e-05,
          -4.67248901e-05, -7.98839901e-05, -8.52760058e-05, 0., 0., 0.,
          0., -5.00742317e-05, -8.92932076e-05, -8.92932076e-05,
          -8.92932076e-05, -8.92932076e-05, -8.92932076e-05,
          -8.92932076e-05, -8.92932076e-05, -8.92932076e-05,
          -8.92932076e-05, -8.25978714e-05, -7.72415951e-05,
          1.64953383e-06, 7.73219028e-07, 0., 0., -5.00742317e-05,
          -8.92932076e-05, -8.92932076e-05, -8.92932076e-05,
          -8.92932076e-05, -8.92932076e-05, -8.92932076e-05,
          -8.92932076e-05, -8.92932076e-05, -8.92932076e-05,
          -7.73052961e-05, -6.75576521e-05, 4.94860160e-06,
          2.31965691e-06, 0., 0., -5.00742317e-05, -8.92932076e-05,
          -8.92932076e-05, -8.92932076e-05, -8.92932076e-05,
          -8.92932076e-05, -8.92932076e-05, -8.92932076e-05,
          -8.92932076e-05, -8.92932076e-05, -7.12394976e-05,
          -5.63915564e-05, 8.19612160e-06, 3.86609508e-06, 0., 0.,
          -5.00742317e-05, -8.92932076e-05, -8.92932076e-05,
          -8.92932076e-05, -8.92932076e-05, -8.92932076e-05,
          -8.92932076e-05, -8.92932076e-05, -8.92932076e-05,
          -8.92932076e-05, -6.51737064e-05, -4.51096275e-05,
          1.14951890e-05, 5.41253303e-06, 0., 0., -1.12997377e-05,
          -2.01007952e-05, -2.01007952e-05, -2.01007952e-05,
          -2.01007952e-05, -2.01007952e-05, -2.01007952e-05,
          -2.01007952e-05, -2.01007952e-05, -2.01007952e-05,
          9.24758479e-06, -3.07698028e-05, 1.31447232e-05,
          6.13420434e-06, 0., 0., 0., 0., 0., 0., 0., 0., 0., 0., 0., 0.,
          3.00700503e-05, 5.58275242e-05, -2.06220720e-05,
          6.13420434e-06, 0., 0., 0., 0., 0., 0., 0., 0., 0., 0., 0., 0.,
          3.00700503e-05, 4.48030951e-05 ]
      - [ -2.37169225e-20, -1.79586332e-05, -3.54499862e-05,
          -3.60963641e-05, -3.60963641e-05, -3.46076831e-07,
          4.04713774e-06, 4.52993809e-05, 4.52993809e-05, 4.40601289e-05,
          1.65876681e-05, 1.66428563e-05, -1.56586157e-06,
          -2.25359108e-05, -1.79586332e-05, -2.37169225e-20,
          -2.37169225e-20, -1.79586332e-05, -3.33795324e-05,
          -9.47875196e-06, 4.38849238e-05, 4.52993809e-05,
          4.52993809e-05, 4.52993809e-05, 4.52993809e-05, 4.40601289e-05,
          1.65876681e-05, 1.77516831e-05, 4.12974841e-05, 4.55819500e-05,
          4.42851706e-05, 5.42638281e-06, -1.02143676e-05,
          -2.58135515e-05, 2.88265674e-05, 3.96147516e-05,
          3.96147516e-05, 3.96147516e-05, 2.68467920e-05, 3.69831980e-07,
          -4.17809933e-05, -4.28653402e-05, -6.68843786e-05,
          -1.89733782e-05, 2.59317567e-05, 3.94752024e-05,
          3.46775778e-05, -5.86287069e-06, -2.97531078e-05,
          1.30122316e-05, 2.86494833e-05, 2.82454948e-05, 2.82454948e-05,
          -3.94188573e-05, -5.31502483e-05, -5.31502483e-05,
          -5.31502483e-05, -5.39247812e-05, -7.10369786e-05,
          -7.01899116e-05, -5.56286977e-05, -5.29736426e-05,
          -4.17256961e-05, -3.06431029e-05, -3.32642958e-05,
          2.34251165e-05, 1.72962773e-05, 1.70538842e-05,
          -4.29892498e-05, -6.43418607e-05, -6.43418607e-05,
          -6.43418607e-05, -6.43418607e-05, -6.48065834e-05,
          -7.51668413e-05, -7.46722435e-05, -6.58425706e-05,
          -6.42358937e-05, -5.74871301e-05, -5.07526420e-05,
          -9.02891952e-06, 7.96953827e-06, 5.76542561e-06,
          -1.87902679e-05, -7.44925201e-05, -7.57111193e-05,
          -7.57111193e-05, -7.57111193e-05, -7.57111193e-05,
          -7.58660244e-05, -7.93194413e-05, -7.91545754e-05,
          -7.62113559e-05, -7.56757945e-05, -7.34262067e-05,
          -7.11813773e-05, -3.74432761e-06, 0., 0., -4.30918662e-05,
          -8.13957449e-05, -8.13957449e-05, -8.13957449e-05,
          -8.13957449e-05, -8.13957449e-05, -8.13957449e-05,
          -8.13957449e-05, -8.13957449e-05, -8.13957449e-05,
          -8.13957449e-05, -8.13957449e-05, -8.13957449e-05, 0., 0., 0.,
          -4.30918662e-05, -8.13957449e-05, -8.13957449e-05,
          -8.13957449e-05, -8.13957449e-05, -8.13957449e-05,
          -3.57502868e-05, -3.57502868e-05, -3.57502868e-05,
          -3.57502868e-05, -3.57502868e-05, -3.57502868e-05,
          -6.06701833e-05, 0., 0., -2.89248783e-06, -5.82218017e-05,
          -8.13957449e-05, -8.13957449e-05, -8.13957449e-05,
          -8.13957449e-05, -8.13957449e-05, 0., 0., 0., 0., 0., 0., 0.,
          0., 0., 0., -4.30918662e-05, -8.13957449e-05, -8.13957449e-05,
          -8.13957449e-05, -8.13957449e-05, -8.13957449e-05,
          -2.55359191e-05, -2.55359191e-05, -2.55359191e-05,
          -1.70809562e-05, -6.76899560e-07, 0., 0., -9.75653711e-06,
          4.60850924e-06, 8.07975198e-08, -3.00373740e-05,
          -8.06221433e-05, -8.13957449e-05, -8.13957449e-05,
          -8.13957449e-05, -8.13957449e-05, -8.13957449e-05,
          -8.13957449e-05, -8.13957449e-05, -5.46958581e-05,
          -2.24000087e-06, 2.88918136e-06, 5.81885070e-06,
          -3.54471485e-05, 1.33420281e-05, 2.42392559e-07, 0.,
          -7.73916545e-05, -8.13957449e-05, -8.13957449e-05,
          -8.13957449e-05, -8.13957449e-05, -8.13957449e-05,
          -8.13957449e-05, -8.13957449e-05, -5.46958581e-05,
          -2.07840594e-06, 8.66754363e-06, 1.74565521e-05,
          -2.17985071e-05, 1.46296516e-05, 4.03987599e-07, 0.,
          -3.33748585e-06, -7.62400741e-05, -8.13957449e-05,
          -8.13957449e-05, -8.13957449e-05, -8.13957449e-05,
          -8.13957449e-05, -8.13957449e-05, -5.46958581e-05,
          -1.91681079e-06, 1.44459063e-05, 2.89124146e-05,
          -1.52849534e-05, -4.20431425e-05, 5.65582639e-07, 0., 0.,
          -5.37493725e-06, -1.50310916e-05, -8.13957449e-05,
          -8.13957449e-05, -8.13957449e-05, -8.13957449e-05,
          -7.95840970e-05, -1.68472361e-05, 1.78782912e-07,
          2.01973362e-05, 4.05501160e-05, -5.79820335e-06,
          -4.48241299e-05, -6.21758372e-05, -2.61743171e-05, 0., 0., 0.,
          0., 0., 0., 0., 0., 0., 6.46380158e-07, 2.29316120e-05,
          1.09124594e-05, -5.79820335e-06, -4.48241299e-05,
          -8.07493634e-05, -8.13957449e-05, -4.69222541e-05,
          -3.27405105e-05, -2.12739860e-06, 0., 0., 0., 0., 0.,
          -2.43260638e-06, -4.13214875e-05, -3.51626077e-05,
          -3.50267801e-05 ]
      - [ 5.00556635e-05, 6.05584974e-05, 6.05584974e-05,
          -1.24572318e-06, -2.79812557e-05, -2.79812557e-05,
          -2.79812557e-05, -2.79812557e-05, -2.79812557e-05,
          -2.79812557e-05, -3.17810045e-05, -6.95410054e-05,
          -1.75756795e-05, 4.39219511e-05, 4.77217000e-05,
          4.77217000e-05, 6.05584974e-05, 6.05584974e-05, 6.05584974e-05,
          3.27813177e-05, -2.79812557e-05, -2.79812557e-05,
          -2.79812557e-05, -2.79812557e-05, -2.79812557e-05,
          -2.79812557e-05, -3.17810045e-05, -6.97784926e-05,
          -9.01591739e-06, 5.67587485e-05, 6.05584974e-05,
          6.05584974e-05, 5.29589997e-05, 5.29589997e-05, 5.29589997e-05,
          2.55290361e-05, -3.55807533e-05, -3.55807533e-05,
          -3.55807533e-05, -3.55807533e-05, -3.55807533e-05,
          -3.55807533e-05, -3.89055349e-05, -7.19158488e-05,
          -1.08060613e-05, 4.96342182e-05, 5.29589997e-05,
          5.29589997e-05, 3.77600045e-05, 3.77600045e-05, 3.77600045e-05,
          1.03300408e-05, -5.07797486e-05, -5.07797486e-05,
          -5.07797486e-05, -5.07797486e-05, -5.07797486e-05,
          -5.07797486e-05, -5.31545920e-05, -7.66655357e-05,
          -1.55557482e-05, 3.53851610e-05, 3.77600045e-05,
          3.77600045e-05, 2.27984929e-05, 2.27984929e-05, 2.27984929e-05,
          -4.63146989e-06, -6.57412602e-05, -6.57412602e-05,
          -6.57412602e-05, -6.57412602e-05, -6.57412602e-05,
          -6.57412602e-05, -6.71661692e-05, -8.14152227e-05,
          -2.03054333e-05, 2.13735875e-05, 2.27984929e-05,
          2.27984929e-05, 7.59949762e-06, 7.59949762e-06, 7.59949762e-06,
          -1.98304642e-05, -8.09402554e-05, -8.09402554e-05,
          -8.09402554e-05, -8.09402554e-05, -8.09402554e-05,
          -8.09402554e-05, -8.14152227e-05, -8.61649096e-05,
          -2.50551202e-05, 7.12452902e-06, 7.59949762e-06,
          7.59949762e-06, 0., 0., 0., -8.68036750e-06, -3.85493149e-05,
          -4.34865433e-05, -4.34865433e-05, -4.34865433e-05,
          -4.34865433e-05, -4.34865433e-05, -4.34865433e-05,
          -4.34865433e-05, -1.36175977e-05, 0., 0., 0., 0., 0., 0., 0.,
          0., 0., 0., 0., 0., 0., 0., 0., 0., 0., 0., 0., 7.62329653e-21,
          5.08219768e-21, 6.35274710e-22, -9.01064141e-06,
          -2.88340525e-05, -2.88340525e-05, -2.88340525e-05,
          -2.88340525e-05, -2.88340525e-05, -2.88340525e-05,
          -2.88340525e-05, -2.88340525e-05, -9.01064141e-06, 0.,
          2.62469428e-07, 4.84558939e-07, 2.28698896e-20, 1.49289557e-20,
          2.22346149e-21, -2.77771778e-05, -8.85397531e-05,
          -8.85397531e-05, -8.85397531e-05, -8.85397531e-05,
          -8.85397531e-05, -8.85397531e-05, -8.85397531e-05,
          -8.85397531e-05, -2.77771778e-05, 0., 8.07598212e-07,
          1.45367676e-06, 3.81164826e-20, 2.47757137e-20, 3.49401091e-21,
          -2.74299618e-05, -8.85397531e-05, -8.85397531e-05,
          -8.85397531e-05, -8.85397531e-05, -8.85397531e-05,
          -8.85397531e-05, -8.85397531e-05, -8.85397531e-05,
          -2.74299618e-05, 0., 1.35272705e-06, 2.42279475e-06,
          5.30454383e-20, 3.49401091e-20, 5.08219768e-21,
          -2.74299618e-05, -8.85397531e-05, -8.85397531e-05,
          -8.85397531e-05, -8.85397531e-05, -8.85397531e-05,
          -8.85397531e-05, -8.85397531e-05, -8.85397531e-05,
          -2.74299618e-05, 0., 1.89785578e-06, 3.37172264e-06,
          6.82920314e-20, 4.47868671e-20, 6.35274710e-21,
          -2.74299618e-05, -8.85397531e-05, -8.85397531e-05,
          -8.85397531e-05, -8.85397531e-05, -8.85397531e-05,
          -8.85397531e-05, -8.85397531e-05, -8.85397531e-05,
          -2.74299618e-05, 0., 2.44298462e-06, 4.34084041e-06,
          8.09975256e-20, 5.30454383e-20, 7.62329653e-21,
          -2.74299618e-05, -8.85397531e-05, -8.85397531e-05,
          -8.85397531e-05, -8.85397531e-05, -8.85397531e-05,
          -8.85397531e-05, -8.85397531e-05, -8.85397531e-05,
          -2.74299618e-05, 0., 2.88716365e-06, 5.14843850e-06,
          8.09975256e-20, 5.30454383e-20, 7.62329653e-21,
          -2.77771778e-05, -8.85397531e-05, -8.85397531e-05,
          -8.85397531e-05, -8.85397531e-05, -8.85397531e-05,
          -8.85397531e-05, -8.85397531e-05, -8.85397531e-05,
          -2.77771778e-05, 0., 2.88716365e-06, 5.14843850e-06,
          8.09975256e-20, 5.30454383e-20, 7.62329653e-21,
          -5.30069738e-05, -8.85397531e-05, -8.85397531e-05,
          -8.85397531e-05, -8.85397531e-05, -8.85397531e-05,
          -8.85397531e-05, -8.85397531e-05, -8.85397531e-05,
          -2.77771778e-05, 0., 2.88716365e-06, -2.49728491e-05 ]
      - [ 5.42101086e-20, -5.06001743e-06, -9.48753313e-06,
          -9.48753313e-06, -9.68072800e-06, -1.31582410e-05,
          -1.56456299e-05, -1.56456299e-05, -1.56456299e-05,
          -1.68049992e-05, -4.34474277e-05, 7.15579176e-07,
          4.33610221e-05, 5.60932058e-05, 5.73744292e-05, 1.75713394e-05,
          5.42101086e-20, -5.06001743e-06, -9.48753313e-06,
          -9.48753313e-06, -9.68072800e-06, -1.31582410e-05,
          -1.56456299e-05, -1.56456299e-05, -1.56456299e-05,
          -1.68049992e-05, -4.34474277e-05, 6.35502602e-07,
          4.32809466e-05, 5.60932058e-05, 5.73744292e-05, 5.73744292e-05,
          -9.16330191e-06, -1.35536111e-05, -1.74602428e-05,
          -1.74602428e-05, -1.76292870e-05, -2.06479617e-05,
          -2.28455574e-05, -2.28455574e-05, -2.28455574e-05,
          -2.38600060e-05, -4.71540152e-05, -1.82424071e-06,
          3.79227786e-05, 4.90534294e-05, 5.01745017e-05, 5.01745017e-05,
          -2.74899048e-05, -3.06152106e-05, -3.34056604e-05,
          -3.34056604e-05, -3.35264085e-05, -3.56757046e-05,
          -3.72454160e-05, -3.72454160e-05, -3.72454160e-05,
          -3.79700214e-05, -5.45671937e-05, -6.90736988e-06,
          2.70462933e-05, 3.49738766e-05, 3.57746430e-05, 3.57746430e-05,
          -4.55301561e-05, -4.74276603e-05, -4.91019309e-05,
          -4.91019309e-05, -4.91743813e-05, -5.04784475e-05,
          -5.14202729e-05, -5.14202729e-05, -5.14202729e-05,
          -5.18550369e-05, -6.19002967e-05, -1.22768524e-05,
          1.63147288e-05, 2.11193255e-05, 2.15997861e-05, 2.15997861e-05,
          -6.38567581e-05, -6.44892571e-05, -6.50473521e-05,
          -6.50473521e-05, -6.50715010e-05, -6.55061885e-05,
          -6.58201316e-05, -6.58201316e-05, -6.58201316e-05,
          -6.59650541e-05, -6.93134716e-05, -1.79326871e-05,
          5.43824308e-06, 7.03977503e-06, 7.19992840e-06, 7.19992840e-06,
          -7.18294687e-05, -7.24619676e-05, -7.30200627e-05,
          -7.30200627e-05, -7.30200627e-05, -7.30200627e-05,
          -7.30200627e-05, -7.30200627e-05, -7.30200627e-05,
          -7.30200627e-05, -7.30200627e-05, -2.06174282e-05, 0., 0., 0.,
          0., -6.94482806e-05, -7.13457921e-05, -7.30200627e-05,
          -7.30200627e-05, -7.30200627e-05, -7.30200627e-05,
          -7.30200627e-05, -7.30200627e-05, -7.30200627e-05,
          -7.30200627e-05, -7.30200627e-05, -2.06174282e-05, 0., 0., 0.,
          0., -6.71043017e-05, -7.02296093e-05, -7.30200627e-05,
          -7.30200627e-05, -7.30200627e-05, -7.30200627e-05,
          -7.30200627e-05, -7.30200627e-05, -7.30200627e-05,
          -7.30200627e-05, -7.30200627e-05, -2.06174282e-05, 0., 0., 0.,
          0., -6.47231209e-05, -6.91134264e-05, -7.30200627e-05,
          -7.30200627e-05, -7.30200627e-05, -7.30200627e-05,
          -7.30200627e-05, -7.30200627e-05, -7.30200627e-05,
          -7.30200627e-05, -7.30200627e-05, -2.06174282e-05, 0., 0., 0.,
          0., -5.81222703e-05, -6.59115904e-05, -7.29476087e-05,
          -7.30200627e-05, -7.30200627e-05, -7.30200627e-05,
          -7.30200627e-05, -7.30200627e-05, -7.30200627e-05,
          -7.30200627e-05, -7.30200627e-05, -2.06174282e-05, 0., 0.,
          2.17381739e-06, 4.63747710e-06, -4.73017535e-05,
          -6.05496789e-05, -7.28027153e-05, -7.30200627e-05,
          -7.30200627e-05, -7.30200627e-05, -7.30200627e-05,
          -7.30200627e-05, -7.30200627e-05, -7.30200627e-05,
          -7.30200627e-05, -2.03310756e-05, 0., 0., 6.52145218e-06,
          1.39124313e-05, -3.66503082e-05, -4.86016470e-05,
          -1.48144773e-05, -7.30200627e-05, -7.30200627e-05,
          -7.30200627e-05, -7.30200627e-05, -7.30200627e-05,
          -7.30200627e-05, -7.30200627e-05, -2.80626118e-05,
          -1.14541274e-06, 0., 0., 1.08690865e-05, -4.33914720e-05,
          4.71902677e-05, 2.31700487e-05, 5.07137372e-07, 0.,
          -3.72259115e-06, -3.40760271e-05, -7.30200627e-05,
          -7.30200627e-05, -4.15212089e-05, -1.37449524e-05,
          -4.58165096e-06, 0., 0., 0., 1.52167213e-05, -3.84118175e-05,
          -1.81287105e-05, 2.57060819e-05, 5.79585560e-07, 0., 0., 0.,
          0., 0., 0., 0., 0., 0., 0., 0., -4.89019658e-05,
          -3.60651647e-05, -2.04195348e-05, -4.73139771e-05,
          -6.72861133e-05, -3.20715553e-05, 0., 0., 0., 0., 0., 0., 0.,
          -2.94943766e-05, -6.58612335e-05, -7.30200627e-05,
          -5.57744424e-05, -3.60651647e-05 ]
      - [ 3.03828328e-05, 5.55311926e-05, 5.55311926e-05, 2.22648305e-05,
          -2.96354810e-05, -2.96354810e-05, -2.96354810e-05,
          -2.96354810e-05, -2.96354810e-05, -3.03663346e-05,
          -3.04007754e-05, -1.75662331e-06, 3.34089891e-05,
          5.35085892e-05, 3.23195309e-05, -1.12076314e-05,
          5.55311926e-05, 5.55311926e-05, 5.55311926e-05, 2.22648305e-05,
          -2.96354810e-05, -2.96354810e-05, -2.96354810e-05,
          -2.96354810e-05, -2.96354810e-05, -1.03370867e-05,
          3.44259206e-05, 1.93963442e-05, 3.01874425e-05, 2.43395571e-05,
          -2.46472246e-06, -1.70110998e-05, 4.85625715e-05,
          4.85625715e-05, 4.85625715e-05, 1.55111538e-05,
          -3.66041022e-05, -3.66041022e-05, -3.66041022e-05,
          -3.63660147e-05, -1.25274801e-05, 2.83632398e-05,
          3.21757070e-05, 1.71623487e-05, 7.36689981e-06,
          -3.83738770e-05, -3.14058270e-05, -2.55639552e-05,
          3.46253328e-05, 3.46253328e-05, 3.46253328e-05, 1.57391401e-06,
          -5.05413409e-05, -5.05413409e-05, -5.05413409e-05,
          -3.91759313e-05, 3.46253328e-05, 3.41685482e-05,
          2.29465295e-05, -3.04351379e-05, -6.43203093e-05,
          -5.18054658e-05, -4.68282888e-05, -4.26696679e-05,
          2.09058599e-05, 2.09058599e-05, 2.09058599e-05,
          -1.21455569e-05, -6.42608138e-05, -6.42608138e-05,
          -2.49066088e-05, 2.02610299e-05, 2.09058599e-05,
          1.75366531e-05, -1.22268084e-05, -7.54470020e-05,
          -7.26040380e-05, -6.50192887e-05, -6.20329811e-05,
          -5.95081037e-05, 6.96862026e-06, 6.96862026e-06,
          6.96862026e-06, -2.60827965e-05, -7.81980489e-05,
          -5.45711409e-05, 1.16515287e-06, 6.96862026e-06,
          6.96862026e-06, -4.86272438e-05, -7.99072513e-05,
          -8.27149051e-05, -8.09791309e-05, -7.84508738e-05,
          -7.74554428e-05, -7.66138182e-05, 0., 0., 0., -2.87426992e-05,
          -5.05873941e-05, 0., 0., 0., 0., -6.10930292e-05,
          -8.51666700e-05, -8.51666700e-05, -8.51666700e-05,
          -8.51666700e-05, -8.51666700e-05, -8.51666700e-05, 0., 0., 0.,
          0., 0., 0., 0., 0., 0., -4.76174864e-06, -8.17275795e-05,
          -8.51666700e-05, -8.51666700e-05, -8.51666700e-05,
          -8.51666700e-05, -8.51666700e-05, 0., 0., 0., 0., 0.,
          -1.50460266e-06, -4.72871652e-05, -4.51380765e-06, 0.,
          -4.76174876e-07, -1.91660383e-05, -8.51666700e-05,
          -8.51666700e-05, -8.51666700e-05, -8.42994414e-05,
          -8.35656247e-05, 0., 0., 0., 0., 0., -4.45821606e-05,
          -8.51666700e-05, -7.65955265e-05, 0., 0., 0., -4.21780242e-05,
          -7.97930916e-05, -8.51666700e-05, -8.24982635e-05,
          -8.03635412e-05, 2.92341770e-06, 1.37035204e-06, 0.,
          -3.22414849e-06, -7.02430116e-05, -8.51666700e-05,
          -8.51666700e-05, -8.51666700e-05, -5.30643956e-05, 0., 0.,
          -9.52349751e-07, -6.08780865e-05, -8.51666700e-05,
          -7.85841257e-05, -7.26537983e-05, 8.77025286e-06,
          4.11105611e-06, 0., -3.30514158e-05, -8.51666700e-05,
          -8.51666700e-05, -8.51666700e-05, -8.51666700e-05,
          -8.51666700e-05, -2.57931879e-05, -2.14943228e-07, 0.,
          -9.28540976e-06, -8.09901758e-05, -7.25570280e-05,
          -6.05031091e-05, 1.45257318e-05, 6.85176019e-06, 0.,
          -3.30514158e-05, -8.51666700e-05, -8.51666700e-05,
          -8.51666700e-05, -8.51666700e-05, -8.51666700e-05,
          -8.11191858e-05, -5.34379114e-06, 0., 0., -2.34284689e-05,
          -3.75125892e-05, -4.84265765e-05, 2.03725667e-05,
          9.59246427e-06, 0., -3.30514158e-05, -8.51666700e-05,
          -8.51666700e-05, -8.51666700e-05, -8.51666700e-05,
          -8.51666700e-05, -8.51666700e-05, -6.70720256e-05, 0., 0., 0.,
          -1.05396593e-05, -2.83600748e-05, 2.32959846e-05,
          1.08714594e-05, 0., -3.32663622e-05, -8.51666700e-05,
          -8.51666700e-05, -8.51666700e-05, -8.51666700e-05,
          -8.51666700e-05, -8.51666700e-05, -8.51666700e-05,
          -4.94369451e-05, -1.18218777e-05, 0., 2.40405643e-05,
          1.38419309e-05, -1.85237320e-06, 1.08714594e-05, 0.,
          -5.43307979e-05, -8.51666700e-05, -8.51666700e-05,
          -8.51666700e-05, -8.51666700e-05, -8.51666700e-05,
          -8.51666700e-05, -8.51666700e-05, -8.42143199e-05,
          -3.82598955e-05, 0., 2.63023958e-05, 4.32889246e-05 ]
      - [ 5.75957274e-05, 5.82517932e-05, 5.82517932e-05, 4.96720968e-05,
          9.47818808e-06, -1.35267055e-05, -1.35267055e-05,
          -1.35267055e-05, -1.35267055e-05, -1.41926321e-05,
          -3.10829382e-05, -5.15888896e-05, -3.89362831e-05,
          -1.58498679e-05, -1.21640169e-05, -1.06066582e-05,
          5.82517932e-05, 5.82517932e-05, 5.82517932e-05, 5.82517932e-05,
          3.79849225e-05, -1.35267055e-05, -1.35267055e-05,
          -1.35267055e-05, -1.35267055e-05, -1.41926321e-05,
          -3.10829382e-05, -5.17340850e-05, -3.90814821e-05,
          -1.58498679e-05, -1.21640169e-05, -1.06066582e-05,
          5.09417659e-05, 5.09417659e-05, 5.09417659e-05, 5.09417659e-05,
          3.06748952e-05, -2.08367346e-05, -2.08367346e-05,
          -2.08367346e-05, -2.08367346e-05, -2.14194206e-05,
          -3.61880302e-05, -5.40397523e-05, -4.30519649e-05,
          -2.28695008e-05, -1.96343626e-05, -1.82831245e-05,
          3.63217077e-05, 3.63217077e-05, 3.63217077e-05, 3.63217077e-05,
          1.63363202e-05, -3.54567928e-05, -3.54567928e-05,
          -3.54567928e-05, -3.54567928e-05, -3.58729958e-05,
          -4.63982215e-05, -5.91079661e-05, -5.12833285e-05,
          -3.69087684e-05, -3.45979570e-05, -3.36360572e-05,
          2.19300873e-05, 2.19300873e-05, 2.19300873e-05, 2.19300873e-05,
          1.94470090e-06, -4.98484114e-05, -4.98484114e-05,
          -4.98484114e-05, -4.98484114e-05, -5.00981332e-05,
          -5.64632137e-05, -6.41761799e-05, -5.94314515e-05,
          -5.07195982e-05, -4.93331099e-05, -4.87491016e-05,
          7.31002910e-06, 7.31002910e-06, 7.31002910e-06, 7.31002910e-06,
          -1.29568416e-05, -6.44684696e-05, -6.44684696e-05,
          -6.44684696e-05, -6.44684696e-05, -6.45517139e-05,
          -6.66734049e-05, -6.92443937e-05, -6.76628188e-05,
          -6.47588677e-05, -6.42967061e-05, -6.41020306e-05, 0., 0., 0.,
          0., -2.02668707e-05, -7.17785006e-05, -7.17785006e-05,
          -7.17785006e-05, -7.17785006e-05, -7.17785006e-05,
          -7.17785006e-05, -7.17785006e-05, -7.17785006e-05,
          -7.17785006e-05, -7.17785006e-05, -7.17785006e-05, 0., 0., 0.,
          0., -2.02668707e-05, -7.17785006e-05, -7.17785006e-05,
          -7.17785006e-05, -7.17785006e-05, -7.17785006e-05,
          -7.17785006e-05, -7.17785006e-05, -7.17785006e-05,
          -7.17785006e-05, -7.17785006e-05, -7.17785006e-05, 0., 0., 0.,
          0., -2.02668707e-05, -7.17785006e-05, -7.17785006e-05,
          -7.17785006e-05, -7.17785006e-05, -7.17785006e-05,
          -7.17785006e-05, -7.17785006e-05, -7.17785006e-05,
          -7.17785006e-05, -7.12377660e-05, -7.07802246e-05, 0., 0., 0.,
          0., -2.02668707e-05, -7.17785006e-05, -7.17785006e-05,
          -7.17785006e-05, -7.17785006e-05, -7.17785006e-05,
          -7.17785006e-05, -7.17785006e-05, -7.17785006e-05,
          -7.17785006e-05, -7.01147073e-05, -6.87836800e-05,
          2.66370625e-06, 1.24861231e-06, 0., 0., -2.02668707e-05,
          -7.17785006e-05, -7.17785006e-05, -7.17785006e-05,
          -7.17785006e-05, -7.17785006e-05, -7.17785006e-05,
          -7.17785006e-05, -7.17785006e-05, -7.17785006e-05,
          -6.75712727e-05, -6.37569901e-05, 7.99111876e-06,
          3.74583692e-06, 0., 0., -1.99853857e-05, -7.17785006e-05,
          -7.17785006e-05, -7.17785006e-05, -7.17785006e-05,
          -7.17785006e-05, -7.17785006e-05, -7.17785006e-05,
          -7.17785006e-05, -7.17785006e-05, -6.36074546e-05,
          -5.57417479e-05, 1.32352898e-05, 6.24306131e-06, 0., 0.,
          -1.99853857e-05, -7.17785006e-05, -7.17785006e-05,
          -7.17785006e-05, -7.17785006e-05, -7.17785006e-05,
          -7.17785006e-05, -7.17785006e-05, -7.17785006e-05,
          -7.17785006e-05, -5.96436366e-05, -4.77796057e-05,
          1.85627032e-05, 8.74028592e-06, 0., 0., -3.65929600e-06,
          -1.35112468e-05, -1.35112468e-05, -1.35112468e-05,
          -1.35112468e-05, -1.40917937e-05, -1.44882642e-05,
          -1.44882642e-05, -1.37236420e-05, -1.35112468e-05,
          2.37945915e-06, -3.80851379e-05, 2.12264094e-05,
          9.90565786e-06, 0., 0., 0., 0., 0., 0., 0., 0., 0., 0., 0., 0.,
          1.72163946e-05, 3.47531131e-05, 2.05703436e-05, 9.90565786e-06,
          0., 0., 0., 0., 0., 0., 0., 0., 0., 0., 0., 0., 1.72163946e-05,
          3.47531131e-05 ]
      - [ 3.28609567e-05, 5.50946570e-05, 5.50946570e-05, 3.11905023e-05,
          -3.81603240e-05, -3.81603240e-05, -3.81603240e-05,
          -3.81603240e-05, -3.81603240e-05, -3.81603240e-05,
          -4.16172443e-05, -7.59703835e-05, -1.53461369e-05,
          5.16377368e-05, 5.50946570e-05, 4.72980464e-05, 5.50946570e-05,
          5.50946570e-05, 5.50946570e-05, 5.23208619e-05,
          -2.45618648e-05, -3.81603240e-05, -3.81603240e-05,
          -3.81603240e-05, -3.81603240e-05, -3.81603240e-05,
          -4.16172443e-05, -6.42905943e-05, 1.45859794e-05,
          5.16377368e-05, 5.50946570e-05, 5.50946570e-05, 4.81808165e-05,
          4.81808165e-05, 4.81808165e-05, 4.81808165e-05,
          -9.10054212e-07, -4.50741645e-05, -4.50741645e-05,
          -4.50741645e-05, -4.50741645e-05, -4.50741645e-05,
          -4.80989693e-05, -3.44708315e-05, 1.51240238e-05,
          4.51560118e-05, 4.81808165e-05, 4.81808165e-05, 3.43531392e-05,
          3.43531392e-05, 3.43531392e-05, 3.43531392e-05, 3.34865763e-05,
          -5.82247812e-05, -5.89018418e-05, -5.89018418e-05,
          -5.89018418e-05, -5.89018418e-05, -6.10624193e-05,
          2.07099583e-06, 1.08028735e-05, 3.21925654e-05, 3.43531392e-05,
          3.43531392e-05, 2.07415178e-05, 2.07415178e-05, 8.47417414e-06,
          2.03609579e-05, 2.07415178e-05, -3.44707842e-05,
          -7.25134669e-05, -7.25134669e-05, -7.25134669e-05,
          -7.25134669e-05, -3.26958216e-05, 6.48172409e-06,
          6.27539976e-06, 1.66391565e-05, 2.07415178e-05, 2.07415178e-05,
          6.91383912e-06, 6.91383912e-06, -4.08211745e-05,
          -3.13453202e-05, 6.91383912e-06, -7.78648337e-06,
          -8.63411406e-05, -8.63411406e-05, -8.63411406e-05,
          -8.63411406e-05, -3.05624017e-05, 2.16057470e-06,
          -3.89783418e-05, -2.86057129e-05, 6.91383912e-06,
          6.91383912e-06, 0., 0., -3.88919398e-05, -7.88765683e-05, 0.,
          -8.75738522e-07, -9.07299182e-05, -9.32549810e-05,
          -9.32549810e-05, -9.22233594e-05, -1.29887917e-06,
          -9.74576324e-07, -7.79345646e-05, -1.75717905e-05, 0., 0., 0.,
          0., -1.75592540e-05, -9.00313826e-05, -1.32014320e-05, 0.,
          -2.90750522e-05, -9.32549810e-05, -9.32549810e-05,
          -2.36646156e-05, 0., -1.32525138e-05, -9.16751669e-05,
          -1.75966816e-05, 0., 0., 4.81762925e-07, 3.21175293e-07,
          -1.75191071e-05, -9.32549810e-05, -4.24633799e-05, 0.,
          -2.54366182e-06, -8.20092682e-05, -8.80276057e-05,
          -6.74728608e-06, 0., -5.64822840e-05, -9.32549810e-05,
          -1.29324753e-05, 1.93739808e-07, 3.57673514e-07,
          1.44528883e-06, 9.43452392e-07, -1.73938497e-05,
          -9.32549810e-05, -9.16869103e-05, -3.38531117e-06,
          -2.99869640e-07, -6.01610918e-05, -6.92909598e-05, 0., 0.,
          -9.16869103e-05, -9.32549810e-05, -1.01993355e-05,
          5.96122504e-07, 1.07302048e-06, 2.40881468e-06, 1.56572958e-06,
          -1.73548215e-05, -9.32549810e-05, -9.32549810e-05,
          -4.39587529e-05, 0., -9.57824250e-06, -9.57824250e-06, 0.,
          -4.39059804e-05, -9.32549810e-05, -9.32549810e-05,
          -1.76130561e-05, 9.98505243e-07, 1.78836751e-06,
          3.35226696e-06, 2.20808010e-06, -1.72131895e-05,
          -9.32549810e-05, -9.32549810e-05, -8.32957885e-05,
          -1.24453138e-07, 0., 0., 0., -8.37681873e-05, -9.32549810e-05,
          -9.32549810e-05, -1.75717905e-05, 1.40088787e-06,
          2.48881156e-06, 4.31579292e-06, 2.83035729e-06,
          -1.71328957e-05, -9.32549810e-05, -9.32549810e-05,
          -9.32549810e-05, -5.75553531e-06, 0., 0., -8.40487610e-06,
          -9.32051989e-05, -9.32549810e-05, -9.32549810e-05,
          -1.75717905e-05, 1.80327061e-06, 3.20415847e-06,
          5.11873122e-06, 3.35226696e-06, -1.70526018e-05,
          -9.32549810e-05, -9.32549810e-05, -9.32549810e-05,
          -8.02083960e-05, 0., 0., -7.39627285e-05, -9.32549810e-05,
          -9.32549810e-05, -9.32549810e-05, -1.75717905e-05,
          2.13113799e-06, 3.80028109e-06, 5.11873122e-06, 3.35226696e-06,
          -1.70526018e-05, -9.32549810e-05, -9.32549810e-05,
          -9.32549810e-05, -9.29551097e-05, -7.24026613e-05,
          -7.24026613e-05, -9.29551097e-05, -9.32549810e-05,
          -9.32549810e-05, -9.32549810e-05, -1.75717905e-05,
          2.13113799e-06, 3.80028109e-06, -1.71149677e-05,
          3.35226696e-06, -3.53099640e-05, -9.32549810e-05,
          -9.32549810e-05, -9.32549810e-05, -9.32549810e-05,
          -9.32549810e-05, -9.32549810e-05, -9.32549810e-05,
          -9.32549810e-05, -9.32549810e-05, -9.32549810e-05,
          -2.97355946e-05, 2.13113799e-06, -1.84334185e-05 ]
      - [ 4.44988254e-05, 4.44988254e-05, 4.44988254e-05, 3.71519527e-05,
          -3.35617005e-05, -3.35617005e-05, -3.35617005e-05,
          -3.35617005e-05, -3.35617005e-05, -3.38979589e-05,
          -4.33731620e-05, -6.31333678e-05, -5.67444768e-05,
          4.23792590e-05, 4.44988254e-05, 4.44988254e-05, 4.44988254e-05,
          4.44988254e-05, 4.44988254e-05, 4.44988254e-05, 1.97031295e-05,
          -2.86637860e-05, -3.35617005e-05, -3.35617005e-05,
          -3.35617005e-05, -3.38979589e-05, -4.33731620e-05,
          -6.32658412e-05, -5.68769501e-05, 4.23792590e-05,
          4.44988254e-05, 4.44988254e-05, 3.89146589e-05, 3.89146589e-05,
          3.89146589e-05, 3.89146589e-05, 3.89146589e-05,
          -1.55746493e-05, -3.91458670e-05, -3.91458670e-05,
          -3.91458670e-05, -3.94400922e-05, -4.77256435e-05,
          -6.49624853e-05, -5.94142366e-05, 3.70600392e-05,
          3.89146589e-05, 3.89146589e-05, 2.77463278e-05, 2.77463278e-05,
          2.77463278e-05, 2.77463278e-05, 2.77463278e-05, 2.77463278e-05,
          -5.03142001e-05, -5.03142001e-05, -5.03142001e-05,
          -5.05243625e-05, -5.64306029e-05, -6.87047868e-05,
          -6.47537599e-05, 2.64215978e-05, 2.77463278e-05,
          2.77463278e-05, 1.67524995e-05, 1.67524995e-05, 1.67524995e-05,
          -5.39611538e-05, 1.67524995e-05, 1.67524995e-05,
          1.43035413e-05, -6.13080265e-05, -6.13080265e-05,
          -6.14341261e-05, -6.50030852e-05, -7.24470810e-05,
          -7.00512464e-05, 1.59576612e-05, 1.67524995e-05,
          1.67524995e-05, 5.58416650e-06, 5.58416650e-06, 5.58416650e-06,
          -7.24763595e-05, -4.06399122e-05, 5.58416650e-06,
          5.58416650e-06, -2.13543681e-05, -7.24763595e-05,
          -7.25183927e-05, -7.37080481e-05, -7.61893752e-05,
          -7.53907661e-05, 5.31922024e-06, 5.58416650e-06,
          5.58416650e-06, 0., 0., 0., -7.80605260e-05, -7.80605260e-05,
          -2.20406200e-05, 0., 0., -3.67343673e-05, -7.74482905e-05,
          -7.80605260e-05, -7.80605260e-05, -7.80605260e-05, 0., 0., 0.,
          0., 0., 0., -7.80605260e-05, -7.80605260e-05, -7.80605260e-05,
          0., 0., 0., -6.85708146e-05, -7.80605260e-05, -7.80605260e-05,
          -7.80605260e-05, 0., 0., 0., 0., 0., 0., -7.80605260e-05,
          -7.80605260e-05, -7.80605260e-05, -6.85708146e-05, 0., 0., 0.,
          -7.80605260e-05, -7.80605260e-05, -7.80605260e-05, 0., 0., 0.,
