%YAML:1.0
---
opencv_ml_svm:
   format: 3
   svmType: C_SVC
   kernel:
      type: LINEAR
   C: 1.0000000000000000e-02
   term_criteria: { epsilon:1.1920928955078125e-07, iterations:1000 }
   var_count: 256
   class_count: 29
   class_labels: !!opencv-matrix
      rows: 29
      cols: 1
      dt: i
      data: [ 45, 48, 49, 50, 51, 52, 53, 54, 55, 56, 57, 65, 66, 67, 68,
          69, 71, 72, 74, 75, 76, 77, 78, 80, 82, 83, 84, 87, 88 ]
   sv_total: 406
   support_vectors:
      - [ -1.63972418e-05, -2.81192497e-05, -3.83760089e-05,
          -3.83760089e-05, -2.05454162e-05, 8.80877906e-06,
          1.39680033e-05, 4.03209015e-05, 4.39454561e-05, 1.35329474e-05,
          -3.31945703e-05, -5.00640126e-05, -3.83760089e-05,
          -3.83760089e-05, -2.04672033e-05, 6.77626358e-21,
          -1.63972418e-05, -2.81192497e-05, -2.47702519e-05,
          2.17697652e-05, 5.31540136e-05, 5.57480416e-05, 5.57480416e-05,
          5.57480416e-05, 5.57480416e-05, 5.39990870e-05, 1.57406248e-05,
          2.25178374e-05, 3.54996228e-05, -2.06659242e-05,
          -2.04672033e-05, 6.77626358e-21, -2.60545603e-05,
          -1.83367320e-05, 3.14365243e-05, 4.87522120e-05,
          4.87522120e-05, 3.42672647e-05, 6.36668892e-06,
          -2.69467782e-05, -3.14774734e-05, 3.20529944e-06,
          1.69478858e-06, 1.98943999e-05, 4.87522120e-05, 3.47071473e-05,
          -3.70553016e-06, -1.09469693e-05, -4.01617144e-05,
          1.51516915e-05, 3.47605455e-05, 3.47605455e-05, 2.53646558e-05,
          -3.87306754e-05, -5.93635050e-05, -5.93635050e-05,
          -5.93635050e-05, -6.04566048e-05, -8.28923730e-05,
          2.75940215e-06, 3.47605455e-05, 3.47605455e-05, 2.42919486e-05,
          -2.94219062e-05, -4.44164361e-05, 2.48661036e-05,
          2.09874979e-05, 2.09874979e-05, -3.77161559e-05,
          -7.31365508e-05, -7.31365508e-05, -7.31365508e-05,
          -7.31365508e-05, -7.37924129e-05, -8.82213135e-05,
          -4.46401900e-05, 2.09874979e-05, 2.09874979e-05,
          2.77597355e-05, -2.10365542e-05, -1.94762306e-05,
          8.28870179e-06, 6.99583279e-06, 3.44947262e-06,
          -7.39083407e-05, -8.71282173e-05, -8.71282173e-05,
          -8.71282173e-05, -8.71282173e-05, -8.73468380e-05,
          -9.21564715e-05, -8.15671010e-05, -1.10542805e-05,
          6.99583279e-06, 9.25324548e-06, -2.13350468e-05,
          -1.21953190e-06, 0., 0., -2.61430596e-05, -8.63490277e-05,
          -9.41240505e-05, -9.41240505e-05, -9.41240505e-05,
          -9.41240505e-05, -9.41240505e-05, -9.41240505e-05,
          -8.47036426e-05, -1.92280477e-05, 0., 0., -3.92227093e-06, 0.,
          0., 0., -2.74353733e-05, -8.66571281e-05, -9.41240505e-05,
          -9.41240505e-05, -9.41240505e-05, -9.41240505e-05,
          -9.41240505e-05, -9.41240505e-05, -8.75527039e-05,
          -3.11744006e-05, 0., 0., -2.61789978e-06, 0., 0., 0.,
          -2.74353733e-05, -8.66571281e-05, -9.41240505e-05,
          -9.41240505e-05, -9.41240505e-05, -9.41240505e-05,
          -9.41240505e-05, -9.41240505e-05, -8.75527039e-05,
          -3.11744006e-05, 0., 0., 0., -1.34631500e-06, 0., 0.,
          -2.61430596e-05, -8.63490277e-05, -9.41240505e-05,
          -9.41240505e-05, -9.41240505e-05, -9.41240505e-05,
          -9.41240505e-05, -9.41240505e-05, -8.48377676e-05,
          -1.97993231e-05, 0., 0., -4.04905404e-06, -1.42572553e-05,
          4.89566310e-06, 0., -3.54636018e-06, -8.09041740e-05,
          -9.41240505e-05, -9.41240505e-05, -9.41240505e-05,
          -9.41240505e-05, -9.41240505e-05, -9.41240505e-05,
          -8.44091628e-05, -1.80501138e-05, 0., 4.88488604e-06,
          -2.10567196e-05, -1.76579288e-05, 1.46869888e-05, 0., 0.,
          -5.84724039e-05, -9.41240505e-05, -9.41240505e-05,
          -9.41240505e-05, -9.41240505e-05, -9.41240505e-05,
          -9.41240505e-05, -7.60367257e-05, 0., 0., 1.46546581e-05,
          -1.08048580e-05, -3.55354168e-05, 7.85744214e-06, 0., 0.,
          -1.35043874e-05, -9.34297641e-05, -9.41240505e-05,
          -9.41240505e-05, -9.41240505e-05, -9.41240505e-05,
          -9.34297641e-05, -2.94905058e-05, 0., 0., 4.06611434e-06,
          -3.61309903e-05, -2.01540388e-05, -2.39725669e-05,
          -3.80349064e-07, 0., 0., -1.59371903e-05, -6.85488558e-05,
          -9.39972670e-05, -9.39972670e-05, -7.33629204e-05,
          -1.92445641e-05, 0., 0., -1.14390321e-06, -2.24454343e-05,
          -2.00235954e-05, -1.08977792e-05, -5.09043784e-05,
          -5.58088941e-05, -1.06690768e-05, 0., 0., -4.13005523e-07,
          -1.94355539e-06, -1.94355539e-06, -4.13005523e-07, 0., 0.,
          -8.75814931e-06, -5.53600985e-05, -5.21268812e-05,
          -1.10809870e-05, -1.08977792e-05, -5.52851234e-05,
          -9.41240505e-05, -8.08989644e-05, -5.17725093e-05,
          -2.56486383e-05, -8.15033729e-07, -1.02633877e-07,
          -1.02633877e-07, -8.15033729e-07, -2.08345718e-05,
          -5.28117489e-05, -7.79958282e-05, -9.41240505e-05,
          -5.53706195e-05, -1.10809870e-05 ]
      - [ -6.77626358e-21, -1.76766080e-05, -3.03463221e-05,
          -1.21311368e-05, 4.21095876e-07, 8.03601961e-06,
          3.10123942e-05, 4.32760717e-05, 4.32760717e-05, 4.19183889e-05,
          -2.72959587e-05, -5.43226597e-05, -3.31436386e-05,
          -3.31436386e-05, -1.76766080e-05, -6.77626358e-21,
          1.24325288e-06, 2.54147617e-05, 4.32760717e-05, 4.32760717e-05,
          4.32760717e-05, 4.32760717e-05, 4.32760717e-05, 4.32760717e-05,
          4.32760717e-05, 4.19183889e-05, -1.37337765e-05,
          -4.85515193e-05, -3.31436386e-05, -3.31436386e-05,
          -1.76766080e-05, -6.77626358e-21, -8.50207834e-06,
          9.98347787e-06, 2.34604613e-05, 2.34604613e-05, 2.56361545e-05,
          3.09199786e-05, 3.38055506e-05, 3.78453478e-05, 3.78453478e-05,
          3.66573768e-05, -1.52611683e-05, -5.05880380e-05,
          -3.85743624e-05, -3.85743624e-05, -2.49269815e-05,
          -9.58992496e-06, -2.87697731e-05, -3.96876785e-05,
          -4.94358064e-05, -4.94358064e-05, -4.94358064e-05,
          -3.57600256e-05, 5.19784408e-06, 2.69839038e-05,
          2.69839038e-05, 2.61353525e-05, -1.83159500e-05,
          -5.50005025e-05, -4.94358064e-05, -4.94358064e-05,
          -3.96876785e-05, -2.87697731e-05, -4.76499372e-05,
          -5.42786656e-05, -6.01275424e-05, -6.01275424e-05,
          -6.01275424e-05, -4.64517616e-05, -5.49389142e-06,
          1.62921679e-05, 1.62921679e-05, 1.57830382e-05,
          -2.13707299e-05, -5.94129633e-05, -6.01275424e-05,
          -6.01275424e-05, -5.42786656e-05, -4.76499372e-05,
          -6.68297871e-05, -6.90393645e-05, -7.09889864e-05,
          -7.09889864e-05, -7.09889864e-05, -5.73132093e-05,
          -1.63553359e-05, 5.43072247e-06, 5.43072247e-06,
          5.26101257e-06, -2.44255116e-05, -6.38254278e-05,
          -7.09889864e-05, -7.09889864e-05, -6.90393645e-05,
          -6.68297871e-05, -7.64197102e-05, -7.64197102e-05,
          -7.64197102e-05, -7.64197102e-05, -7.64197102e-05,
          -6.27439294e-05, -2.17860597e-05, 0., 0., 0., -2.59529024e-05,
          -6.60316582e-05, -7.64197102e-05, -7.64197102e-05,
          -7.64197102e-05, -7.64197102e-05, -7.64197102e-05,
          -7.64197102e-05, -7.64197102e-05, -7.64197102e-05,
          -7.64197102e-05, -6.27439294e-05, -2.17860597e-05, 0., 0., 0.,
          -2.59529024e-05, -6.60316582e-05, -7.64197102e-05,
          -7.64197102e-05, -7.64197102e-05, -7.64197102e-05,
          -7.64197102e-05, -7.64197102e-05, -7.64197102e-05,
          -7.64197102e-05, -7.64197102e-05, -6.27439294e-05,
          -2.17860597e-05, 0., 0., 0., -2.59529024e-05, -6.60316582e-05,
          -7.64197102e-05, -7.64197102e-05, -7.64197102e-05,
          -7.64197102e-05, -7.64197102e-05, -7.64197102e-05,
          -7.64197102e-05, -7.64197102e-05, -7.64197102e-05,
          -6.27439294e-05, -2.17860597e-05, 0., 0., 0., -2.59529024e-05,
          -6.60316582e-05, -7.64197102e-05, -7.64197102e-05,
          -7.64197102e-05, -7.64197102e-05, -6.87607680e-05,
          -7.28295854e-05, -7.64197102e-05, -7.64197102e-05,
          -7.64197102e-05, -6.27439294e-05, -2.17860597e-05, 0., 0., 0.,
          -2.59529024e-05, -6.60316582e-05, -7.64197102e-05,
          -7.64197102e-05, -7.29689127e-05, -6.90580055e-05,
          -5.34428837e-05, -6.56493212e-05, -7.64197102e-05,
          -7.64197102e-05, -7.64197102e-05, -6.27439294e-05,
          -2.17860597e-05, 0., 0., 0., -2.59529024e-05, -6.60316582e-05,
          -7.64197102e-05, -7.64197102e-05, -6.60673104e-05,
          -5.43345959e-05, -3.83643419e-05, -5.84690679e-05,
          -7.64197102e-05, -7.64197102e-05, -7.64197102e-05,
          -6.27439294e-05, -2.17860597e-05, 0., 0., 0., -2.59529024e-05,
          -6.60316582e-05, -7.64197102e-05, -7.64197102e-05,
          -5.91657154e-05, -3.98412376e-05, -2.30464593e-05,
          -4.83360818e-05, -4.42505443e-05, -4.42505443e-05,
          -4.42505443e-05, -3.13648561e-05, -4.03979902e-06, 0., 0., 0.,
          -4.81760480e-06, -3.55205702e-05, -4.47513085e-05,
          -4.42505443e-05, -4.93113912e-05, -2.51178280e-05,
          4.99227463e-05, 2.84816906e-05, 0., 0., 0., 0., 0., 0., 0., 0.,
          0., 0., 0., 0., 2.73763417e-05, 5.86635870e-05, 4.09774766e-05,
          2.84816906e-05, 0., 0., 0., 0., 0., 0., 0., 0., 0., 0., 0., 0.,
          2.73763417e-05, 3.70620692e-05 ]
      - [ -8.31546276e-06, -2.04498610e-05, -3.10674586e-05,
          -5.36815060e-06, 5.35890194e-06, 5.35890194e-06,
          1.77974816e-05, 4.31535846e-05, 1.52338007e-05, 4.12413010e-06,
          -2.33244737e-05, -4.19836542e-05, -3.58578000e-05,
          -3.15054313e-05, -2.04498610e-05, -8.31546276e-06,
          -5.94094081e-06, 9.99987242e-06, 2.96256276e-05,
          4.63385550e-05, 4.63385550e-05, 4.63385550e-05, 4.63385550e-05,
          4.63385550e-05, 4.63385550e-05, 4.51037849e-05, 1.76551821e-05,
          1.66703758e-05, 1.05151375e-05, -2.27077944e-05,
          -2.04498610e-05, -8.31546276e-06, 8.30067165e-06,
          4.98919908e-05, 4.05235223e-05, 3.61365528e-05, 1.60762647e-05,
          1.26235973e-05, -3.27181442e-05, -1.10189267e-05,
          1.38108580e-05, 2.01307412e-05, 1.49594180e-05, 1.59616629e-05,
          3.63353938e-05, 2.70628898e-05, -1.39724234e-05,
          -1.69856503e-05, -3.30401890e-05, -1.50038277e-05,
          6.08456617e-07, -3.67979119e-05, -4.85125602e-05,
          -4.85125602e-05, -4.85125602e-05, -4.85125602e-05,
          -4.85125602e-05, -4.92842919e-05, -8.32018941e-06,
          1.14011882e-05, 2.59097542e-05, 2.86197192e-05, 1.12335438e-05,
          -3.04424684e-05, -5.13954546e-05, -5.59458531e-05,
          -5.99609120e-05, -5.99609120e-05, -5.99609120e-05,
          -5.99609120e-05, -5.99609120e-05, -5.99609120e-05,
          -5.99609120e-05, -6.04239503e-05, -6.01989304e-05,
          6.84071301e-06, 1.56384613e-05, 1.72808632e-05,
          -2.89151035e-06, -4.75118977e-05, -6.87358261e-05,
          -7.02526304e-05, -7.15909773e-05, -7.15909773e-05,
          -7.15909773e-05, -7.15909773e-05, -7.15909773e-05,
          -7.15909773e-05, -7.15909773e-05, -7.17453295e-05,
          -6.46195695e-05, 2.28023760e-06, 5.21282027e-06,
          5.76028788e-06, -1.71982847e-05, -6.48522691e-05,
          -7.74060172e-05, -7.74060172e-05, -7.74060172e-05,
          -7.74060172e-05, -7.74060172e-05, -7.74060172e-05,
          -7.74060172e-05, -7.74060172e-05, -7.74060172e-05,
          -7.74060172e-05, -4.44257057e-05, 0., 0., -5.94907021e-07,
          -2.76974297e-05, -7.38460876e-05, -7.74060172e-05,
          -7.74060172e-05, -7.74060172e-05, -7.74060172e-05,
          -7.74060172e-05, -7.74060172e-05, -7.74060172e-05,
          -7.74060172e-05, -7.74060172e-05, -5.50376026e-05,
          -1.29451837e-06, 0., 0., -1.71378852e-05, -6.60789810e-05,
          -7.74060172e-05, -7.66233788e-05, -7.68842583e-05,
          -7.73407955e-05, -7.74060172e-05, -7.74060172e-05,
          -7.74060172e-05, -7.74060172e-05, -7.74060172e-05,
          -6.42381929e-05, -9.54340703e-06, 0., 0., -8.47830506e-06,
          -5.73551843e-05, -7.74060172e-05, -7.74060172e-05,
          -7.50581166e-05, -7.58733586e-05, -7.71777486e-05,
          -7.74060172e-05, -7.74060172e-05, -7.74060172e-05,
          -7.74060172e-05, -4.11540605e-05, -1.79543611e-06, 0., 0.,
          -2.72294710e-06, -4.90109305e-05, -7.74060172e-05,
          -7.74060172e-05, -7.74060172e-05, -6.71101734e-05,
          -7.18705778e-05, -7.70473052e-05, -7.74060172e-05,
          -7.74060172e-05, -7.57438465e-05, -1.52931134e-05,
          -3.30503923e-07, 0., 0., -2.09024929e-05, -7.15738061e-05,
          -7.74060172e-05, -7.74060172e-05, -7.44291465e-05,
          -7.10553722e-05, -5.28121564e-05, -6.48433052e-05,
          -7.68842583e-05, -7.74060172e-05, -6.30464056e-05,
          -1.10515266e-05, 0., 0., 0., -4.33221212e-05, -7.69311082e-05,
          -7.74060172e-05, -7.74060172e-05, -7.74060172e-05,
          -6.84754195e-05, -5.83540823e-05, -3.86809879e-05,
          -5.78486397e-05, -7.02489997e-05, -2.99494059e-05,
          -1.77996276e-06, 0., 0., -5.59716864e-06, -4.74232183e-05,
          -7.48169768e-05, -7.74060172e-05, -7.74060172e-05,
          -7.74060172e-05, -7.74060172e-05, -6.25216926e-05,
          -4.58512550e-05, -2.34010386e-05, -2.47249973e-05,
          -9.00398936e-06, 0., 0., 0., -4.23569554e-06, -2.50592893e-05,
          -2.67126634e-05, -2.67126634e-05, -2.67126634e-05,
          -2.67126634e-05, -2.67126634e-05, -2.67126634e-05,
          -1.27490966e-05, -2.93507328e-05, 3.79516969e-05,
          2.91814104e-05, 7.82631844e-07, 0., 0., 0., 0., 0., 0., 0., 0.,
          0., 0., 0., 2.36164560e-05, 5.06066899e-05, 3.14082463e-05,
          2.91814104e-05, 7.82631844e-07, 0., 0., 0., 0., 0., 0., 0., 0.,
          0., 0., 0., 2.36164560e-05, 3.34372962e-05 ]
      - [ -7.42243537e-06, -1.84243745e-05, -2.17598244e-05,
          -3.41307714e-06, 1.56561200e-05, 1.73604385e-05,
          2.26931243e-05, 4.15366776e-05, 3.42955100e-05, 1.87703281e-05,
          -1.26272389e-05, -1.94492713e-05, -1.92031366e-05,
          -2.87289022e-05, -2.02435294e-05, -7.42243537e-06,
          -4.55679356e-06, 2.55926170e-05, 4.08380656e-05,
          4.61324598e-05, 4.61324598e-05, 4.13680027e-05, 3.92023430e-05,
          3.92023430e-05, 3.96354735e-05, 4.48345854e-05, 1.61447824e-05,
          1.81856340e-05, 3.51511990e-05, 1.00590842e-05,
          -8.31077068e-06, -6.98930307e-06, -1.15511066e-05,
          3.39974213e-05, 3.86394313e-05, 2.76403789e-05, 1.79404253e-06,
          -2.40072814e-06, -2.97255683e-05, -3.72511604e-05,
          -2.24549749e-05, -5.37942697e-06, -6.93898573e-06,
          1.60707277e-05, 3.74856245e-05, 4.00818026e-05, 2.12161431e-05,
          -1.34635775e-05, -3.38401333e-05, -3.40650295e-05,
          -2.93887770e-05, -4.52103232e-05, -4.88295009e-05,
          -4.88295009e-05, -4.88295009e-05, -4.88295009e-05,
          -4.88295009e-05, -4.96406719e-05, -4.11737528e-05,
          -4.80497965e-06, 2.67290943e-05, 2.85781698e-05,
          1.63044388e-05, -2.96474391e-05, -5.11767466e-05,
          -5.59846594e-05, -6.02269320e-05, -6.02269320e-05,
          -6.02269320e-05, -6.02269320e-05, -6.02269320e-05,
          -6.02269320e-05, -6.02269320e-05, -6.07136353e-05,
          -7.15331480e-05, -1.82434942e-05, 1.61347980e-05,
          1.72554483e-05, 1.34170086e-05, -4.55394911e-05,
          -6.87885477e-05, -7.03911865e-05, -7.18052761e-05,
          -7.18052761e-05, -7.18052761e-05, -7.18052761e-05,
          -7.18052761e-05, -7.18052761e-05, -7.18052761e-05,
          -7.17836665e-05, -2.99647108e-05, 2.29581815e-06,
          5.37826554e-06, 5.75181639e-06, -2.18225196e-05,
          -6.60237929e-05, -7.75944500e-05, -7.75944500e-05,
          -7.75944500e-05, -7.75944500e-05, -7.75576773e-05,
          -6.32099618e-05, -5.72108438e-05, -5.72108438e-05,
          -3.41088453e-05, -8.56052975e-06, 0., 0., -1.22046390e-06,
          -3.43272113e-05, -7.25609789e-05, -7.75944500e-05,
          -7.75944500e-05, -7.75944500e-05, -7.75944500e-05,
          -7.75944500e-05, -3.30028633e-05, 0., 0., 0., 0., 0., 0.,
          -1.84028904e-05, -6.82022001e-05, -7.75944500e-05,
          -7.75944500e-05, -7.75944500e-05, -7.68958635e-05,
          -7.71287232e-05, -7.75362278e-05, -7.75944500e-05,
          -3.87536493e-05, -1.15896473e-05, -9.70216388e-06,
          -9.70216388e-06, -9.09577830e-06, 0., 0., -2.95740023e-07,
          -1.42322860e-05, -5.55170955e-05, -7.57752932e-05,
          -7.75944500e-05, -7.54986977e-05, -7.62263880e-05,
          -7.73906941e-05, -7.75944500e-05, -7.75944500e-05,
          -7.75944500e-05, -7.75944500e-05, -7.61148258e-05,
          -7.32390981e-05, -7.25543214e-05, -3.44625660e-05,
          -4.25362623e-06, 0., 0., -2.82374658e-05, -6.80921657e-05,
          -6.77822900e-05, -7.23619087e-05, -7.72742642e-05,
          -7.75944500e-05, -7.75944500e-05, -7.75944500e-05,
          -7.75944500e-05, -7.75944500e-05, -7.75944500e-05,
          -7.75944500e-05, -7.75944500e-05, -2.92543045e-05,
          -1.81915573e-06, 0., 3.31896786e-06, -2.98318955e-05,
          -5.37757478e-05, -6.55061740e-05, -7.71287232e-05,
          -7.75944500e-05, -7.75944500e-05, -7.75944500e-05,
          -7.75944500e-05, -7.75944500e-05, -7.75944500e-05,
          -7.75944500e-05, -7.75944500e-05, -7.16759751e-05,
          -1.92092284e-05, 0., 9.95690334e-06, 1.36953404e-05,
          -3.61228231e-05, -1.85101035e-05, -6.91395471e-05,
          -7.73125503e-05, -7.75944500e-05, -7.75944500e-05,
          -7.75944500e-05, -7.75944500e-05, -7.75944500e-05,
          -7.75944500e-05, -7.75944500e-05, -3.61548227e-05,
          -3.30640614e-06, 0., 1.65948386e-05, 7.81958443e-06,
          4.59775947e-05, 2.55959876e-05, -6.66725009e-06,
          -2.05106535e-05, -5.42239213e-05, -7.55476285e-05,
          -7.68222963e-05, -7.75944500e-05, -7.73370630e-05,
          -5.27861957e-05, -2.29257676e-05, -2.33891456e-06, 0., 0.,
          2.19458543e-05, 1.21722451e-05, 6.26077735e-06, 2.02481915e-05,
          -3.19437220e-11, 0., 0., 0., 0., 0., 0., 0., 0., 0., 0.,
          -1.25355618e-05, -2.83189856e-05, -2.01643870e-05,
          -1.98155340e-05, -4.23839301e-05, -4.62212338e-05,
          -3.13581368e-05, -1.51384520e-05, -1.65461233e-06,
          -1.65461233e-06, -2.08358600e-07, -2.08358600e-07,
          -1.65461233e-06, -5.55280303e-06, -3.52234383e-05,
          -4.93096268e-05, -7.13454720e-05, -5.12639672e-05,
          -2.11719926e-05 ]
      - [ -9.35127628e-06, -1.80474708e-05, -2.56566400e-05,
          -2.56566400e-05, -2.56566400e-05, -2.56566400e-05,
          -2.56566400e-05, -2.50139583e-05, 2.20374004e-05,
          7.39532406e-05, 2.16285425e-05, 3.09408315e-05, 6.86490966e-05,
          2.55396499e-05, -1.36835415e-05, 4.06575815e-20,
          -9.35127628e-06, -1.80474708e-05, -2.56566400e-05,
          -2.56566400e-05, -2.56566400e-05, -2.56566400e-05,
          -2.55138220e-05, 5.60821791e-05, 7.66010926e-05,
          7.41979165e-05, 2.16285425e-05, 3.09408315e-05, 7.66010926e-05,
          2.58616383e-05, -1.36835415e-05, 4.06575815e-20,
          -2.10101261e-05, -2.85553524e-05, -3.52693241e-05,
          -3.52693241e-05, -3.52693241e-05, -3.52693241e-05,
          2.41044199e-05, 6.69884030e-05, 6.69884030e-05, 6.47428096e-05,
          1.89249749e-05, 2.73360747e-05, 6.69884030e-05, 1.62489523e-05,
          -2.47048265e-05, -1.28323427e-05, -4.43278223e-05,
          -4.96990033e-05, -5.44946961e-05, -5.44946961e-05,
          -5.44946961e-05, -2.49124350e-05, 4.29331922e-05,
          4.77630310e-05, 3.59404585e-05, -1.27976482e-05,
          1.35178389e-05, 1.95257671e-05, 4.77630310e-05,
          -2.97641827e-06, -4.69486258e-05, -3.84970263e-05,
          -6.72811802e-05, -7.05422572e-05, -7.34196728e-05,
          -7.34196728e-05, -5.53259670e-05, 2.85933802e-05,
          2.88380579e-05, 2.78026255e-05, -4.27080449e-05,
          -2.48091310e-05, 8.11070367e-06, 1.17154605e-05,
          2.88380579e-05, -2.22233830e-05, -6.88920263e-05,
          -6.37607009e-05, -9.05988782e-05, -9.16859062e-05,
          -9.26450448e-05, -5.53174577e-05, 7.89994829e-06,
          9.61268597e-06, 9.54127700e-06, -3.24813809e-05,
          -9.26450448e-05, -4.25161707e-05, 2.70356782e-06,
          3.90515333e-06, 9.61268597e-06, -4.14487549e-05,
          -9.11358293e-05, -8.94253826e-05, -1.02257727e-04,
          -1.02257727e-04, -8.67684867e-05, -7.40575251e-06, 0., 0.,
          -6.66367341e-05, -1.02257727e-04, -1.02257727e-04,
          -5.18284614e-05, 0., 0., 0., -5.07394507e-05, -1.02257727e-04,
          -1.02257727e-04, -1.02257727e-04, -6.92044850e-05,
          -3.42547401e-06, 0., -1.14449051e-06, -4.51111737e-05,
          -1.02257727e-04, -1.02257727e-04, -1.02257727e-04,
          -5.18284614e-05, 0., 0., 0., -5.07394507e-05, -1.02257727e-04,
          -1.02257727e-04, -9.11763127e-05, -9.71077588e-06, 0., 0.,
          -1.85040353e-05, -1.02257727e-04, -1.02257727e-04,
          -1.02257727e-04, -1.02257727e-04, -5.18284614e-05, 0., 0., 0.,
          -5.07394507e-05, -1.02257727e-04, -1.02257727e-04,
          -3.04273490e-05, 0., 0., -1.10367284e-06, -3.51731942e-05,
          -3.51731942e-05, -3.51731942e-05, -3.51731942e-05,
          -3.51731942e-05, -1.48310664e-05, 0., 0., 0., -2.06836794e-05,
          -3.69048685e-05, -9.40567770e-05, 1.18092612e-05,
          5.53559084e-06, 0., 0., 0., 0., 0., 0., 0., 0., 0., 0., 0., 0.,
          5.53559084e-06, 1.18092603e-05, 4.54302199e-06,
          -1.42779872e-05, -3.08847593e-05, -3.08847593e-05,
          -3.08847593e-05, -3.08847593e-05, -3.08847593e-05,
          -3.08847593e-05, -3.08847593e-05, -1.77629645e-05, 0., 0., 0.,
          -1.31753523e-05, -1.42779882e-05, 4.54302108e-06,
          -4.35804650e-05, -7.45797734e-05, -1.02257727e-04,
          -1.02257727e-04, -1.02257727e-04, -1.02257727e-04,
          -1.02257727e-04, -1.02257727e-04, -1.02257727e-04,
          -5.18284614e-05, 0., 0., 0., -5.07394507e-05, -7.45797734e-05,
          -4.35804650e-05, -1.99619408e-05, -6.35085889e-05,
          -1.02257727e-04, -1.02257727e-04, -1.02257727e-04,
          -1.02257727e-04, -1.02257727e-04, -1.02257727e-04,
          -1.02257727e-04, -5.18284614e-05, 0., 0., 0., -5.07394507e-05,
          -6.35085889e-05, -1.99619426e-05, -8.15268049e-06,
          -5.83420406e-05, -1.02257727e-04, -1.02257727e-04,
          -1.02257727e-04, -1.02257727e-04, -1.02257727e-04,
          -1.02257727e-04, -1.02257727e-04, -5.18284614e-05, 0., 0., 0.,
          -5.07394507e-05, -5.83420406e-05, -8.15268231e-06,
          -8.15268049e-06, -5.83420406e-05, -1.02257727e-04,
          -1.02257727e-04, -1.02257727e-04, -1.02257727e-04,
          -1.02257727e-04, -1.02257727e-04, -1.02257727e-04,
          -5.18284614e-05, 0., 0., 0., -5.10614409e-05, -5.83420406e-05,
          -8.15268231e-06 ]
      - [ -1.77487311e-06, -2.09491827e-05, -7.66628818e-06,
          2.10277594e-05, 2.97955103e-05, 2.97955103e-05, 2.97955103e-05,
          2.97955103e-05, 2.97955103e-05, 2.83925801e-05,
          -2.29652983e-06, 3.86937791e-06, 4.34369140e-05,
          3.20173240e-05, 3.60689737e-05, 3.26038253e-06,
          -1.77487311e-06, -1.85615609e-05, 1.09284802e-05,
          4.47184175e-05, 4.47184175e-05, 4.47184175e-05, 4.21294571e-05,
          3.25378242e-05, 3.25378242e-05, 3.11348922e-05, 4.45784252e-07,
          5.88214061e-06, 3.25378242e-05, 3.25378242e-05, 3.79954072e-05,
          3.72918134e-06, -1.18981980e-05, -2.40728205e-05,
          9.02084685e-06, 3.91066933e-05, 3.91066933e-05, 3.65599335e-05,
          -1.94238382e-05, -3.24923931e-05, -3.24923931e-05,
          -3.37199563e-05, -6.05510068e-05, -5.56407504e-05,
          -3.24923931e-05, -3.24923931e-05, -2.44431139e-05,
          -1.18981980e-05, -3.21448497e-05, -3.09324059e-05,
          1.41603423e-05, 2.78832485e-05, 2.78832485e-05, 1.14315089e-05,
          -4.83270269e-05, -5.45618714e-05, -5.45618714e-05,
          -5.54387043e-05, -7.45536308e-05, -7.10463064e-05,
          -5.45618714e-05, -5.45618714e-05, -4.39878022e-05,
          -3.21448497e-05, -5.20751455e-05, -4.59352414e-05,
          3.62691367e-06, 1.68351689e-05, 1.68351689e-05,
          -5.78646996e-06, -6.56099510e-05, -6.56099510e-05,
          -6.56099510e-05, -6.61360536e-05, -7.77102250e-05,
          -7.56058289e-05, -6.56099510e-05, -6.56099510e-05,
          -5.92655088e-05, -5.20751455e-05, -7.23217963e-05,
          -6.12421063e-05, -7.32166200e-06, 5.61172283e-06,
          5.61172283e-06, -2.20272104e-05, -4.34136273e-05,
          -4.28638850e-05, -4.28638850e-05, -4.30392502e-05,
          -4.68973121e-05, -5.10481987e-05, -7.68333994e-05,
          -7.68333994e-05, -7.47185841e-05, -7.23217963e-05,
          -8.24451199e-05, -6.42697996e-05, -8.30573663e-06, 0., 0.,
          -4.68926601e-06, -2.13583735e-06, 0., 0., 0., 0.,
          -7.63653316e-06, -1.18332500e-05, -3.90512614e-05,
          -7.44836216e-05, -8.24451199e-05, -8.24451199e-05,
          -6.81014426e-05, -1.78954233e-05, -1.11732760e-07,
          -1.81097075e-05, -2.18473233e-05, -3.32793425e-05,
          -5.47155105e-05, -3.11359508e-05, -2.18473233e-05,
          -9.27852625e-07, 0., 0., -2.99017233e-06, -2.03786476e-05,
          -7.66705489e-05, -8.22780712e-05, -8.23337541e-05,
          -8.02093855e-05, -6.81843230e-05, -8.12375511e-05,
          -8.24451199e-05, -8.24451199e-05, -8.24451199e-05,
          -8.24451199e-05, -8.24451199e-05, -7.11034372e-05,
          -1.80778570e-05, 0., 0., 0., -2.41199632e-05, -8.19439811e-05,
          -8.21179856e-05, -8.23964001e-05, -8.24451199e-05,
          -8.24451199e-05, -8.24451199e-05, -8.24451199e-05,
          -8.24451199e-05, -8.24451199e-05, -8.24451199e-05,
          -8.24451199e-05, -6.39942227e-05, 0., 0., 0., -1.58763924e-05,
          -7.40733158e-05, -7.83694486e-05, -8.23685550e-05,
          -8.24451199e-05, -8.24451199e-05, -8.24451199e-05,
          -8.24451199e-05, -8.24451199e-05, -8.24451199e-05,
          -8.24451199e-05, -8.24451199e-05, -7.51921179e-05,
          -9.76667138e-07, 0., 3.84303530e-06, -4.68774397e-06,
          -5.86730348e-05, -7.10811801e-05, -8.23337541e-05,
          -8.24451199e-05, -8.24451199e-05, -8.24451199e-05,
          -8.24451199e-05, -8.24451199e-05, -8.24451199e-05,
          -8.24451199e-05, -8.24451199e-05, -7.51102416e-05,
          -6.43313683e-07, 0., 1.15291059e-05, 8.71903376e-06,
          -4.00701538e-05, -2.36735505e-05, -5.14811472e-05,
          -8.09513513e-05, -8.24451199e-05, -8.24451199e-05,
          -8.24451199e-05, -8.24451199e-05, -8.24451199e-05,
          -8.24451199e-05, -8.24451199e-05, -1.95001248e-05, 0., 0.,
          1.92151765e-05, 7.27234601e-06, 3.06412076e-05, 2.58917480e-05,
          -2.72173475e-06, -1.51063223e-05, -4.09292225e-05,
          -4.18182026e-05, -7.83534997e-05, -8.24451199e-05,
          -6.28571288e-05, -4.09292225e-05, -1.30691551e-05,
          -4.27167492e-07, 0., 0., -1.11785921e-05, -2.24524301e-05,
          -2.43278942e-06, 7.13493307e-07, -3.53489281e-06, 0., 0.,
          -2.21385676e-06, -8.67598465e-06, -8.67598465e-06,
          -1.19567608e-06, 0., 0., 0., -1.01237956e-05, -4.60512820e-05,
          -4.51770429e-05, -1.70842795e-05, -2.06131808e-05,
          -4.90351813e-05, -6.99819793e-05, -4.67376049e-05,
          -2.99551448e-05, -2.99551448e-05, -2.99551448e-05,
          -1.36979925e-05, -1.36979925e-05, -2.99551448e-05,
          -2.99551448e-05, -4.24625177e-05, -7.24390411e-05,
          -8.21585563e-05, -5.19570422e-05, -1.71135216e-05 ]
      - [ -8.53996153e-06, -2.47121534e-05, -3.88628214e-05,
          -3.88628214e-05, -3.56244855e-05, -5.17499302e-06,
          1.53122146e-05, 3.39514918e-05, 5.32295198e-05, 5.21125039e-05,
          8.47294359e-07, -1.00266470e-05, 1.29860191e-05,
          -1.95770008e-05, -1.42904755e-05, 3.48113474e-07,
          -8.53996153e-06, -2.47121534e-05, -3.76305979e-05,
          -6.08221944e-06, 5.37576307e-05, 5.98788502e-05,
          5.98788502e-05, 5.98788502e-05, 5.90564450e-05, 5.46383671e-05,
          1.43402385e-05, 2.41863581e-05, 5.98788502e-05, 5.98788502e-05,
          5.39123066e-05, 1.15642079e-05, -1.98593916e-05,
          -2.83065219e-05, 1.50940605e-05, 5.23646413e-05,
          5.23646413e-05, 5.22796909e-05, 4.15841496e-05, 4.47237926e-06,
          -1.43280322e-05, -2.41927537e-05, -4.05347673e-05,
          -2.99761032e-05, 3.38238569e-05, 4.33636233e-05,
          1.76151207e-05, -9.76866340e-06, -4.00013232e-05,
          -2.34841991e-06, 3.73362236e-05, 3.73362236e-05,
          3.66082095e-05, -5.78177924e-06, -6.14054443e-05,
          -6.14054443e-05, -6.14054443e-05, -6.25795437e-05,
          -8.81748128e-05, -8.34784296e-05, -6.14054443e-05,
          -6.14054443e-05, -4.99752059e-05, -3.71733331e-05,
          -4.93064726e-05, 2.75456041e-05, 2.25426247e-05,
          2.25426247e-05, -1.48861027e-05, -7.61990450e-05,
          -7.61990450e-05, -7.61990450e-05, -7.61990450e-05,
          -7.69035032e-05, -9.24015549e-05, -8.95837293e-05,
          -7.61990450e-05, -7.61990450e-05, -6.93409020e-05,
          -6.15683311e-05, -4.36330993e-05, 9.29790622e-06,
          7.51420839e-06, 4.07694779e-06, -8.08170153e-05,
          -9.12274627e-05, -9.12274627e-05, -9.12274627e-05,
          -9.10980816e-05, -9.13329059e-05, -9.64989231e-05,
          -9.56890217e-05, -9.12274627e-05, -9.12274627e-05,
          -8.89414150e-05, -8.63505556e-05, -1.92594835e-05, 0., 0.,
          -2.28817698e-05, -9.27530054e-05, -8.98928847e-05,
          -5.26245676e-05, -1.96177052e-06, 0., 0., 0., -1.93568558e-05,
          -7.48244274e-05, -9.41015387e-05, -9.83414575e-05,
          -9.87416715e-05, -7.31038244e-06, 0., 0., 0., 0., 0.,
          -2.09822602e-07, -8.54735049e-07, -8.54735049e-07,
          -7.83127177e-07, 0., 0., 0., -1.66977043e-05, -6.78969518e-05,
          -9.68850945e-05, -3.19631454e-06, 0., 0., 0., 0.,
          -1.11459294e-05, -7.85807715e-05, -9.66330335e-05,
          -9.66330335e-05, -9.65614236e-05, -5.12831102e-05,
          -1.65115234e-05, 0., 0., -1.30350963e-06, -6.78116048e-05,
          -7.31038244e-06, 0., 0., -1.02569384e-05, -8.56941406e-05,
          -9.87416715e-05, -9.87416715e-05, -9.87416715e-05,
          -9.87416715e-05, -9.87416715e-05, -9.87416715e-05,
          -6.57545024e-05, -1.39752501e-05, 0., 0., -3.96163960e-05,
          -2.75855036e-05, 5.61419392e-06, 0., -1.27638050e-05,
          -9.05646884e-05, -9.87416715e-05, -9.87416715e-05,
          -9.87416715e-05, -9.87416715e-05, -9.87416715e-05,
          -9.87416715e-05, -9.28684749e-05, -2.22855033e-05, 0.,
          4.21877530e-06, -1.40204038e-05, -2.28480785e-05,
          1.68425813e-05, 0., 0., -5.34846040e-05, -9.87416715e-05,
          -9.87416715e-05, -9.87416715e-05, -9.87416715e-05,
          -9.87416715e-05, -9.87416715e-05, -9.27284855e-05,
          -2.17430661e-05, 0., 1.26563264e-05, 7.21308243e-06,
          -3.07481860e-05, -4.94681308e-06, 0., 0., -9.24193409e-06,
          -7.69149556e-05, -9.87416715e-05, -9.87416715e-05,
          -9.87416715e-05, -9.87416715e-05, -9.87416715e-05,
          -6.15109093e-05, -3.00358511e-06, 0., 2.10938779e-05,
          -3.00251895e-06, -1.43730604e-05, -3.46870438e-05,
          -1.86343605e-05, 0., 0., -1.74695124e-05, -7.07008730e-05,
          -9.30243987e-05, -9.87416715e-05, -9.71782283e-05,
          -5.37472843e-05, -6.00285512e-06, 0., 0., 1.07969163e-05,
          -2.40648696e-05, -3.30037301e-06, -5.42023990e-05,
          -7.90294725e-05, -2.28370645e-05, -1.37214556e-06, 0., 0., 0.,
          0., 0., 0., 0., -6.20601384e-07, -2.41057496e-05,
          -4.44901998e-05, -2.63555266e-05, -3.30037301e-06,
          -5.42023990e-05, -9.87416715e-05, -9.87416715e-05,
          -6.81624224e-05, -4.61561249e-05, -1.28739230e-05,
          -8.67308972e-06, -4.09927134e-06, -1.61117669e-06,
          -9.10080416e-06, -4.19999051e-05, -6.38619022e-05,
          -9.43907144e-05, -6.52727176e-05, -2.70224846e-05 ]
      - [ 1.09984639e-05, 2.38481352e-05, 2.38481352e-05, 2.38481352e-05,
          2.38481352e-05, 2.38481352e-05, 2.38481352e-05, 2.38481352e-05,
          2.38481352e-05, 2.30213773e-05, 4.93604739e-06, 8.52508401e-06,
          2.63529091e-05, 2.50216999e-05, 2.95610371e-05, 3.04331897e-05,
          2.17734632e-05, 2.17734632e-05, 2.17734632e-05, 2.17734632e-05,
          2.17734632e-05, 2.17734632e-05, 2.17734632e-05, 2.17734632e-05,
          2.17734632e-05, 2.09467053e-05, 7.27726956e-06, 1.06445077e-05,
          2.63529091e-05, 2.63529091e-05, 3.20658110e-05, 1.97046338e-05,
          -2.75351977e-05, -8.95259745e-06, -8.95259745e-06,
          -8.95259745e-06, -8.95259745e-06, -8.95259745e-06,
          -8.95259745e-06, -8.95259745e-06, -8.95259745e-06,
          -9.67601045e-06, -2.48335491e-05, 9.40437167e-06,
          2.30458772e-05, 2.27187738e-05, 1.15878120e-05,
          -4.90947195e-06, -4.43702338e-05, -4.43702338e-05,
          -4.43702338e-05, -4.43702338e-05, -4.43702338e-05,
          -4.43702338e-05, -4.43702338e-05, -4.43702338e-05,
          -4.43702338e-05, -3.11486256e-05, -2.35636217e-05,
          6.71740781e-06, 1.64318135e-05, 4.92952040e-06,
          -2.97789866e-05, -3.67370267e-05, -5.08809535e-05,
          -5.08809535e-05, -5.08809535e-05, -5.08809535e-05,
          -5.08809535e-05, -5.08809535e-05, -5.08809535e-05,
          -5.08809535e-05, -4.27033738e-05, -6.47162005e-06,
          2.62449771e-06, 4.03044487e-06, -5.80110282e-07,
          -3.58046309e-05, -4.82263931e-05, -4.62722237e-05,
          -5.74950172e-05, -5.74950172e-05, -5.74950172e-05,
          -5.74950172e-05, -5.74950172e-05, -5.74950172e-05,
          -5.74950172e-05, -5.34880019e-05, -2.07014145e-05,
          2.04009166e-06, 9.30102658e-07, -3.21728112e-06,
          -3.66568856e-05, -5.74950172e-05, -5.67749012e-05,
          -5.59587752e-05, -6.08020491e-05, -6.08020491e-05,
          -6.08020491e-05, -6.08020491e-05, -6.08020491e-05,
          -6.08020491e-05, -5.94936355e-05, -3.64096304e-05,
          -3.72350473e-06, 0., 0., -3.30843759e-05, -6.08020491e-05,
          -6.08020491e-05, -6.08020491e-05, -6.08020491e-05,
          -6.08020491e-05, -6.08020491e-05, -6.08020491e-05,
          -6.08020491e-05, -6.08020491e-05, -6.08020491e-05,
          -5.39655739e-05, -1.75702880e-05, 0., 0., -2.01986222e-05,
          -5.15107495e-05, -6.08020491e-05, -6.08020491e-05,
          -6.08020491e-05, -6.08020491e-05, -5.93814002e-05,
          -5.98549486e-05, -6.06836620e-05, -6.08020491e-05,
          -6.08020491e-05, -6.00683998e-05, -2.92233417e-05, 0., 0., 0.,
          -3.20454492e-05, -6.08020491e-05, -6.08020491e-05,
          -6.08020491e-05, -6.04394336e-05, -6.01326064e-05,
          -5.65401024e-05, -5.80199448e-05, -6.03876942e-05,
          -6.08020491e-05, -6.08020491e-05, -5.95385100e-05,
          -1.72262844e-05, 0., 0., -1.16939400e-05, -5.93851873e-05,
          -6.08020491e-05, -6.08020491e-05, -6.08020491e-05,
          -5.96863138e-05, -5.87937247e-05, -4.88555306e-05,
          -5.39146567e-05, -6.01509164e-05, -6.08020491e-05,
          -6.08020491e-05, -4.63279139e-05, 0., 0., 0., -2.42938968e-05,
          -5.98711740e-05, -6.08020491e-05, -6.08020491e-05,
          -6.08020491e-05, -5.66629060e-05, -5.26115655e-05,
          -3.63868785e-05, -4.74798871e-05, -5.98549486e-05,
          -6.08020491e-05, -6.08020491e-05, -2.87408020e-05, 0., 0., 0.,
          -2.77795607e-05, -6.00112980e-05, -6.08020491e-05,
          -6.08020491e-05, -6.08020491e-05, -5.13692139e-05,
          -4.16140283e-05, -2.40103873e-05, -4.11043147e-05,
          -5.96181744e-05, -6.08020491e-05, -6.08020491e-05,
          -6.55389113e-06, 0., 0., 0., -4.62633179e-05, -6.07032052e-05,
          -6.08020491e-05, -6.08020491e-05, -6.08020491e-05,
          -4.60755218e-05, -3.07399496e-05, -1.19560900e-05,
          -3.50247101e-05, -5.93814002e-05, -6.08020491e-05,
          -6.08020491e-05, 0., 0., 0., 0., -4.74494409e-05,
          -6.08020491e-05, -6.08020491e-05, -6.08020491e-05,
          -6.08020491e-05, -4.09212989e-05, -1.99376627e-05,
          -7.11281518e-06, -3.29057766e-05, -5.93814002e-05,
          -6.08020491e-05, -4.32202505e-05, 0., 0., 0., -1.23481459e-05,
          -5.20288850e-05, -6.08020491e-05, -6.08020491e-05,
          -6.08020491e-05, -6.08020491e-05, -3.88023655e-05,
          -1.50943888e-05, -7.11281518e-06, -3.29057766e-05,
          -5.93814002e-05, -6.08020491e-05, -3.45548724e-05, 0., 0., 0.,
          -1.57739923e-05, -5.32783124e-05, -6.08020491e-05,
          -6.08020491e-05, -6.08020491e-05, -6.08020491e-05,
          -3.88023655e-05, -1.50943888e-05 ]
      - [ 3.38813179e-20, -2.64109422e-05, -4.27043960e-05,
          -2.52710597e-05, 9.83308109e-06, 3.41191771e-05,
          3.41191771e-05, 4.18145864e-05, 4.18145864e-05, 3.27918751e-05,
          3.08575864e-06, -6.86864860e-06, -3.26144109e-05,
          -4.33759196e-05, -2.64109422e-05, 3.38813179e-20,
          3.38813179e-20, -1.52581424e-05, 1.39415715e-05,
          4.88075966e-05, 5.30079124e-05, 5.27457560e-05, 4.02932747e-05,
          3.20354557e-05, 3.20354557e-05, 3.89661436e-05, 2.17123415e-05,
          2.04039661e-05, 4.02626283e-05, 1.39388585e-05,
          -1.40896918e-05, 3.38813179e-20, -9.24728192e-06,
          2.08809088e-05, 4.63559409e-05, 4.63559409e-05, 4.11127694e-05,
          -6.75575438e-06, -4.55909249e-05, -5.61724883e-05,
          -5.61724883e-05, -4.95863751e-05, -2.89698746e-05,
          1.27923004e-05, 3.99358432e-05, 4.57684800e-05, 1.94753138e-05,
          -9.42577208e-06, -3.20950385e-05, 2.36298511e-05,
          3.30519943e-05, 3.30519943e-05, 1.26234534e-06,
          -6.94764385e-05, -6.94764385e-05, -6.94764385e-05,
          -6.94764385e-05, -7.03059995e-05, -8.88101058e-05,
          -3.12110569e-05, 2.84782000e-05, 3.26323789e-05,
          4.76168498e-05, -2.89492036e-05, -5.74255937e-05,
          4.70783607e-06, 1.99559199e-05, 1.99559199e-05,
          -2.83229292e-05, -8.25725074e-05, -8.25725074e-05,
          -8.25725074e-05, -8.25725074e-05, -8.30702484e-05,
          -9.42722545e-05, -5.22380979e-05, 1.71864667e-05,
          1.97041518e-05, 6.14920964e-06, -5.71634992e-05,
          -8.78238934e-05, -5.04498348e-05, 6.65197331e-06,
          6.65197331e-06, 6.65197331e-06, -3.16968944e-05,
          -9.58764576e-05, -9.58764576e-05, -9.58764576e-05,
          -9.60423713e-05, -9.97763709e-05, -4.03060731e-05,
          5.72882254e-06, 6.56805059e-06, -2.75878847e-05,
          -8.49007774e-05, -1.02528429e-04, -9.58005039e-05,
          -5.24385468e-05, -7.86458986e-06, 0., 0., -9.36409106e-06,
          -4.70015111e-05, -6.88842556e-05, -7.83349096e-05,
          -3.05575195e-05, 0., 0., -3.89199558e-05, -9.43943523e-05,
          -1.02528429e-04, -1.02528429e-04, -1.02528429e-04,
          -1.02528429e-04, -5.76168713e-05, -5.32383501e-06, 0., 0., 0.,
          0., 0., 0., -2.94288407e-06, -4.28067542e-05, -9.57124503e-05,
          -1.02528429e-04, -1.02528429e-04, -1.02528429e-04,
          -9.83338905e-05, -5.60189510e-05, -7.24637448e-06,
          -8.07753082e-08, -1.50741016e-05, -2.93614394e-05,
          -2.33317951e-05, -5.89844240e-06, 0., 0., -5.91412501e-08,
          -1.21653438e-05, -6.28796843e-05, -9.83339778e-05,
          -1.02528429e-04, -8.58180501e-05, -1.88942195e-05, 0., 0.,
          -4.84966986e-05, -1.00670593e-04, -1.02528429e-04,
          -1.01129262e-04, -9.91704292e-05, -5.60275985e-05,
          -1.14036602e-05, 0., 0., -7.68836230e-07, -2.91259985e-05,
          -8.71193915e-05, -1.94166187e-05, 3.81265954e-06, 0.,
          -3.64242878e-05, -9.51933762e-05, -1.02528429e-04,
          -1.02528429e-04, -1.02528429e-04, -1.02528429e-04,
          -1.02528429e-04, -1.00221921e-04, -4.91743340e-05,
          -4.06337131e-06, 0., 4.07769494e-06, -3.81497557e-05,
          2.44010207e-05, 1.14379791e-05, 0., -4.52562927e-05,
          -9.72853668e-05, -1.02528429e-04, -1.02528429e-04,
          -1.02528429e-04, -1.02528429e-04, -1.02528429e-04,
          -1.02528429e-04, -9.28305817e-05, -2.67155683e-05, 0.,
          1.22330848e-05, 2.60972465e-05, 4.04141902e-05, 1.90632982e-05,
          0., -4.08357191e-05, -9.62170670e-05, -1.02528429e-04,
          -1.02528429e-04, -1.02528429e-04, -1.02528429e-04,
          -1.02528429e-04, -1.02528429e-04, -9.20938182e-05,
          -2.36211654e-05, 0., 2.03884738e-05, 4.32235647e-05,
          1.41250212e-05, 2.66886163e-05, 0., 0., -1.55969938e-05,
          -7.61820556e-05, -1.02528429e-04, -1.02528429e-04,
          -1.02528429e-04, -1.02528429e-04, -6.66006235e-05,
          -1.55968846e-05, 0., 0., 2.85438637e-05, 4.40295662e-06,
          -3.52654170e-05, -3.20606086e-05, -1.21901139e-05, 0., 0., 0.,
          0., -1.42654781e-05, -2.05571505e-05, -2.22830045e-06, 0., 0.,
          0., -1.69216673e-05, -3.68778128e-05, -3.13512501e-05,
          -3.77132164e-05, -7.22813274e-05, -9.24003980e-05,
          -6.48007699e-05, -2.87654748e-05, 0., 0., 0., 0., 0., 0.,
          -4.05167448e-05, -6.39138816e-05, -9.11890311e-05,
          -7.01787139e-05, -3.32076161e-05 ]
      - [ -3.64946281e-05, -3.77313154e-05, -3.88134213e-05,
          -1.92028820e-05, 3.91658114e-06, 1.65403180e-05,
          2.51489946e-05, 4.78838047e-05, 2.41357266e-05, 1.25003589e-05,
          -3.46675297e-05, -6.87935681e-05, -3.88134213e-05,
          -3.88134213e-05, -2.18543009e-05, -2.47244907e-06,
          -3.64946281e-05, -2.88869669e-05, 1.76178564e-05,
          5.26322474e-05, 5.66151975e-05, 5.66151975e-05, 5.66151975e-05,
          5.66151975e-05, 5.66151975e-05, 5.48390344e-05, 1.59854681e-05,
          1.90580358e-05, 1.69245213e-05, -2.79407141e-05,
          -2.18543009e-05, -2.47244907e-06, -3.83221923e-05,
          2.43171635e-05, 4.95105451e-05, 4.95105451e-05, 4.90222774e-05,
          1.41541741e-05, -2.78271891e-05, -4.59180737e-05,
          -2.38924986e-05, 2.14092188e-06, 9.85042152e-06,
          2.02038555e-05, 4.95105451e-05, 2.71113331e-05,
          -1.49710631e-05, -1.39725835e-05, -8.21348931e-06,
          3.59832375e-05, 3.53012401e-05, 2.78398675e-05,
          -2.97378283e-05, -6.01273787e-05, -6.01273787e-05,
          -6.01273787e-05, -6.01273787e-05, -6.12374788e-05,
          -5.71797318e-05, 7.90971535e-06, 3.53012401e-05,
          3.53012401e-05, 1.18333937e-05, -3.29620816e-05,
          2.21869141e-05, 2.17231554e-05, 2.13139574e-05,
          -5.19773266e-06, -6.72710958e-05, -7.41146578e-05,
          -7.41146578e-05, -7.41146578e-05, -7.41146578e-05,
          -7.47807208e-05, -8.94340701e-05, -3.91821741e-05,
          2.13139574e-05, 2.13139574e-05, 2.77270701e-05,
          -2.31690829e-05, 5.84205281e-06, 7.24105166e-06,
          7.10465247e-06, -1.94070381e-05, -8.14804007e-05,
          -8.83239627e-05, -8.83239627e-05, -8.83239627e-05,
          -8.83239627e-05, -8.85459885e-05, -9.34304335e-05,
          -8.34681996e-05, -1.01734959e-05, 7.10465247e-06,
          9.24235610e-06, -3.49053262e-05, -1.68291826e-05, 0., 0.,
          -2.41304006e-05, -8.70178919e-05, -9.54286152e-05,
          -9.54286152e-05, -9.54286152e-05, -9.54286152e-05,
          -9.54286152e-05, -9.54286152e-05, -8.12810613e-05,
          -1.33579952e-05, 0., 0., 0., -5.05757962e-05, -2.21940724e-07,
          0., 0., -3.30205476e-05, -8.58629282e-05, -9.50735121e-05,
          -9.50735121e-05, -9.50735121e-05, -8.91643067e-05,
          -3.92072398e-05, -3.10113137e-06, 0., 0., 0., 0.,
          -9.12477553e-05, -4.16494913e-05, -4.10870598e-06, 0., 0., 0.,
          -2.37480776e-06, -2.37480776e-06, -2.37480776e-06,
          -5.93701941e-07, 0., 0., 0., 0., 0., 0., -9.47305161e-05,
          -9.38616431e-05, -9.00316008e-05, -3.84567575e-05,
          -1.16056663e-05, 0., 0., 0., -1.28725617e-06, -4.10333159e-05,
          -8.11646314e-05, -8.50864817e-05, -1.83008615e-05, 0., 0.,
          -4.65704143e-05, -8.28910124e-05, -8.93407268e-05,
          -9.53219642e-05, -9.54286152e-05, -9.54286152e-05,
          -9.54286152e-05, -9.47392618e-05, -9.35903299e-05,
          -9.54286152e-05, -9.54286152e-05, -9.54286152e-05,
          -7.43495475e-05, -1.99147621e-06, 0., 5.46800993e-06,
          -3.49053262e-05, -5.96870996e-05, -7.83672367e-05,
          -9.52734845e-05, -9.54286152e-05, -9.54286152e-05,
          -9.54286152e-05, -9.54286152e-05, -9.54286152e-05,
          -9.54286152e-05, -9.54286152e-05, -9.54286152e-05,
          -3.82045764e-05, 0., 0., 1.08555114e-05, -4.83766744e-05,
          -3.68289329e-05, -6.74034454e-05, -9.52347036e-05,
          -9.54286152e-05, -9.54286152e-05, -9.54286152e-05,
          -9.54286152e-05, -9.54286152e-05, -9.54286152e-05,
          -9.54286152e-05, -6.00685453e-05, -4.28879872e-07, 0., 0.,
          -1.68878069e-05, -3.44071268e-05, -1.11528516e-05,
          -1.33422800e-05, -1.43503348e-05, -2.80502354e-05,
          -8.02976720e-05, -9.07678623e-05, -9.54286152e-05,
          -8.89035582e-05, -6.59902216e-05, -2.34358704e-05,
          -4.47285771e-07, 0., -9.32151067e-07, -3.57830104e-05,
          -4.77247777e-05, -1.41375367e-05, 5.94352014e-06,
          3.78193072e-05, 2.32701083e-07, 0., 0., -6.59815171e-08,
          -2.63926063e-06, -1.55056568e-06, 0., 0., 0., -3.81006316e-06,
          -4.61269556e-05, -8.74411417e-05, -5.20490721e-05,
          -2.47244907e-06, -2.31879176e-06, -4.29675638e-05,
          -6.07809307e-05, -2.89671461e-05, -7.60089961e-06,
          -3.77299239e-06, 0., -5.28218925e-06, -5.99239957e-06,
          -2.28201789e-05, -4.88439982e-05, -8.45913673e-05,
          -9.54286152e-05, -9.54286152e-05, -5.20490721e-05,
          -2.47244907e-06 ]
      - [ -2.54109884e-20, -1.05757344e-05, -1.98295020e-05,
          -1.98295020e-05, -1.98295020e-05, -1.61778644e-05,
          4.98080772e-05, 6.03153712e-05, 6.03153712e-05, 5.48892785e-05,
          -5.75855447e-05, -5.57821913e-05, -1.98295020e-05,
          -1.98295020e-05, -1.05757344e-05, -2.54109884e-20,
          -2.54109884e-20, -1.05757344e-05, -1.98295020e-05,
          -1.98295020e-05, -1.98295020e-05, -1.49514426e-06,
          6.03153712e-05, 6.03153712e-05, 6.03153712e-05, 5.84231238e-05,
          -7.30119427e-06, -5.57821913e-05, -1.98295020e-05,
          -1.98295020e-05, -1.05757344e-05, -2.54109884e-20,
          -1.00573952e-05, -1.92334010e-05, -2.73984897e-05,
          -2.73984897e-05, -2.68672284e-05, 5.04442505e-05,
          5.27463817e-05, 4.69427941e-05, 4.85365781e-05, 5.10906648e-05,
          1.20680515e-05, -5.78123108e-05, -2.73984897e-05,
          -2.73984897e-05, -1.92334010e-05, -1.00573952e-05,
          -3.01721866e-05, -3.67042594e-05, -4.25364633e-05,
          -4.25364633e-05, -3.19557985e-05, 3.76084063e-05,
          3.76084063e-05, 2.61424202e-06, -1.19907145e-05,
          3.64257539e-05, 1.06438883e-05, -3.44563632e-05,
          -4.25364633e-05, -4.25364633e-05, -3.67042594e-05,
          -3.01721866e-05, -4.99726848e-05, -5.39385837e-05,
          -5.74379083e-05, -5.74379083e-05, -9.95689879e-06,
          2.27069631e-05, 2.00506565e-05, -4.33184541e-05,
          -5.46045158e-05, 2.19973699e-05, 6.38633310e-06,
          -1.56028655e-05, -5.74379083e-05, -5.74379083e-05,
          -5.39385837e-05, -4.99726848e-05, -7.00874734e-05,
          -7.14094422e-05, -7.25758800e-05, -7.25758800e-05,
          -5.36306425e-06, 7.56898771e-06, -5.65171320e-07,
          -7.25758800e-05, -7.20446260e-05, -1.07306132e-05,
          2.12877785e-06, -1.27444559e-06, -7.25758800e-05,
          -7.25758800e-05, -7.14094422e-05, -7.00874734e-05,
          -8.01448696e-05, -8.01448696e-05, -8.01448696e-05,
          -6.69318688e-05, 0., 0., -5.37266424e-05, -8.01448696e-05,
          -8.01448696e-05, -4.79270420e-05, 0., 0., -2.43913619e-05,
          -8.01448696e-05, -8.01448696e-05, -8.01448696e-05,
          -8.01448696e-05, -8.01448696e-05, -7.73114807e-05,
          -2.16017474e-06, 0., -1.63100503e-06, -6.23633023e-05,
          -8.01448696e-05, -8.01448696e-05, -7.09893575e-05,
          -4.98543659e-06, 0., -4.79150413e-06, -7.81242416e-05,
          -8.01448696e-05, -8.01448696e-05, -8.01448696e-05,
          -8.01448696e-05, -7.09233791e-05, -1.68446502e-06, 0.,
          -9.79522520e-06, -7.85283628e-05, -8.01448696e-05,
          -8.01448696e-05, -8.01448696e-05, -6.48052446e-06, 0.,
          -5.43668364e-07, -5.62968926e-05, -8.01448696e-05,
          -8.01448696e-05, -8.01448696e-05, -8.01448696e-05,
          -4.07732987e-05, 0., 0., -1.89015293e-06, -1.94415734e-05,
          -1.94415734e-05, -1.94415734e-05, -1.94415734e-05,
          -1.89015293e-06, 0., 0., -1.89504626e-05, -8.01448696e-05,
          -8.01448696e-05, -7.25758800e-05, -7.50031249e-05,
          -1.43464949e-05, 0., 0., 0., 0., 0., 0., 0., 0., 0., 0.,
          -4.82505675e-06, -7.50031249e-05, -7.25758800e-05,
          -5.74379083e-05, -5.60161461e-05, 0., 0., -6.55870508e-06,
          -3.50512200e-05, -3.50512200e-05, -3.50512200e-05,
          -3.50512200e-05, -3.50512200e-05, -3.23949171e-05,
          -1.28681140e-05, 0., 0., -1.76014655e-05, -5.74379083e-05,
          -3.98801603e-05, 6.76185346e-06, 0., 0., -4.90334605e-05,
          -8.01448696e-05, -8.01448696e-05, -8.01448696e-05,
          -8.01448696e-05, -8.01448696e-05, -8.01448696e-05,
          -4.31255467e-05, 0., 0., 5.31792784e-06, -4.03137674e-05,
          -1.98079979e-05, 1.66852496e-05, 0., -6.86212252e-06,
          -5.58972752e-05, -8.01448696e-05, -8.01448696e-05,
          -8.01448696e-05, -8.01448696e-05, -8.01448696e-05,
          -8.01448696e-05, -7.98730398e-05, 0., 0., 2.21173977e-05,
          -1.00165380e-05, 1.09013699e-05, 2.81471730e-05, 0.,
          -8.45590603e-06, -8.01448696e-05, -8.01448696e-05,
          -8.01448696e-05, -8.01448696e-05, -8.01448696e-05,
          -8.01448696e-05, -8.01448696e-05, -8.01448696e-05,
          -5.79960033e-06, 0., 2.81471730e-05, 3.97964250e-05,
          4.53626853e-05, 2.81471730e-05, -1.59378328e-06,
          -5.65387563e-05, -8.01448696e-05, -8.01448696e-05,
          -8.01448696e-05, -8.01448696e-05, -8.01448696e-05,
          -8.01448696e-05, -8.01448696e-05, -8.01448696e-05,
          -6.99492302e-05, -1.59378328e-06, 2.81471730e-05,
          5.52864367e-05 ]
      - [ -9.12834821e-06, 4.13495618e-05, 4.13495618e-05,
          4.13495618e-05, 4.13495618e-05, 4.13495618e-05, 4.13495618e-05,
          4.13495618e-05, 4.13495618e-05, 4.09025779e-05, 1.27373487e-05,
          -4.57279348e-05, -3.74586889e-05, -6.76642157e-05,
          -3.51806411e-05, 2.71050543e-20, 4.13495618e-05,
          4.13495618e-05, 4.13495618e-05, 4.13312446e-05, 4.11444053e-05,
          4.11444053e-05, 4.11444053e-05, 4.11444053e-05, 4.11444053e-05,
          4.08952510e-05, 2.94242618e-05, 1.41512128e-05, 2.26439352e-05,
          2.36352898e-05, -1.96499968e-05, 2.71050543e-20,
          3.61605998e-05, 3.61605998e-05, 3.61605998e-05, 2.60605266e-05,
          -7.11526664e-05, -7.11526664e-05, -7.11526664e-05,
          -7.11526664e-05, -7.11526664e-05, -7.15437855e-05,
          1.08713157e-05, 1.25132065e-05, 1.98994549e-05, 3.46726520e-05,
          1.74331126e-05, -9.98283940e-06, 2.57826687e-05,
          2.57826687e-05, 2.57826687e-05, 1.56825972e-05,
          -8.15305975e-05, -8.15305975e-05, -8.15305975e-05,
          -8.15305975e-05, -8.15305975e-05, -8.18099652e-05,
          -8.89629591e-05, -3.44002874e-05, 1.41979335e-05,
          2.47198495e-05, 4.51837586e-05, -2.35668358e-05,
          1.55668949e-05, 1.55668949e-05, 1.55668949e-05, 5.46682213e-06,
          -9.17463767e-05, -9.17463767e-05, -9.17463767e-05,
          -9.17463767e-05, -9.17463767e-05, -9.19139929e-05,
          -9.62393169e-05, -3.79786288e-05, 8.55228336e-06,
          1.49292027e-05, 2.72075486e-05, -5.00795250e-05,
          5.18896468e-06, 5.18896468e-06, 5.18896468e-06,
          -4.91110768e-06, -1.02124301e-04, -1.02124301e-04,
          -1.02124301e-04, -1.02124301e-04, -1.02124301e-04,
          -1.02180180e-04, -7.93013678e-05, -6.33860645e-06,
          2.85076135e-06, 4.97640076e-06, -3.73144030e-05,
          -9.05091219e-05, 0., 0., 0., -2.98248960e-06, -3.40442493e-05,
          -3.40442493e-05, -3.40442493e-05, -3.40442493e-05,
          -3.40442493e-05, -3.33958087e-05, 0., 0., 0., -1.62628821e-05,
          -9.18778751e-05, -1.07313266e-04, 0., 0., 0., 0., 0., 0., 0.,
          0., 0., 0., 0., 0., -7.65676020e-07, -6.05203059e-05,
          -1.07313266e-04, -1.07313266e-04, 0., 0., 0., -4.17172805e-06,
          -4.70677260e-05, -4.75696288e-05, -4.75696288e-05,
          -4.75696288e-05, -4.70127743e-05, -4.67233549e-05, 0., 0., 0.,
          -1.83176088e-08, -3.17930608e-05, -9.96722738e-05, 0., 0., 0.,
          -1.01000724e-05, -1.07313266e-04, -1.07313266e-04,
          -1.07313266e-04, -1.07313266e-04, -1.07313266e-04,
          -1.07313266e-04, -1.07313266e-04, -6.37697594e-05,
          -2.98248960e-06, 0., 0., -2.23474814e-07, 1.78794141e-06,
          8.38097549e-07, 0., -1.01000724e-05, -1.07313266e-04,
          -1.07313266e-04, -1.07313266e-04, -1.07313266e-04,
          -1.07313266e-04, -1.07313266e-04, -1.07313266e-04,
          -1.07313266e-04, -1.07313266e-04, 0., 4.71831527e-06,
          1.00657398e-05, 5.36382458e-06, 2.51429265e-06, 0.,
          -1.01000724e-05, -1.07313266e-04, -1.07313266e-04,
          -1.07313266e-04, -1.07313266e-04, -1.07313266e-04,
          -1.07313266e-04, -1.07313266e-04, -1.07313266e-04,
          -1.01055673e-04, 0., 1.41549463e-05, 3.01972195e-05,
          8.88383420e-06, 4.19048774e-06, 0., -1.01000724e-05,
          -1.07313266e-04, -1.07313266e-04, -1.07313266e-04,
          -1.07313266e-04, -1.07313266e-04, -1.07313266e-04,
          -1.07313266e-04, -1.07313266e-04, -1.01000724e-05, 0.,
          2.35915777e-05, 5.00141432e-05, 1.24597173e-05, 5.86668284e-06,
          0., -1.75661580e-06, -5.60010121e-05, -1.07313266e-04,
          -1.07313266e-04, -1.07313266e-04, -1.07313266e-04,
          -2.34615309e-05, -2.07020476e-05, -7.95559208e-06,
          -3.66352171e-09, 0., 3.30282091e-05, -3.62163314e-06,
          1.42476583e-05, 6.64890740e-06, 0., 0., 0., 0., 0., 0., 0., 0.,
          0., 0., 0., -1.58525672e-05, -5.39000393e-05, -2.70689325e-05,
          -3.62302526e-05, 6.64890740e-06, 0., 0., 0., 0., 0., 0., 0.,
          -5.79870211e-05, -5.96557147e-05, -5.99854320e-05,
          -1.02343358e-04, -1.07313266e-04, -6.98813019e-05,
          -2.71019053e-05 ]
      - [ -5.75034528e-06, -1.74376200e-05, -2.76639876e-05,
          -2.76639876e-05, -2.76639876e-05, -1.51810082e-05,
          9.48955221e-06, 1.65265210e-05, 1.98499456e-05, 3.61587481e-05,
          -2.01036096e-06, -1.10138872e-05, 4.02664227e-06,
          -1.72937162e-05, -1.48608742e-05, -2.28746444e-07,
          -5.75034528e-06, -1.74376200e-05, -2.76639876e-05,
          -8.02324394e-06, 3.16182450e-05, 3.96785981e-05,
          3.96785981e-05, 3.96785981e-05, 3.96785981e-05, 3.84337800e-05,
          1.12033695e-05, 1.60270429e-05, 3.96785981e-05, 3.90892310e-05,
          2.94856181e-05, 5.05302523e-06, -1.34795673e-05,
          -1.90830051e-05, 4.10444727e-06, 3.46993256e-05,
          3.46993256e-05, 3.46993256e-05, 3.11808399e-05, 1.43749767e-05,
          -4.00328327e-06, -5.09249958e-06, -2.88996598e-05,
          -7.24639312e-06, 2.93370358e-05, 3.46993256e-05,
          3.99892633e-05, 1.49614482e-06, -2.68830117e-05,
          -4.25269127e-06, 2.35746465e-05, 2.47407734e-05,
          2.47407734e-05, 1.11963400e-05, -3.16826154e-05,
          -4.26018123e-05, -4.26018123e-05, -4.33798232e-05,
          -6.03404806e-05, -5.72284334e-05, -4.26018123e-05,
          -1.12178841e-05, -1.68684455e-05, -2.54951337e-05,
          -3.12344710e-05, 9.58192868e-06, 1.49378257e-05,
          1.49378257e-05, -1.67540838e-05, -5.24047609e-05,
          -5.24047609e-05, -5.24047609e-05, -5.24047609e-05,
          -5.28715682e-05, -6.31413204e-05, -6.12740914e-05,
          -5.24047609e-05, -5.24047609e-05, -4.75632478e-05,
          -4.20762008e-05, -1.42151812e-05, 6.26831297e-06,
          4.97927522e-06, -7.50880463e-06, -5.38823806e-05,
          -6.23633096e-05, -6.23633096e-05, -6.23633096e-05,
          -6.23633096e-05, -6.25189132e-05, -6.59421639e-05,
          -6.53197567e-05, -6.23633096e-05, -6.23633096e-05,
          -6.07494731e-05, -5.89204574e-05, -7.24925258e-06, 0., 0.,
          -2.08629972e-05, -6.73425893e-05, -6.73425893e-05,
          -6.73425893e-05, -6.73425893e-05, -6.73425893e-05,
          -6.73425893e-05, -6.73425893e-05, -6.73425893e-05,
          -6.73425893e-05, -6.73425893e-05, -6.73425893e-05,
          -6.73425893e-05, 0., 0., 0., -2.08629972e-05, -6.73425893e-05,
          -6.73425893e-05, -6.73425893e-05, -6.73425893e-05,
          -6.73425893e-05, -6.73425893e-05, -6.73425893e-05,
          -6.73425893e-05, -6.73425893e-05, -6.73425893e-05,
          -6.73425893e-05, -6.73425893e-05, 0., 0., 0., -2.08629972e-05,
          -6.73425893e-05, -6.73425893e-05, -6.73425893e-05,
          -6.73425893e-05, -6.73425893e-05, -6.73425893e-05,
          -6.73425893e-05, -6.73425893e-05, -6.73425893e-05,
          -6.73425893e-05, -6.73309260e-05, -6.73210598e-05, 0., 0., 0.,
          -2.08629972e-05, -6.73425893e-05, -6.73425893e-05,
          -6.73425893e-05, -6.73425893e-05, -6.73425893e-05,
          -6.73425893e-05, -6.73425893e-05, -6.73425893e-05,
          -6.73425893e-05, -6.73425893e-05, -6.73067043e-05,
          -6.72780006e-05, -1.13638189e-05, 3.94787276e-06, 0.,
          -1.29507980e-05, -5.93629338e-05, -6.73425893e-05,
          -6.73425893e-05, -6.73425893e-05, -6.73425893e-05,
          -6.73425893e-05, -6.73425893e-05, -6.73425893e-05,
          -6.73425893e-05, -6.73425893e-05, -6.46236513e-05,
          -6.15627578e-05, -2.64531118e-05, 1.18436192e-05, 0., 0.,
          -3.16919104e-05, -6.73425893e-05, -6.73425893e-05,
          -6.73425893e-05, -6.73425893e-05, -6.73425893e-05,
          -6.73425893e-05, -6.73425893e-05, -6.73425893e-05,
          -6.73425893e-05, -5.92817596e-05, -5.01762333e-05,
          -2.11481492e-05, 5.64740049e-07, 0., 0., 0., -3.31828160e-05,
          -6.73425893e-05, -6.73425893e-05, -6.73425893e-05,
          -6.73425893e-05, -6.73425893e-05, -6.73425893e-05,
          -6.73425893e-05, -4.83403419e-05, -1.08504801e-05,
          -3.20149520e-05, -8.65087532e-06, -3.64986990e-05,
          -9.88640295e-06, 0., 0., 0., -1.00353654e-05, -2.32397942e-05,
          -5.18797715e-05, -5.18797715e-05, -5.18797715e-05,
          -3.54311305e-05, -1.35970995e-05, 0., 1.87401238e-05,
          2.57955489e-05, -2.28746444e-07, -3.60227932e-05,
          -6.73425893e-05, -3.18170205e-05, -4.35180982e-06, 0., 0., 0.,
          0., 0., 0., 0., 0., 0., 1.07886235e-05, -4.75856950e-06,
          -2.28746444e-07, -3.60227932e-05, -6.73425893e-05,
          -6.73425893e-05, -6.19727944e-05, -4.54983456e-05,
          -2.05567612e-05, -1.24998787e-05, -1.01850865e-05,
          -7.03696878e-06, -1.24998787e-05, -1.24998787e-05,
          -2.84490889e-05, -4.81349343e-05, -4.61208838e-05,
          -2.19136418e-05 ]
      - [ 8.59933971e-06, 3.49644724e-05, 3.49644724e-05, 3.49644724e-05,
          3.49644724e-05, 3.49644724e-05, 3.49644724e-05, 3.49644724e-05,
          2.88802112e-05, 1.83661734e-06, -3.50443661e-05,
          -6.55653494e-05, -5.67550742e-05, -5.29168101e-05,
          -2.80163040e-05, 1.35525272e-20, 3.49644724e-05,
          3.49644724e-05, 3.49644724e-05, 3.49644724e-05, 3.04890291e-05,
          2.83690824e-05, 3.13134515e-05, 3.49644724e-05, 3.49644724e-05,
          3.40606675e-05, 1.39037056e-05, 1.35435439e-05, 3.44932391e-06,
          -4.66747479e-05, -2.80163040e-05, 1.35525272e-20,
          3.05767753e-05, 3.05767753e-05, 3.05767753e-05, 3.47046625e-06,
          -5.69182703e-05, -5.69182703e-05, -5.69182703e-05,
          -5.69182703e-05, -1.02722670e-05, 1.13918641e-05,
          1.21627245e-05, 1.19705774e-05, 2.68833501e-05, 2.55427331e-05,
          -2.86148988e-05, -1.09797702e-05, 2.18013774e-05,
          2.18013774e-05, 2.18013774e-05, -5.30493071e-06,
          -6.56936681e-05, -6.56936681e-05, -6.56936681e-05,
          -6.56936681e-05, -6.56936681e-05, -6.62585444e-05,
          -7.43388373e-05, 8.55041253e-06, 1.91701147e-05,
          2.15599757e-05, 1.15883568e-05, -2.75522889e-05,
          1.31630950e-05, 1.31630950e-05, 1.31630950e-05,
          -1.40609873e-05, -7.43319470e-05, -7.43319470e-05,
          -7.43319470e-05, -7.43319470e-05, -7.43319470e-05,
          -7.46708756e-05, -8.22721049e-05, -5.24365969e-05,
          1.15698540e-05, 1.30182552e-05, 2.24331961e-05,
          -3.80860765e-05, 4.38769848e-06, 4.38769848e-06,
          4.38769848e-06, -2.28363842e-05, -8.31073485e-05,
          -8.31073485e-05, -8.31073485e-05, -8.31073485e-05,
          -8.31073485e-05, -8.32203223e-05, -8.57540654e-05,
          -8.24048184e-05, -2.02126630e-05, 4.33941841e-06,
          7.47773220e-06, 1.09797702e-05, 0., 0., 0., -2.74494250e-05,
          -8.74950420e-05, -8.74950420e-05, -8.74950420e-05,
          -8.74950420e-05, -8.74950420e-05, -8.74950420e-05,
          -8.74950420e-05, -8.74950420e-05, -2.74494250e-05, 0., 0., 0.,
          0., 0., 0., -2.73316509e-05, -8.74950420e-05, -8.74950420e-05,
          -8.74950420e-05, -8.74950420e-05, -8.74950420e-05,
          -8.74950420e-05, -8.74950420e-05, -8.74950420e-05,
          -2.73316509e-05, 0., 0., 0., 0., 0., 0., -2.73316509e-05,
          -8.74950420e-05, -8.74950420e-05, -8.74950420e-05,
          -8.74950420e-05, -8.74950420e-05, -8.74950420e-05,
          -8.74950420e-05, -8.74950420e-05, -2.73316509e-05, 0., 0., 0.,
          0., 0., 0., -2.74494250e-05, -8.74950420e-05, -8.74950420e-05,
          -8.74950420e-05, -8.74950420e-05, -8.74950420e-05,
          -8.74950420e-05, -8.74950420e-05, -8.74950420e-05,
          -2.74494250e-05, 0., 0., 0., 3.61521779e-06, 1.69463328e-06,
          0., -2.72240832e-05, -8.74950420e-05, -8.74950420e-05,
          -8.74950420e-05, -8.74950420e-05, -8.74950420e-05,
          -8.74950420e-05, -8.74950420e-05, -7.91683560e-05,
          -1.90049632e-05, 0., 4.78466700e-06, -1.15363173e-05,
          1.08456534e-05, 5.08389985e-06, 0., -2.72240832e-05,
          -8.74950420e-05, -8.74950420e-05, -8.74950420e-05,
          -8.74950420e-05, -8.74950420e-05, -8.74950420e-05,
          -8.74950420e-05, -5.05003554e-05, 0., 0., 1.43540010e-05,
          -4.04035200e-05, 1.79631134e-05, 8.47316642e-06, 0.,
          -2.71063072e-05, -8.74950420e-05, -8.74950420e-05,
          -8.74950420e-05, -8.74950420e-05, -8.74950420e-05,
          -8.74950420e-05, -3.25427682e-05, 0., 0., 0., -1.28106849e-05,
          -3.61015445e-05, 2.51935489e-05, 1.18624330e-05, 0.,
          -1.26843552e-05, -7.28477462e-05, -8.74950420e-05,
          -6.69888323e-05, -4.08490414e-05, -3.53136238e-05,
          -5.67440156e-06, 0., 0., 0., -5.37211008e-06, -5.34134997e-05,
          -1.63629957e-05, 2.88087667e-05, 1.34440907e-05, 0., 0., 0.,
          0., 0., 0., 0., 0., 0., -1.23938653e-05, -5.55701772e-05,
          -8.74950420e-05, -4.95366876e-05, -6.15570616e-06,
          2.44363400e-06, 1.34440907e-05, 0., 0., 0., 0., 0.,
          -2.63651327e-05, -3.22240521e-05, -4.22349076e-05,
          -7.36690636e-05, -8.74950420e-05, -8.74950420e-05,
          -8.74950420e-05, -4.95366876e-05, -6.15570616e-06 ]
      - [ 3.52525858e-05, 3.56661585e-05, 3.75272284e-05, 3.75272284e-05,
          3.75272284e-05, 3.59524747e-05, 3.52525858e-05, 3.52525858e-05,
          3.52525858e-05, 3.52537754e-05, 2.65640720e-05, 1.29588498e-05,
          2.07941357e-05, 3.44225955e-05, 4.03462909e-05,
          -9.09400296e-06, 3.75272284e-05, 3.75272284e-05,
          3.75272284e-05, 3.75272284e-05, 3.75272284e-05, 3.75272284e-05,
          3.75272284e-05, 3.75272284e-05, 3.75272284e-05, 3.71148453e-05,
          2.65640720e-05, 1.28632328e-05, 2.06985187e-05, 3.59973455e-05,
          4.26209335e-05, 2.69474331e-05, 3.28179267e-05, 3.28179267e-05,
          3.28179267e-05, 3.28179267e-05, -1.54111422e-05,
          -5.54413564e-05, -5.64752809e-05, -5.64752809e-05,
          -5.64752809e-05, -5.68361174e-05, -6.60615988e-05,
          -7.79091133e-05, -7.11047833e-05, -5.78139297e-05,
          -5.19871210e-05, -4.85319506e-05, 2.33993305e-05,
          2.33993305e-05, 2.33993305e-05, 2.33993305e-05,
          -2.66749012e-05, -6.58938807e-05, -6.58938807e-05,
          -6.58938807e-05, -6.58938807e-05, -6.61516169e-05,
          -7.27265215e-05, -8.11617138e-05, -7.63162025e-05,
          -6.68500579e-05, -6.26880501e-05, -6.02302498e-05,
          1.41278970e-05, 1.41278970e-05, 1.41278970e-05, 1.41278970e-05,
          -3.59463338e-05, -7.51653133e-05, -7.51653133e-05,
          -7.51653133e-05, -7.51653133e-05, -7.53199565e-05,
          -7.92958235e-05, -8.44143142e-05, -8.14760788e-05,
          -7.57390226e-05, -7.32418193e-05, -7.17457660e-05,
          4.70929899e-06, 4.70929899e-06, 4.70929899e-06, 4.70929899e-06,
          -4.53649336e-05, -8.45839095e-05, -8.45839095e-05,
          -8.45839095e-05, -8.45839095e-05, -8.46354596e-05,
          -8.59607462e-05, -8.76669073e-05, -8.66874980e-05,
          -8.47751435e-05, -8.39427448e-05, -8.34440580e-05, 0., 0., 0.,
          0., -1.57576251e-05, -2.99223448e-05, -3.07972077e-05,
          -3.07972077e-05, -3.07972077e-05, -3.07972077e-05,
          -3.07972077e-05, -3.07972077e-05, -3.07972077e-05,
          -7.09087544e-05, -8.92932076e-05, -8.92932076e-05, 0., 0., 0.,
          0., 0., 0., 0., 0., 0., 0., 0., 0., 0., -1.43975767e-05,
          -7.64341239e-05, -8.92932076e-05, 0., 0., 0., 0.,
          -5.18312754e-06, -2.86177565e-05, -3.74374431e-05,
          -3.74374431e-05, -3.74374431e-05, -3.74374431e-05,
          -3.74374431e-05, -3.74374431e-05, -3.74374431e-05,
          -4.67248901e-05, -7.98839901e-05, -8.52760058e-05, 0., 0., 0.,
          0., -5.00742317e-05, -8.92932076e-05, -8.92932076e-05,
          -8.92932076e-05, -8.92932076e-05, -8.92932076e-05,
          -8.92932076e-05, -8.92932076e-05, -8.92932076e-05,
          -8.92932076e-05, -8.25978714e-05, -7.72415951e-05,
          1.64953383e-06, 7.73219028e-07, 0., 0., -5.00742317e-05,
          -8.92932076e-05, -8.92932076e-05, -8.92932076e-05,
          -8.92932076e-05, -8.92932076e-05, -8.92932076e-05,
          -8.92932076e-05, -8.92932076e-05, -8.92932076e-05,
          -7.73052961e-05, -6.75576521e-05, 4.94860160e-06,
          2.31965691e-06, 0., 0., -5.00742317e-05, -8.92932076e-05,
          -8.92932076e-05, -8.92932076e-05, -8.92932076e-05,
          -8.92932076e-05, -8.92932076e-05, -8.92932076e-05,
          -8.92932076e-05, -8.92932076e-05, -7.12394976e-05,
          -5.63915564e-05, 8.19612160e-06, 3.86609508e-06, 0., 0.,
          -5.00742317e-05, -8.92932076e-05, -8.92932076e-05,
          -8.92932076e-05, -8.92932076e-05, -8.92932076e-05,
          -8.92932076e-05, -8.92932076e-05, -8.92932076e-05,
          -8.92932076e-05, -6.51737064e-05, -4.51096275e-05,
          1.14951890e-05, 5.41253303e-06, 0., 0., -1.12997377e-05,
          -2.01007952e-05, -2.01007952e-05, -2.01007952e-05,
          -2.01007952e-05, -2.01007952e-05, -2.01007952e-05,
          -2.01007952e-05, -2.01007952e-05, -2.01007952e-05,
          9.24758479e-06, -3.07698028e-05, 1.31447232e-05,
          6.13420434e-06, 0., 0., 0., 0., 0., 0., 0., 0., 0., 0., 0., 0.,
          3.00700503e-05, 5.58275242e-05, -2.06220720e-05,
          6.13420434e-06, 0., 0., 0., 0., 0., 0., 0., 0., 0., 0., 0., 0.,
          3.00700503e-05, 4.48030951e-05 ]
      - [ -1.01643954e-20, -1.89253333e-05, -3.54849981e-05,
          -3.54849981e-05, -3.54849981e-05, 2.57527319e-07,
          4.28649992e-06, 4.58930735e-05, 4.58930735e-05, 4.45560436e-05,
          1.51029972e-05, 1.70984604e-05, 5.40416579e-07,
          -2.23472616e-05, -1.89253333e-05, -1.01643954e-20,
          -1.01643954e-20, -1.89253333e-05, -3.34444194e-05,
          -9.29215275e-06, 4.44639118e-05, 4.58930735e-05,
          4.58930735e-05, 4.58930735e-05, 4.58930735e-05, 4.45560436e-05,
          1.51029972e-05, 1.82289459e-05, 4.36325245e-05, 4.56875714e-05,
          4.33049609e-05, 5.42520502e-06, -1.02121503e-05,
          -2.66326606e-05, 2.80911700e-05, 4.01339457e-05,
          4.01339457e-05, 4.01339457e-05, 2.73687565e-05, 1.34489858e-06,
          -4.12441295e-05, -4.24140308e-05, -6.81645542e-05,
          -1.86813431e-05, 2.79514097e-05, 3.95647075e-05,
          3.38933060e-05, -5.83119299e-06, -2.97493516e-05,
          1.23970376e-05, 2.86156828e-05, 2.86156828e-05, 2.86156828e-05,
          -3.89380366e-05, -5.27623924e-05, -5.27623924e-05,
          -5.27623924e-05, -5.35980362e-05, -7.19435193e-05,
          -6.98724980e-05, -5.41623922e-05, -5.28908313e-05,
          -4.23256279e-05, -3.06364527e-05, -3.32597774e-05,
          2.30526784e-05, 1.72773925e-05, 1.72773925e-05,
          -4.18994023e-05, -6.41006845e-05, -6.41006845e-05,
          -6.41006845e-05, -6.41006845e-05, -6.46020708e-05,
          -7.57096350e-05, -7.44747304e-05, -6.49483845e-05,
          -6.41777442e-05, -5.78386243e-05, -5.07416225e-05,
          -9.16141653e-06, 7.84648364e-06, 5.75913100e-06,
          -1.86361303e-05, -7.43965575e-05, -7.56189402e-05,
          -7.56189402e-05, -7.56189402e-05, -7.56189402e-05,
          -7.57860689e-05, -7.94885927e-05, -7.90769627e-05,
          -7.59015093e-05, -7.56446316e-05, -7.35315916e-05,
          -7.11659231e-05, -3.97155327e-06, 0., 0., -4.30825094e-05,
          -8.13780716e-05, -8.13780716e-05, -8.13780716e-05,
          -8.13780716e-05, -8.13780716e-05, -8.13780716e-05,
          -8.13780716e-05, -8.13780716e-05, -8.13780716e-05,
          -8.13780716e-05, -8.13780716e-05, -8.13780716e-05, 0., 0., 0.,
          -4.30825094e-05, -8.13780716e-05, -8.13780716e-05,
          -8.13780716e-05, -8.13780716e-05, -8.13780716e-05,
          -3.57425270e-05, -3.57425270e-05, -3.57425270e-05,
          -3.57425270e-05, -3.57425270e-05, -3.57425270e-05,
          -6.05813366e-05, 0., 0., -2.88307615e-06, -5.81632157e-05,
          -8.13780716e-05, -8.13780716e-05, -8.13780716e-05,
          -8.13780716e-05, -8.13780716e-05, 0., 0., 0., 0., 0., 0., 0.,
          0., 0., 0., -4.30825094e-05, -8.13780716e-05, -8.13780716e-05,
          -8.13780716e-05, -8.13780716e-05, -8.13780716e-05,
          -2.55303767e-05, -2.55303767e-05, -2.55303767e-05,
          -1.71029224e-05, -6.81482277e-07, 0., 0., -9.57242537e-06,
          4.59428520e-06, 0., -2.99396379e-05, -8.05992386e-05,
          -8.13780716e-05, -8.13780716e-05, -8.13780716e-05,
          -8.13780716e-05, -8.13780716e-05, -8.13780716e-05,
          -8.13780716e-05, -5.47650634e-05, -2.33651053e-06,
          2.50693211e-06, 5.34812216e-06, -3.44928048e-05,
          1.32960822e-05, 0., 0., -7.73647189e-05, -8.13780716e-05,
          -8.13780716e-05, -8.13780716e-05, -8.13780716e-05,
          -8.13780716e-05, -8.13780716e-05, -8.13780716e-05,
          -5.47650634e-05, -2.33651053e-06, 7.52079677e-06,
          1.60443669e-05, -2.02592473e-05, 1.45015747e-05, 0., 0.,
          -3.32662648e-06, -7.66498561e-05, -8.13780716e-05,
          -8.13780716e-05, -8.13780716e-05, -8.13780716e-05,
          -8.13780716e-05, -8.13780716e-05, -5.47650634e-05,
          -2.33651053e-06, 1.25346614e-05, 2.65734816e-05,
          -1.30763692e-05, -4.21212753e-05, 0., 0., 0., -5.43081569e-06,
          -1.50518472e-05, -8.13780716e-05, -8.13780716e-05,
          -8.13780716e-05, -8.13780716e-05, -7.95925662e-05,
          -1.72637028e-05, -3.89418432e-07, 1.75485256e-05,
          3.72697250e-05, -3.27522730e-06, -4.49300787e-05,
          -6.28572307e-05, -2.61686364e-05, 0., 0., 0., 0., 0., 0., 0.,
          0., 0., 0., 1.98883281e-05, 7.67293022e-06, -3.27522730e-06,
          -4.49300787e-05, -8.13780716e-05, -8.13780716e-05,
          -4.69120678e-05, -3.27725938e-05, -2.14180136e-06, 0., 0., 0.,
          0., 0., -2.23091865e-06, -4.19197277e-05, -3.81932769e-05,
          -3.87602267e-05 ]
      - [ 5.00556635e-05, 6.05584974e-05, 6.05584974e-05,
          -1.24572318e-06, -2.79812557e-05, -2.79812557e-05,
          -2.79812557e-05, -2.79812557e-05, -2.79812557e-05,
          -2.79812557e-05, -3.17810045e-05, -6.95410054e-05,
          -1.75756795e-05, 4.39219511e-05, 4.77217000e-05,
          4.77217000e-05, 6.05584974e-05, 6.05584974e-05, 6.05584974e-05,
          3.27813177e-05, -2.79812557e-05, -2.79812557e-05,
          -2.79812557e-05, -2.79812557e-05, -2.79812557e-05,
          -2.79812557e-05, -3.17810045e-05, -6.97784926e-05,
          -9.01591739e-06, 5.67587485e-05, 6.05584974e-05,
          6.05584974e-05, 5.29589997e-05, 5.29589997e-05, 5.29589997e-05,
          2.55290361e-05, -3.55807533e-05, -3.55807533e-05,
          -3.55807533e-05, -3.55807533e-05, -3.55807533e-05,
          -3.55807533e-05, -3.89055349e-05, -7.19158488e-05,
          -1.08060613e-05, 4.96342182e-05, 5.29589997e-05,
          5.29589997e-05, 3.77600045e-05, 3.77600045e-05, 3.77600045e-05,
          1.03300408e-05, -5.07797486e-05, -5.07797486e-05,
          -5.07797486e-05, -5.07797486e-05, -5.07797486e-05,
          -5.07797486e-05, -5.31545920e-05, -7.66655357e-05,
          -1.55557482e-05, 3.53851610e-05, 3.77600045e-05,
          3.77600045e-05, 2.27984929e-05, 2.27984929e-05, 2.27984929e-05,
          -4.63146989e-06, -6.57412602e-05, -6.57412602e-05,
          -6.57412602e-05, -6.57412602e-05, -6.57412602e-05,
          -6.57412602e-05, -6.71661692e-05, -8.14152227e-05,
          -2.03054333e-05, 2.13735875e-05, 2.27984929e-05,
          2.27984929e-05, 7.59949762e-06, 7.59949762e-06, 7.59949762e-06,
          -1.98304642e-05, -8.09402554e-05, -8.09402554e-05,
          -8.09402554e-05, -8.09402554e-05, -8.09402554e-05,
          -8.09402554e-05, -8.14152227e-05, -8.61649096e-05,
          -2.50551202e-05, 7.12452902e-06, 7.59949762e-06,
          7.59949762e-06, 0., 0., 0., -8.68036750e-06, -3.85493149e-05,
          -4.34865433e-05, -4.34865433e-05, -4.34865433e-05,
          -4.34865433e-05, -4.34865433e-05, -4.34865433e-05,
          -4.34865433e-05, -1.36175977e-05, 0., 0., 0., 0., 0., 0., 0.,
          0., 0., 0., 0., 0., 0., 0., 0., 0., 0., 0., 0., 7.62329653e-21,
          5.08219768e-21, 6.35274710e-22, -9.01064141e-06,
          -2.88340525e-05, -2.88340525e-05, -2.88340525e-05,
          -2.88340525e-05, -2.88340525e-05, -2.88340525e-05,
          -2.88340525e-05, -2.88340525e-05, -9.01064141e-06, 0.,
          2.62469428e-07, 4.84558939e-07, 2.28698896e-20, 1.49289557e-20,
          2.22346149e-21, -2.77771778e-05, -8.85397531e-05,
          -8.85397531e-05, -8.85397531e-05, -8.85397531e-05,
          -8.85397531e-05, -8.85397531e-05, -8.85397531e-05,
          -8.85397531e-05, -2.77771778e-05, 0., 8.07598212e-07,
          1.45367676e-06, 3.81164826e-20, 2.47757137e-20, 3.49401091e-21,
          -2.74299618e-05, -8.85397531e-05, -8.85397531e-05,
          -8.85397531e-05, -8.85397531e-05, -8.85397531e-05,
          -8.85397531e-05, -8.85397531e-05, -8.85397531e-05,
          -2.74299618e-05, 0., 1.35272705e-06, 2.42279475e-06,
          5.30454383e-20, 3.49401091e-20, 5.08219768e-21,
          -2.74299618e-05, -8.85397531e-05, -8.85397531e-05,
          -8.85397531e-05, -8.85397531e-05, -8.85397531e-05,
          -8.85397531e-05, -8.85397531e-05, -8.85397531e-05,
          -2.74299618e-05, 0., 1.89785578e-06, 3.37172264e-06,
          6.82920314e-20, 4.47868671e-20, 6.35274710e-21,
          -2.74299618e-05, -8.85397531e-05, -8.85397531e-05,
          -8.85397531e-05, -8.85397531e-05, -8.85397531e-05,
          -8.85397531e-05, -8.85397531e-05, -8.85397531e-05,
          -2.74299618e-05, 0., 2.44298462e-06, 4.34084041e-06,
          8.09975256e-20, 5.30454383e-20, 7.62329653e-21,
          -2.74299618e-05, -8.85397531e-05, -8.85397531e-05,
          -8.85397531e-05, -8.85397531e-05, -8.85397531e-05,
          -8.85397531e-05, -8.85397531e-05, -8.85397531e-05,
          -2.74299618e-05, 0., 2.88716365e-06, 5.14843850e-06,
          8.09975256e-20, 5.30454383e-20, 7.62329653e-21,
          -2.77771778e-05, -8.85397531e-05, -8.85397531e-05,
          -8.85397531e-05, -8.85397531e-05, -8.85397531e-05,
          -8.85397531e-05, -8.85397531e-05, -8.85397531e-05,
          -2.77771778e-05, 0., 2.88716365e-06, 5.14843850e-06,
          8.09975256e-20, 5.30454383e-20, 7.62329653e-21,
          -5.30069738e-05, -8.85397531e-05, -8.85397531e-05,
          -8.85397531e-05, -8.85397531e-05, -8.85397531e-05,
          -8.85397531e-05, -8.85397531e-05, -8.85397531e-05,
          -2.77771778e-05, 0., 2.88716365e-06, -2.49728491e-05 ]
      - [ -6.66379719e-06, -6.66379719e-06, -6.66379719e-06,
          -6.66379719e-06, -6.66379719e-06, -6.66379719e-06,
          -6.66379719e-06, -6.66379719e-06, -6.66379719e-06,
          -7.95054075e-06, -3.76357566e-05, 3.87344062e-06,
          4.87034740e-05, 6.39844293e-05, 6.55221302e-05, 2.61737241e-05,
          -6.66379719e-06, -6.66379719e-06, -6.66379719e-06,
          -6.66379719e-06, -6.66379719e-06, -6.66379719e-06,
          -6.66379719e-06, -6.66379719e-06, -6.66379719e-06,
          -7.95054075e-06, -3.76357566e-05, 3.77733409e-06,
          4.86073659e-05, 6.39844293e-05, 6.55221302e-05, 6.55221302e-05,
          -1.48861827e-05, -1.48861827e-05, -1.48861827e-05,
          -1.48861827e-05, -1.48861827e-05, -1.48861827e-05,
          -1.48861827e-05, -1.48861827e-05, -1.48861827e-05,
          -1.60120835e-05, -4.19665412e-05, 9.82259394e-07,
          4.25954349e-05, 5.59542532e-05, 5.72997487e-05, 5.72997487e-05,
          -3.13309538e-05, -3.13309538e-05, -3.13309538e-05,
          -3.13309538e-05, -3.13309538e-05, -3.13309538e-05,
          -3.13309538e-05, -3.13309538e-05, -3.13309538e-05,
          -3.21351690e-05, -5.06281103e-05, -4.83870690e-06,
          3.03793549e-05, 3.98939119e-05, 4.08549749e-05, 4.08549749e-05,
          -4.75187735e-05, -4.75187735e-05, -4.75187735e-05,
          -4.75187735e-05, -4.75187735e-05, -4.75187735e-05,
          -4.75187735e-05, -4.75187735e-05, -4.75187735e-05,
          -4.80013041e-05, -5.91935750e-05, -1.09427547e-05,
          1.83241191e-05, 2.40905156e-05, 2.46671552e-05, 2.46671552e-05,
          -6.39635473e-05, -6.39635473e-05, -6.39635473e-05,
          -6.39635473e-05, -6.39635473e-05, -6.39635473e-05,
          -6.39635473e-05, -6.39635473e-05, -6.39635473e-05,
          -6.41243896e-05, -6.78551442e-05, -1.73298849e-05,
          6.10803954e-06, 8.03017156e-06, 8.22238508e-06, 8.22238508e-06,
          -7.21859324e-05, -7.21859324e-05, -7.21859324e-05,
          -7.21859324e-05, -7.21859324e-05, -7.21859324e-05,
          -7.21859324e-05, -7.21859324e-05, -7.21859324e-05,
          -7.21859324e-05, -7.21859324e-05, -2.03819091e-05, 0., 0., 0.,
          0., -7.21859324e-05, -7.21859324e-05, -7.21859324e-05,
          -7.21859324e-05, -7.21859324e-05, -7.21859324e-05,
          -7.21859324e-05, -7.21859324e-05, -7.21859324e-05,
          -7.21859324e-05, -7.21859324e-05, -2.03819091e-05, 0., 0., 0.,
          0., -7.15587521e-05, -7.17678122e-05, -7.21336619e-05,
          -7.21859324e-05, -7.21859324e-05, -7.21859324e-05,
          -7.21859324e-05, -7.21859324e-05, -7.21859324e-05,
          -7.21859324e-05, -7.21859324e-05, -2.03819091e-05, 0., 0., 0.,
          0., -7.03043843e-05, -7.09576998e-05, -7.20030002e-05,
          -7.21859324e-05, -7.21859324e-05, -7.21859324e-05,
          -7.21859324e-05, -7.21859324e-05, -7.21859324e-05,
          -7.21859324e-05, -7.21859324e-05, -2.03819091e-05, 0., 0., 0.,
          0., -6.39030550e-05, -6.77349453e-05, -7.18984738e-05,
          -7.21859324e-05, -7.21859324e-05, -7.21859324e-05,
          -7.21859324e-05, -7.21859324e-05, -7.21859324e-05,
          -7.21859324e-05, -7.21859324e-05, -2.03819091e-05, 0., 0.,
          2.41264365e-06, 5.14697331e-06, -5.23808776e-05,
          -6.20734208e-05, -7.17678122e-05, -7.21859324e-05,
          -7.21859324e-05, -7.21859324e-05, -7.21859324e-05,
          -7.21859324e-05, -7.21859324e-05, -7.21859324e-05,
          -7.21859324e-05, -2.00988270e-05, 0., 0., 7.23793119e-06,
          1.54409190e-05, -4.09934109e-05, -4.99271373e-05,
          -1.44806991e-05, -7.21859324e-05, -7.21859324e-05,
          -7.21859324e-05, -7.21859324e-05, -7.21859324e-05,
          -7.21859324e-05, -7.21859324e-05, -2.77420440e-05,
          -1.13232829e-06, 0., 0., 1.20632185e-05, -4.01010184e-05,
          4.25317667e-05, 2.12526393e-05, 6.27180896e-07, 0.,
          -3.68006704e-06, -3.36867670e-05, -7.21859324e-05,
          -7.21859324e-05, -4.10469002e-05, -1.35879400e-05,
          -4.52931317e-06, 0., 0., 0., 1.68885053e-05, -3.40533043e-05,
          -2.22425333e-05, 2.35044408e-05, 6.27180896e-07, 0., 0., 0.,
          0., 0., 0., 0., 0., 0., 0., 0., -4.62516546e-05,
          -3.11709882e-05, -2.45071897e-05, -4.86814897e-05,
          -6.64632680e-05, -3.17051927e-05, 0., 0., 0., 0., 0., 0., 0.,
          -2.91574543e-05, -6.51088776e-05, -7.21859324e-05,
          -5.30456236e-05, -3.11709882e-05 ]
      - [ 3.03828328e-05, 5.55311926e-05, 5.55311926e-05, 2.22648305e-05,
          -2.96354810e-05, -2.96354810e-05, -2.96354810e-05,
          -2.96354810e-05, -2.96354810e-05, -3.03663346e-05,
          -3.04007754e-05, -1.75662331e-06, 3.34089891e-05,
          5.35085892e-05, 3.23195309e-05, -1.12076314e-05,
          5.55311926e-05, 5.55311926e-05, 5.55311926e-05, 2.22648305e-05,
          -2.96354810e-05, -2.96354810e-05, -2.96354810e-05,
          -2.96354810e-05, -2.96354810e-05, -1.03370867e-05,
          3.44259206e-05, 1.93963442e-05, 3.01874425e-05, 2.43395571e-05,
          -2.46472246e-06, -1.70110998e-05, 4.85625715e-05,
          4.85625715e-05, 4.85625715e-05, 1.55111538e-05,
          -3.66041022e-05, -3.66041022e-05, -3.66041022e-05,
          -3.63660147e-05, -1.25274801e-05, 2.83632398e-05,
          3.21757070e-05, 1.71623487e-05, 7.36689981e-06,
          -3.83738770e-05, -3.14058270e-05, -2.55639552e-05,
          3.46253328e-05, 3.46253328e-05, 3.46253328e-05, 1.57391401e-06,
          -5.05413409e-05, -5.05413409e-05, -5.05413409e-05,
          -3.91759313e-05, 3.46253328e-05, 3.41685482e-05,
          2.29465295e-05, -3.04351379e-05, -6.43203093e-05,
          -5.18054658e-05, -4.68282888e-05, -4.26696679e-05,
          2.09058599e-05, 2.09058599e-05, 2.09058599e-05,
          -1.21455569e-05, -6.42608138e-05, -6.42608138e-05,
          -2.49066088e-05, 2.02610299e-05, 2.09058599e-05,
          1.75366531e-05, -1.22268084e-05, -7.54470020e-05,
          -7.26040380e-05, -6.50192887e-05, -6.20329811e-05,
          -5.95081037e-05, 6.96862026e-06, 6.96862026e-06,
          6.96862026e-06, -2.60827965e-05, -7.81980489e-05,
          -5.45711409e-05, 1.16515287e-06, 6.96862026e-06,
          6.96862026e-06, -4.86272438e-05, -7.99072513e-05,
          -8.27149051e-05, -8.09791309e-05, -7.84508738e-05,
          -7.74554428e-05, -7.66138182e-05, 0., 0., 0., -2.87426992e-05,
          -5.05873941e-05, 0., 0., 0., 0., -6.10930292e-05,
          -8.51666700e-05, -8.51666700e-05, -8.51666700e-05,
          -8.51666700e-05, -8.51666700e-05, -8.51666700e-05, 0., 0., 0.,
          0., 0., 0., 0., 0., 0., -4.76174864e-06, -8.17275795e-05,
          -8.51666700e-05, -8.51666700e-05, -8.51666700e-05,
          -8.51666700e-05, -8.51666700e-05, 0., 0., 0., 0., 0.,
          -1.50460266e-06, -4.72871652e-05, -4.51380765e-06, 0.,
          -4.76174876e-07, -1.91660383e-05, -8.51666700e-05,
          -8.51666700e-05, -8.51666700e-05, -8.42994414e-05,
          -8.35656247e-05, 0., 0., 0., 0., 0., -4.45821606e-05,
          -8.51666700e-05, -7.65955265e-05, 0., 0., 0., -4.21780242e-05,
          -7.97930916e-05, -8.51666700e-05, -8.24982635e-05,
          -8.03635412e-05, 2.92341770e-06, 1.37035204e-06, 0.,
          -3.22414849e-06, -7.02430116e-05, -8.51666700e-05,
          -8.51666700e-05, -8.51666700e-05, -5.30643956e-05, 0., 0.,
          -9.52349751e-07, -6.08780865e-05, -8.51666700e-05,
          -7.85841257e-05, -7.26537983e-05, 8.77025286e-06,
          4.11105611e-06, 0., -3.30514158e-05, -8.51666700e-05,
          -8.51666700e-05, -8.51666700e-05, -8.51666700e-05,
          -8.51666700e-05, -2.57931879e-05, -2.14943228e-07, 0.,
          -9.28540976e-06, -8.09901758e-05, -7.25570280e-05,
          -6.05031091e-05, 1.45257318e-05, 6.85176019e-06, 0.,
          -3.30514158e-05, -8.51666700e-05, -8.51666700e-05,
          -8.51666700e-05, -8.51666700e-05, -8.51666700e-05,
          -8.11191858e-05, -5.34379114e-06, 0., 0., -2.34284689e-05,
          -3.75125892e-05, -4.84265765e-05, 2.03725667e-05,
          9.59246427e-06, 0., -3.30514158e-05, -8.51666700e-05,
          -8.51666700e-05, -8.51666700e-05, -8.51666700e-05,
          -8.51666700e-05, -8.51666700e-05, -6.70720256e-05, 0., 0., 0.,
          -1.05396593e-05, -2.83600748e-05, 2.32959846e-05,
          1.08714594e-05, 0., -3.32663622e-05, -8.51666700e-05,
          -8.51666700e-05, -8.51666700e-05, -8.51666700e-05,
          -8.51666700e-05, -8.51666700e-05, -8.51666700e-05,
          -4.94369451e-05, -1.18218777e-05, 0., 2.40405643e-05,
          1.38419309e-05, -1.85237320e-06, 1.08714594e-05, 0.,
          -5.43307979e-05, -8.51666700e-05, -8.51666700e-05,
          -8.51666700e-05, -8.51666700e-05, -8.51666700e-05,
          -8.51666700e-05, -8.51666700e-05, -8.42143199e-05,
          -3.82598955e-05, 0., 2.63023958e-05, 4.32889246e-05 ]
      - [ 5.75957274e-05, 5.82517932e-05, 5.82517932e-05, 4.96720968e-05,
          9.47818808e-06, -1.35267055e-05, -1.35267055e-05,
          -1.35267055e-05, -1.35267055e-05, -1.41926321e-05,
          -3.10829382e-05, -5.15888896e-05, -3.89362831e-05,
          -1.58498679e-05, -1.21640169e-05, -1.06066582e-05,
          5.82517932e-05, 5.82517932e-05, 5.82517932e-05, 5.82517932e-05,
          3.79849225e-05, -1.35267055e-05, -1.35267055e-05,
          -1.35267055e-05, -1.35267055e-05, -1.41926321e-05,
          -3.10829382e-05, -5.17340850e-05, -3.90814821e-05,
          -1.58498679e-05, -1.21640169e-05, -1.06066582e-05,
          5.09417659e-05, 5.09417659e-05, 5.09417659e-05, 5.09417659e-05,
          3.06748952e-05, -2.08367346e-05, -2.08367346e-05,
          -2.08367346e-05, -2.08367346e-05, -2.14194206e-05,
          -3.61880302e-05, -5.40397523e-05, -4.30519649e-05,
          -2.28695008e-05, -1.96343626e-05, -1.82831245e-05,
          3.63217077e-05, 3.63217077e-05, 3.63217077e-05, 3.63217077e-05,
          1.63363202e-05, -3.54567928e-05, -3.54567928e-05,
          -3.54567928e-05, -3.54567928e-05, -3.58729958e-05,
          -4.63982215e-05, -5.91079661e-05, -5.12833285e-05,
          -3.69087684e-05, -3.45979570e-05, -3.36360572e-05,
          2.19300873e-05, 2.19300873e-05, 2.19300873e-05, 2.19300873e-05,
          1.94470090e-06, -4.98484114e-05, -4.98484114e-05,
          -4.98484114e-05, -4.98484114e-05, -5.00981332e-05,
          -5.64632137e-05, -6.41761799e-05, -5.94314515e-05,
          -5.07195982e-05, -4.93331099e-05, -4.87491016e-05,
          7.31002910e-06, 7.31002910e-06, 7.31002910e-06, 7.31002910e-06,
          -1.29568416e-05, -6.44684696e-05, -6.44684696e-05,
          -6.44684696e-05, -6.44684696e-05, -6.45517139e-05,
          -6.66734049e-05, -6.92443937e-05, -6.76628188e-05,
          -6.47588677e-05, -6.42967061e-05, -6.41020306e-05, 0., 0., 0.,
          0., -2.02668707e-05, -7.17785006e-05, -7.17785006e-05,
          -7.17785006e-05, -7.17785006e-05, -7.17785006e-05,
          -7.17785006e-05, -7.17785006e-05, -7.17785006e-05,
          -7.17785006e-05, -7.17785006e-05, -7.17785006e-05, 0., 0., 0.,
          0., -2.02668707e-05, -7.17785006e-05, -7.17785006e-05,
          -7.17785006e-05, -7.17785006e-05, -7.17785006e-05,
          -7.17785006e-05, -7.17785006e-05, -7.17785006e-05,
          -7.17785006e-05, -7.17785006e-05, -7.17785006e-05, 0., 0., 0.,
          0., -2.02668707e-05, -7.17785006e-05, -7.17785006e-05,
          -7.17785006e-05, -7.17785006e-05, -7.17785006e-05,
          -7.17785006e-05, -7.17785006e-05, -7.17785006e-05,
          -7.17785006e-05, -7.12377660e-05, -7.07802246e-05, 0., 0., 0.,
          0., -2.02668707e-05, -7.17785006e-05, -7.17785006e-05,
          -7.17785006e-05, -7.17785006e-05, -7.17785006e-05,
          -7.17785006e-05, -7.17785006e-05, -7.17785006e-05,
          -7.17785006e-05, -7.01147073e-05, -6.87836800e-05,
          2.66370625e-06, 1.24861231e-06, 0., 0., -2.02668707e-05,
          -7.17785006e-05, -7.17785006e-05, -7.17785006e-05,
          -7.17785006e-05, -7.17785006e-05, -7.17785006e-05,
          -7.17785006e-05, -7.17785006e-05, -7.17785006e-05,
          -6.75712727e-05, -6.37569901e-05, 7.99111876e-06,
          3.74583692e-06, 0., 0., -1.99853857e-05, -7.17785006e-05,
          -7.17785006e-05, -7.17785006e-05, -7.17785006e-05,
          -7.17785006e-05, -7.17785006e-05, -7.17785006e-05,
          -7.17785006e-05, -7.17785006e-05, -6.36074546e-05,
          -5.57417479e-05, 1.32352898e-05, 6.24306131e-06, 0., 0.,
          -1.99853857e-05, -7.17785006e-05, -7.17785006e-05,
          -7.17785006e-05, -7.17785006e-05, -7.17785006e-05,
          -7.17785006e-05, -7.17785006e-05, -7.17785006e-05,
          -7.17785006e-05, -5.96436366e-05, -4.77796057e-05,
          1.85627032e-05, 8.74028592e-06, 0., 0., -3.65929600e-06,
          -1.35112468e-05, -1.35112468e-05, -1.35112468e-05,
          -1.35112468e-05, -1.40917937e-05, -1.44882642e-05,
          -1.44882642e-05, -1.37236420e-05, -1.35112468e-05,
          2.37945915e-06, -3.80851379e-05, 2.12264094e-05,
          9.90565786e-06, 0., 0., 0., 0., 0., 0., 0., 0., 0., 0., 0., 0.,
          1.72163946e-05, 3.47531131e-05, 2.05703436e-05, 9.90565786e-06,
          0., 0., 0., 0., 0., 0., 0., 0., 0., 0., 0., 0., 1.72163946e-05,
          3.47531131e-05 ]
      - [ 3.28609567e-05, 5.50946570e-05, 5.50946570e-05, 3.11905023e-05,
          -3.81603240e-05, -3.81603240e-05, -3.81603240e-05,
          -3.81603240e-05, -3.81603240e-05, -3.81603240e-05,
          -4.16172443e-05, -7.59703835e-05, -1.53461369e-05,
          5.16377368e-05, 5.50946570e-05, 4.72980464e-05, 5.50946570e-05,
          5.50946570e-05, 5.50946570e-05, 5.23208619e-05,
          -2.45618648e-05, -3.81603240e-05, -3.81603240e-05,
          -3.81603240e-05, -3.81603240e-05, -3.81603240e-05,
          -4.16172443e-05, -6.42905943e-05, 1.45859794e-05,
          5.16377368e-05, 5.50946570e-05, 5.50946570e-05, 4.81808165e-05,
          4.81808165e-05, 4.81808165e-05, 4.81808165e-05,
          -9.10054212e-07, -4.50741645e-05, -4.50741645e-05,
          -4.50741645e-05, -4.50741645e-05, -4.50741645e-05,
          -4.80989693e-05, -3.44708315e-05, 1.51240238e-05,
          4.51560118e-05, 4.81808165e-05, 4.81808165e-05, 3.43531392e-05,
          3.43531392e-05, 3.43531392e-05, 3.43531392e-05, 3.34865763e-05,
          -5.82247812e-05, -5.89018418e-05, -5.89018418e-05,
          -5.89018418e-05, -5.89018418e-05, -6.10624193e-05,
          2.07099583e-06, 1.08028735e-05, 3.21925654e-05, 3.43531392e-05,
          3.43531392e-05, 2.07415178e-05, 2.07415178e-05, 8.47417414e-06,
          2.03609579e-05, 2.07415178e-05, -3.44707842e-05,
          -7.25134669e-05, -7.25134669e-05, -7.25134669e-05,
          -7.25134669e-05, -3.26958216e-05, 6.48172409e-06,
          6.27539976e-06, 1.66391565e-05, 2.07415178e-05, 2.07415178e-05,
          6.91383912e-06, 6.91383912e-06, -4.08211745e-05,
          -3.13453202e-05, 6.91383912e-06, -7.78648337e-06,
          -8.63411406e-05, -8.63411406e-05, -8.63411406e-05,
          -8.63411406e-05, -3.05624017e-05, 2.16057470e-06,
          -3.89783418e-05, -2.86057129e-05, 6.91383912e-06,
          6.91383912e-06, 0., 0., -3.88919398e-05, -7.88765683e-05, 0.,
          -8.75738522e-07, -9.07299182e-05, -9.32549810e-05,
          -9.32549810e-05, -9.22233594e-05, -1.29887917e-06,
          -9.74576324e-07, -7.79345646e-05, -1.75717905e-05, 0., 0., 0.,
          0., -1.75592540e-05, -9.00313826e-05, -1.32014320e-05, 0.,
          -2.90750522e-05, -9.32549810e-05, -9.32549810e-05,
          -2.36646156e-05, 0., -1.32525138e-05, -9.16751669e-05,
          -1.75966816e-05, 0., 0., 4.81762925e-07, 3.21175293e-07,
          -1.75191071e-05, -9.32549810e-05, -4.24633799e-05, 0.,
          -2.54366182e-06, -8.20092682e-05, -8.80276057e-05,
          -6.74728608e-06, 0., -5.64822840e-05, -9.32549810e-05,
          -1.29324753e-05, 1.93739808e-07, 3.57673514e-07,
          1.44528883e-06, 9.43452392e-07, -1.73938497e-05,
          -9.32549810e-05, -9.16869103e-05, -3.38531117e-06,
          -2.99869640e-07, -6.01610918e-05, -6.92909598e-05, 0., 0.,
          -9.16869103e-05, -9.32549810e-05, -1.01993355e-05,
          5.96122504e-07, 1.07302048e-06, 2.40881468e-06, 1.56572958e-06,
          -1.73548215e-05, -9.32549810e-05, -9.32549810e-05,
          -4.39587529e-05, 0., -9.57824250e-06, -9.57824250e-06, 0.,
          -4.39059804e-05, -9.32549810e-05, -9.32549810e-05,
          -1.76130561e-05, 9.98505243e-07, 1.78836751e-06,
          3.35226696e-06, 2.20808010e-06, -1.72131895e-05,
          -9.32549810e-05, -9.32549810e-05, -8.32957885e-05,
          -1.24453138e-07, 0., 0., 0., -8.37681873e-05, -9.32549810e-05,
          -9.32549810e-05, -1.75717905e-05, 1.40088787e-06,
          2.48881156e-06, 4.31579292e-06, 2.83035729e-06,
          -1.71328957e-05, -9.32549810e-05, -9.32549810e-05,
          -9.32549810e-05, -5.75553531e-06, 0., 0., -8.40487610e-06,
          -9.32051989e-05, -9.32549810e-05, -9.32549810e-05,
          -1.75717905e-05, 1.80327061e-06, 3.20415847e-06,
          5.11873122e-06, 3.35226696e-06, -1.70526018e-05,
          -9.32549810e-05, -9.32549810e-05, -9.32549810e-05,
          -8.02083960e-05, 0., 0., -7.39627285e-05, -9.32549810e-05,
          -9.32549810e-05, -9.32549810e-05, -1.75717905e-05,
          2.13113799e-06, 3.80028109e-06, 5.11873122e-06, 3.35226696e-06,
          -1.70526018e-05, -9.32549810e-05, -9.32549810e-05,
          -9.32549810e-05, -9.29551097e-05, -7.24026613e-05,
          -7.24026613e-05, -9.29551097e-05, -9.32549810e-05,
          -9.32549810e-05, -9.32549810e-05, -1.75717905e-05,
          2.13113799e-06, 3.80028109e-06, -1.71149677e-05,
          3.35226696e-06, -3.53099640e-05, -9.32549810e-05,
          -9.32549810e-05, -9.32549810e-05, -9.32549810e-05,
          -9.32549810e-05, -9.32549810e-05, -9.32549810e-05,
          -9.32549810e-05, -9.32549810e-05, -9.32549810e-05,
          -2.97355946e-05, 2.13113799e-06, -1.84334185e-05 ]
      - [ 4.44988254e-05, 4.44988254e-05, 4.44988254e-05, 3.71519527e-05,
          -3.35617005e-05, -3.35617005e-05, -3.35617005e-05,
          -3.35617005e-05, -3.35617005e-05, -3.38979589e-05,
          -4.33731620e-05, -6.31333678e-05, -5.67444768e-05,
          4.23792590e-05, 4.44988254e-05, 4.44988254e-05, 4.44988254e-05,
          4.44988254e-05, 4.44988254e-05, 4.44988254e-05, 1.97031295e-05,
          -2.86637860e-05, -3.35617005e-05, -3.35617005e-05,
          -3.35617005e-05, -3.38979589e-05, -4.33731620e-05,
          -6.32658412e-05, -5.68769501e-05, 4.23792590e-05,
          4.44988254e-05, 4.44988254e-05, 3.89146589e-05, 3.89146589e-05,
          3.89146589e-05, 3.89146589e-05, 3.89146589e-05,
          -1.55746493e-05, -3.91458670e-05, -3.91458670e-05,
          -3.91458670e-05, -3.94400922e-05, -4.77256435e-05,
          -6.49624853e-05, -5.94142366e-05, 3.70600392e-05,
          3.89146589e-05, 3.89146589e-05, 2.77463278e-05, 2.77463278e-05,
          2.77463278e-05, 2.77463278e-05, 2.77463278e-05, 2.77463278e-05,
          -5.03142001e-05, -5.03142001e-05, -5.03142001e-05,
          -5.05243625e-05, -5.64306029e-05, -6.87047868e-05,
          -6.47537599e-05, 2.64215978e-05, 2.77463278e-05,
          2.77463278e-05, 1.67524995e-05, 1.67524995e-05, 1.67524995e-05,
          -5.39611538e-05, 1.67524995e-05, 1.67524995e-05,
          1.43035413e-05, -6.13080265e-05, -6.13080265e-05,
          -6.14341261e-05, -6.50030852e-05, -7.24470810e-05,
          -7.00512464e-05, 1.59576612e-05, 1.67524995e-05,
          1.67524995e-05, 5.58416650e-06, 5.58416650e-06, 5.58416650e-06,
          -7.24763595e-05, -4.06399122e-05, 5.58416650e-06,
          5.58416650e-06, -2.13543681e-05, -7.24763595e-05,
          -7.25183927e-05, -7.37080481e-05, -7.61893752e-05,
          -7.53907661e-05, 5.31922024e-06, 5.58416650e-06,
          5.58416650e-06, 0., 0., 0., -7.80605260e-05, -7.80605260e-05,
          -2.20406200e-05, 0., 0., -3.67343673e-05, -7.74482905e-05,
          -7.80605260e-05, -7.80605260e-05, -7.80605260e-05, 0., 0., 0.,
          0., 0., 0., -7.80605260e-05, -7.80605260e-05, -7.80605260e-05,
          0., 0., 0., -6.85708146e-05, -7.80605260e-05, -7.80605260e-05,
          -7.80605260e-05, 0., 0., 0., 0., 0., 0., -7.80605260e-05,
          -7.80605260e-05, -7.80605260e-05, -6.85708146e-05, 0., 0., 0.,
          -7.80605260e-05, -7.80605260e-05, -7.80605260e-05, 0., 0., 0.,
          0., 0., 0., -7.80605260e-05, -7.80605260e-05, -7.80605260e-05,
          -7.74482905e-05, -3.67343673e-05, 0., 0., -2.20406200e-05,
          -7.80605260e-05, -7.80605260e-05, 0., 0., 0., 1.34503046e-06,
          6.30483044e-07, 0., -7.80605260e-05, -7.80605260e-05,
          -7.80605260e-05, -7.80605260e-05, -6.55096155e-05,
          -1.43876268e-05, 0., 0., -4.62240787e-05, -7.80605260e-05, 0.,
          6.30483044e-07, 1.34503046e-06, 4.03509148e-06, 1.89144907e-06,
          0., -7.80605260e-05, -7.80605260e-05, -7.80605260e-05,
          -7.80605260e-05, -7.80605260e-05, -7.80605260e-05,
          -2.44895773e-06, 0., 0., -7.07136569e-05, 0., 1.89144907e-06,
          4.03509148e-06, 6.68312032e-06, 3.15241527e-06, 0.,
          -7.80605260e-05, -7.80605260e-05, -7.80605260e-05,
          -7.80605260e-05, -7.80605260e-05, -7.80605260e-05,
          -7.80605260e-05, 0., 0., 0., 0., 3.15241527e-06,
          6.68312032e-06, 9.37318146e-06, 4.41338125e-06, 0.,
          -7.80605260e-05, -7.80605260e-05, -7.80605260e-05,
          -7.80605260e-05, -7.80605260e-05, -7.80605260e-05,
          -7.80605260e-05, -5.44893082e-05, 0., 0., 0., 4.41338125e-06,
          9.37318146e-06, 1.07182113e-05, 5.00183205e-06, 0.,
          -7.80605260e-05, -7.80605260e-05, -7.80605260e-05,
          -7.80605260e-05, -7.80605260e-05, -7.80605260e-05,
          -7.80605260e-05, -7.31626133e-05, -2.47956978e-05, 0., 0.,
          5.00183205e-06, 1.07182113e-05, 1.07182113e-05, 5.00183205e-06,
          0., -7.80605260e-05, -7.80605260e-05, -7.80605260e-05,
          -7.80605260e-05, -7.80605260e-05, -7.80605260e-05,
          -7.80605260e-05, -7.80605260e-05, -7.80605260e-05,
          -7.34687319e-06, 0., 5.00183205e-06, -2.84651123e-05 ]
      - [ 2.66080515e-05, 2.66080515e-05, 2.66080515e-05, 2.66080515e-05,
          2.66080515e-05, 2.66080515e-05, 2.66080515e-05, 2.66080515e-05,
          2.66080515e-05, 2.59272856e-05, -3.08989144e-07,
          -2.02036190e-05, -1.93132946e-05, -4.23764068e-05,
          -4.36618029e-05, -3.99022829e-05, 2.66080515e-05,
          2.66080515e-05, 2.66080515e-05, 2.66080515e-05, 2.24011892e-05,
          2.24011892e-05, 2.24011892e-05, 2.24011892e-05, 2.29270463e-05,
          2.59272856e-05, 1.07275091e-05, 1.02855811e-05, 2.32201601e-05,
          1.67914277e-05, -2.63524471e-05, -3.93764240e-05,
          2.32690018e-05, 2.32690018e-05, 2.32690018e-05, 1.93499836e-05,
          -5.02904331e-05, -5.02904331e-05, -5.02904331e-05,
          -5.02904331e-05, -5.02904331e-05, -4.69819424e-05,
